{"embedding.embedding.weight": [[-0.23741471767425537, -0.20747840404510498, 0.23057842254638672, 0.12424027919769287, -0.17241404950618744, -0.08958862721920013, -0.16237729787826538, -0.04173925518989563, 0.22546792030334473, 0.16881267726421356, -0.3280644714832306, -0.11290427297353745, -0.26727738976478577, 0.1032506451010704, -0.018128816038370132, -0.07944775372743607, 0.05453268438577652, -0.16334585845470428, 0.19036553800106049, -0.4036346971988678, 0.030510200187563896, -0.10654254257678986, 0.13085788488388062, -0.11353787779808044, 0.058281637728214264, -0.1749739646911621, 0.0825459212064743, 0.0019188220612704754, -0.15950442850589752, -0.0023030065931379795, -0.019003894180059433, -0.08541569858789444], [-0.24429921805858612, 0.07027539610862732, -0.2671818435192108, 0.10070595890283585, 0.1158270314335823, 0.14272135496139526, 0.1627090573310852, -0.3035430908203125, -0.16606399416923523, -0.3085159659385681, 0.05879209563136101, -0.18259917199611664, 0.0013164961710572243, -0.09244219958782196, 0.1441902220249176, -0.0158719252794981, -0.09579727798700333, -0.23517850041389465, -0.01825018599629402, 0.308597594499588, -0.03820771351456642, -0.19219860434532166, 0.03254285454750061, 0.23666250705718994, 0.1727374792098999, 0.13659697771072388, -0.4923507571220398, 0.03336699306964874, 0.1485460102558136, -0.1863051950931549, 0.16236577928066254, 0.03616861626505852], [0.030349308624863625, -0.011997489258646965, -0.08715104311704636, -0.05571841076016426, 0.2434910237789154, -0.033478401601314545, 0.20889703929424286, 0.006682421080768108, 0.34919893741607666, 0.19739307463169098, 0.009465754963457584, -0.04204157739877701, -0.027068521827459335, -0.02504129707813263, 0.2677949070930481, -0.054384734481573105, 0.3235701024532318, 0.12973500788211823, -0.11440929025411606, 0.048056453466415405, -0.11264751106500626, -0.09672549366950989, 0.31435427069664, 0.14581015706062317, -0.029666775837540627, -0.22083024680614471, -0.05878004431724548, 0.18212632834911346, -0.31696391105651855, 0.29932281374931335, 0.03052276372909546, -0.2226160168647766], [0.08136206865310669, 0.026632104068994522, -0.3981611132621765, -0.016948362812399864, 0.016171768307685852, -0.09850748628377914, -0.046544890850782394, -0.23044686019420624, 0.17778633534908295, -0.33143317699432373, 0.18075241148471832, -0.07885243743658066, 0.130464106798172, 0.023823503404855728, -0.25603723526000977, -0.09331513196229935, -0.12441283464431763, 0.15639463067054749, 0.2961369454860687, 0.10911525040864944, -0.1691095232963562, -0.1275169998407364, 0.11581539362668991, -0.09849227219820023, 0.011608485132455826, -0.14494137465953827, -0.004725205712020397, 0.06247745454311371, 0.12111788243055344, 0.15165047347545624, 0.09817363321781158, 0.3667585849761963], [-0.07709340751171112, 0.014556382782757282, -0.0748140960931778, -0.24063560366630554, -0.12175820767879486, 0.005852488335222006, -0.07758114486932755, -0.0671958178281784, -0.2905762195587158, 0.28797563910484314, 0.16588476300239563, 0.13098253309726715, 0.545490562915802, 0.18140098452568054, -0.09494487941265106, -0.02591681107878685, 0.17456158995628357, -0.12579619884490967, 0.032622843980789185, 0.00527555588632822, -0.14872173964977264, 0.034913819283246994, -0.1403283029794693, -0.005211706273257732, 0.15246757864952087, -0.27062276005744934, 0.06476990878582001, -0.09022720903158188, -0.0057460106909275055, 0.11418171972036362, -0.05256899073719978, 0.22801527380943298], [0.03635799139738083, 0.03723736107349396, 0.02134520933032036, 0.08402874320745468, -0.06380946189165115, -0.21021604537963867, -0.024217404425144196, 0.3561912477016449, -0.06076311320066452, -0.17417395114898682, -0.20225884020328522, 0.14514173567295074, -0.38545340299606323, -0.08703718334436417, -0.049175698310136795, -0.04922913759946823, -0.10126198828220367, 0.15233854949474335, 0.17832310497760773, -0.24607381224632263, 0.2204546183347702, -0.1416340321302414, 0.10424421727657318, 0.0799388512969017, -0.010411253198981285, -0.03749031946063042, 0.12519337236881256, 0.3303092420101166, -0.12514574825763702, 0.06702255457639694, 0.28973525762557983, -0.23173603415489197], [-0.17858098447322845, -0.016321256756782532, -0.11909240484237671, 0.020566295832395554, 0.0032872576266527176, -0.08057162910699844, 0.13904382288455963, -0.02853243798017502, 0.13033528625965118, 0.010485397651791573, 0.02659163437783718, -0.015319319441914558, -0.09050830453634262, 0.19735929369926453, 0.13089658319950104, 0.29478365182876587, 0.09256017953157425, 0.12981350719928741, 0.33824726939201355, -0.08780596405267715, 0.02944093942642212, 0.0284957867115736, -0.1252719759941101, -0.025984033942222595, 0.2758721709251404, -0.05010618641972542, -0.14357537031173706, -0.026188118383288383, 0.18494072556495667, 0.07472832500934601, 0.22839969396591187, -0.04641890525817871], [-0.09644410759210587, 0.0012839185073971748, 0.027121059596538544, -0.05193134769797325, -0.17416499555110931, 0.16158783435821533, -0.12281955778598785, -0.2261991798877716, 0.383201003074646, 0.21318525075912476, -0.28131741285324097, 0.3389328718185425, -0.13803373277187347, -0.39214497804641724, -0.41842883825302124, -0.15941590070724487, -0.23002475500106812, 0.009099381044507027, -0.137282595038414, -0.09244470298290253, -0.18498334288597107, 0.03186529874801636, -0.15215250849723816, 0.12968240678310394, 0.25080543756484985, 0.09980069100856781, 0.27106285095214844, 0.022675469517707825, 0.13270610570907593, -0.003408826654776931, 0.17622852325439453, -0.0029163365252316], [-0.019165515899658203, 0.20406794548034668, 0.08800508826971054, 0.12899190187454224, 0.16677385568618774, -0.09343878924846649, -0.0990523248910904, 0.2708951234817505, -0.09380866587162018, -0.22294722497463226, 0.23672421276569366, -0.12497194856405258, 0.32267335057258606, -0.12320896238088608, 0.21414613723754883, 0.09933887422084808, 0.33035150170326233, 0.26573941111564636, -0.3170798122882843, -0.14756673574447632, -0.49468687176704407, -0.03778162598609924, -0.2726251482963562, -0.10425734519958496, -0.061597857624292374, -0.06736040860414505, -0.20010121166706085, 0.12233499437570572, 0.16193999350070953, 0.17815034091472626, -0.23126715421676636, 0.0049276212230324745], [-0.09645861387252808, -0.13852845132350922, -0.0047901226207613945, -0.0016550873406231403, -0.12469308078289032, -0.3557434380054474, 0.20694859325885773, -0.021294262260198593, 0.16083911061286926, -0.3306267559528351, -0.03649703785777092, 0.017638707533478737, -0.08632360398769379, -0.1799234002828598, -0.1487506777048111, -0.10297878831624985, -0.2945326566696167, -0.09065968543291092, -0.11026602983474731, 0.12168178707361221, 0.06042107939720154, 0.22750072181224823, -0.14016711711883545, -0.20373815298080444, 0.2436102330684662, -0.12384442239999771, 0.15353046357631683, 0.056307196617126465, -0.07638130336999893, -0.01297546736896038, -0.30836525559425354, -0.20479224622249603], [0.11489246785640717, -0.20122994482517242, 0.4211144745349884, -0.14968454837799072, 0.4552888572216034, 0.1624494045972824, 0.227776899933815, 0.4245510697364807, 0.3239930272102356, 0.07011249661445618, -0.30854687094688416, -0.18926633894443512, 0.17717166244983673, 0.19205071032047272, -0.09308291971683502, 0.09274916350841522, -0.16715116798877716, -0.2817961275577545, -0.021819721907377243, 0.24132004380226135, -0.2716138958930969, -0.2770223617553711, -0.0009186901152133942, -0.23232251405715942, 0.42589354515075684, 0.07954791933298111, 0.1226150244474411, 0.28198015689849854, 0.0790775790810585, 0.043663740158081055, -0.24387383460998535, 0.33151155710220337], [-0.1454543024301529, 0.13270670175552368, -0.27783530950546265, -0.16957035660743713, 0.005201512016355991, -0.20876267552375793, 0.22728551924228668, 0.08849837630987167, -0.18089887499809265, 0.04711836576461792, -0.26300105452537537, -0.15396173298358917, -0.023175213485956192, 0.1764722317457199, 0.15107329189777374, -0.045149605721235275, 0.03546972572803497, 0.01640089601278305, 0.04843548312783241, -0.13530558347702026, 0.04225155711174011, -0.1331690549850464, 0.019663354381918907, 0.11970096826553345, 0.25600388646125793, -0.08640239387750626, 0.11837472766637802, -0.1428004950284958, 0.11412548273801804, 0.37132468819618225, 0.12016075849533081, 0.12020021677017212], [0.338837593793869, -0.022644739598035812, -0.30163058638572693, 0.18459060788154602, 0.16238977015018463, 0.17226272821426392, -0.10968387126922607, -0.31744033098220825, -0.3910062909126282, -0.32277947664260864, 0.0009537048172205687, 0.15307895839214325, 0.07821481674909592, -0.06235532835125923, -0.20704828202724457, 0.22619296610355377, 0.20601828396320343, -0.18943166732788086, -0.22171637415885925, -0.23891307413578033, -0.30624130368232727, 0.13140305876731873, 0.10763861238956451, -0.15944930911064148, -0.05760703980922699, -0.21082523465156555, -0.21611502766609192, -0.5460192561149597, -0.14940153062343597, -0.13277176022529602, 0.05915933474898338, -0.2569812834262848], [0.2603154182434082, 0.08275054395198822, 0.029960550367832184, -0.0370236299932003, 0.2536967694759369, -0.1599223017692566, 0.07494048774242401, -0.03138241544365883, -0.02468429133296013, -0.16656769812107086, -0.08624578267335892, 0.10616959631443024, -0.23958182334899902, 0.0029643166344612837, 0.1276063621044159, 0.15335789322853088, 0.010502108372747898, 0.047788023948669434, -0.14962676167488098, -0.19814111292362213, -0.2737106382846832, 0.01200820878148079, -0.26464608311653137, -0.11850808560848236, -0.012871386483311653, 0.25025567412376404, 0.023346297442913055, 0.03305017203092575, -0.07817932963371277, -0.09609927982091904, 0.09519246220588684, 0.07183656096458435], [-0.12542074918746948, -0.020454682409763336, 0.2938181459903717, -0.018558910116553307, -0.2708078920841217, -0.36820143461227417, 0.2041800320148468, 0.08523106575012207, 0.08635617047548294, -0.02060214802622795, -0.20731863379478455, 0.013085530139505863, 0.0001926240511238575, -0.08285817503929138, 0.20213842391967773, 0.10523499548435211, 0.034227654337882996, -0.3743177056312561, -0.13141986727714539, -0.10540878027677536, -0.24500149488449097, -0.24038401246070862, 0.24518148601055145, 0.16081202030181885, -0.18185469508171082, -0.00845787301659584, 0.06227735057473183, -0.05348096787929535, 0.30709585547447205, -0.21552976965904236, -0.058010995388031006, 0.09571345150470734], [0.36648568511009216, 0.42329949140548706, 0.01080903597176075, 0.040409352630376816, 0.018177788704633713, 0.08845876902341843, -0.15854722261428833, 0.0676787793636322, 0.16694441437721252, -0.12499432265758514, 0.04855944961309433, 0.01307343877851963, -0.09144215285778046, -0.2511826455593109, -0.3764035105705261, 0.09801346063613892, -0.018908893689513206, 0.3566007614135742, 0.03437843546271324, -0.3585592210292816, 0.05484241619706154, -0.09302881360054016, -0.22732356190681458, -0.16898144781589508, -0.17991970479488373, -0.26511526107788086, 0.14144682884216309, 0.03402924910187721, 0.08245699852705002, -0.2580989897251129, 0.22154884040355682, -0.14662809669971466], [-0.15367519855499268, 0.21607737243175507, -0.10017522424459457, -0.5042352080345154, -0.1829635351896286, -0.2500881552696228, -0.2363162487745285, -0.1401963233947754, 0.10690990835428238, -0.2092798948287964, -0.2976909577846527, -0.21171443164348602, 0.08810249716043472, -0.2301436960697174, -0.1446329951286316, 0.07387156039476395, 0.18494251370429993, -0.1282210499048233, 0.06463208794593811, -0.27785003185272217, 0.18116828799247742, 0.11241494119167328, 0.18012472987174988, 0.3213827908039093, 0.05095984414219856, -0.25373005867004395, 0.10348160564899445, -0.032668355852365494, 0.26027733087539673, 0.0033192713744938374, -0.07496801018714905, 0.32041630148887634], [-0.26437902450561523, 0.04110195115208626, -0.20848309993743896, -0.09652451425790787, -0.14798131585121155, -0.03600297123193741, -0.21958012878894806, 0.016041232272982597, -0.05887389928102493, 0.10124488919973373, 0.2387595772743225, -0.1536049246788025, 0.20234861969947815, 0.2402614802122116, -0.12850938737392426, 0.11650794744491577, -0.4417736828327179, 0.20397421717643738, -0.3554924428462982, 0.028883393853902817, -0.021848920732736588, -0.03818662092089653, 0.10421283543109894, -0.2574593722820282, 0.14179056882858276, -0.11232750117778778, 0.05153010040521622, -0.2090228646993637, -0.31350329518318176, -0.13039642572402954, -0.03894326463341713, 0.35106903314590454], [0.16313476860523224, -0.14005768299102783, -0.14852163195610046, -0.3278377652168274, 0.19318777322769165, 0.19860100746154785, 0.3257545232772827, 0.17262940108776093, 0.08962319046258926, -0.11517650634050369, -0.1379181444644928, -0.12273697555065155, -0.03991853445768356, 0.13722455501556396, -0.012595325708389282, -0.15936104953289032, -0.1329299658536911, 0.08538694679737091, 0.30129772424697876, 0.015202121809124947, -0.16143974661827087, -0.1424105316400528, -0.16852827370166779, -0.06871300935745239, 0.083767831325531, -0.020500333979725838, -0.20373670756816864, 0.1441812664270401, -0.3588351011276245, -0.3667213022708893, -0.08006242662668228, -0.14386621117591858], [0.1332167685031891, 0.18643920123577118, -0.21326233446598053, -0.07880643010139465, -0.10398923605680466, 0.016011226922273636, 0.1550445556640625, 0.02159331552684307, -0.030057720839977264, -0.2539830505847931, -0.09592919796705246, 0.07777851074934006, 0.1677035689353943, -0.11875146627426147, -0.16691716015338898, 0.26877740025520325, 0.20570698380470276, -0.08899594843387604, 0.046072594821453094, -0.03485632687807083, -0.21058078110218048, 0.08441662788391113, -0.029550861567258835, 0.3363989591598511, -0.08630920946598053, 0.12675487995147705, -0.08764157444238663, -0.14637553691864014, 0.154500812292099, 0.051111411303281784, 0.36590132117271423, 0.16333383321762085], [0.4740830659866333, -0.1911400854587555, -0.2591107189655304, -0.14934363961219788, 0.10094331204891205, 0.12520574033260345, -0.020615946501493454, 0.17185664176940918, -0.40409374237060547, -0.3027072250843048, 0.0968480333685875, -0.12071794271469116, 0.084878109395504, 0.23036377131938934, -0.13654063642024994, -0.012956475839018822, -0.15227331221103668, -0.11694029718637466, 0.24883903563022614, -0.4018979072570801, -0.00772852823138237, 0.10329189151525497, 0.26026687026023865, 0.11652883142232895, -0.0215410478413105, -0.06864924728870392, -0.10728587210178375, -0.04783143103122711, -0.08006294816732407, -0.11622493714094162, 0.18071329593658447, 0.267302930355072], [0.10379248112440109, -0.15168480575084686, 0.3919699788093567, 0.12863177061080933, 0.09530818462371826, 0.09631037712097168, -0.07490474730730057, -0.031800512224435806, 0.23394110798835754, 0.12028751522302628, 0.21725378930568695, 0.37706151604652405, -0.009422540664672852, 0.25984489917755127, 0.14318808913230896, -0.0008562146686017513, -0.07336825877428055, -0.023257484659552574, 0.18382394313812256, -0.15798094868659973, -0.18775871396064758, -0.14875687658786774, -0.1420505791902542, 0.2448263317346573, 0.2839137017726898, -0.17326755821704865, 0.02506854757666588, 0.05624309554696083, 0.27500656247138977, 0.19552099704742432, -0.29519927501678467, -0.1236446276307106], [0.32025644183158875, 0.20253795385360718, -0.06701354682445526, 0.07415509968996048, 0.0507950633764267, 0.058499451726675034, -0.19572216272354126, 0.32723912596702576, 0.004475538153201342, -0.14096802473068237, 0.1793079525232315, 0.0551152229309082, 0.30644136667251587, 0.019371017813682556, 0.2733338177204132, 0.2719648778438568, 0.04706616327166557, -0.29076680541038513, -0.17515450716018677, 0.00036085257306694984, 0.08008896559476852, 0.008219133131206036, -0.17155829071998596, 0.0017221635207533836, -0.14837932586669922, 0.04227624088525772, 0.10310596227645874, 0.040150243788957596, 0.3481031656265259, 0.24970708787441254, -0.06389906257390976, 0.0024178330786526203], [-0.3718646764755249, 0.026913341134786606, 0.11452023684978485, 0.23177002370357513, -0.013525281101465225, 0.22448422014713287, -0.20301544666290283, -0.2034444957971573, 0.15770354866981506, -0.016209380701184273, -0.29455599188804626, -0.0708121806383133, 0.04516614228487015, -0.2190883755683899, -0.031018350273370743, -0.1614731252193451, -0.09710826724767685, -0.17236682772636414, -0.1430215835571289, 0.11589013040065765, 0.031156841665506363, -0.15229618549346924, -0.14085163176059723, -0.30968815088272095, 0.40641075372695923, -0.05620504170656204, 0.04908467084169388, -0.08119714260101318, -0.0721440538764, 0.10881571471691132, 0.04597257077693939, 0.06698263436555862], [0.09311769902706146, 0.15317006409168243, 0.0538613498210907, -0.3556371331214905, 0.11800302565097809, 0.08809594810009003, 0.055791035294532776, -0.29008737206459045, 0.2566852569580078, 0.020572930574417114, -0.006953984498977661, 0.16726481914520264, -0.4276333451271057, 0.02768252231180668, 0.053163569420576096, -0.07980796694755554, 0.16790594160556793, 0.06963113695383072, 0.03234860673546791, 0.19001701474189758, -0.3776627779006958, -0.01339273527264595, -0.07874401658773422, -0.09972048550844193, -0.23683959245681763, 0.09593164175748825, -0.1254664957523346, 0.2109835296869278, -0.19770312309265137, -0.009901000186800957, -0.08427812904119492, -0.22837196290493011], [-0.21672509610652924, -0.1184467077255249, 0.10774843394756317, 0.18262065947055817, -0.30894115567207336, -0.08251424133777618, 0.0032576466910541058, -0.08216522634029388, -0.04620055854320526, 0.27355143427848816, -0.3557780981063843, 0.17058852314949036, 0.0897742509841919, 0.11681444197893143, 0.10732580721378326, -0.11688440293073654, 0.1557634323835373, 0.09883178025484085, 0.06755427271127701, 0.04869372770190239, -0.046151887625455856, -0.05572282150387764, 0.32018592953681946, 0.008136196993291378, 0.04312256723642349, 0.26442545652389526, 0.1357661783695221, -0.1138385757803917, 0.1719934493303299, -0.22976981103420258, -0.11634829640388489, -0.18682977557182312], [-0.07152169197797775, 0.13128182291984558, -0.059344831854104996, 0.13846254348754883, -0.12887391448020935, -0.14831912517547607, -0.009409193880856037, -0.132664754986763, -0.019910724833607674, 0.10493893176317215, -0.014312943443655968, 0.36341115832328796, 0.26913949847221375, 0.026721986010670662, 0.07095178961753845, -0.3466140925884247, -0.24454592168331146, -0.06504064053297043, 0.06103742495179176, -0.055602531880140305, -0.08666574209928513, 0.12661662697792053, -0.12216056883335114, 0.07621345669031143, 0.008562572300434113, 0.3437509536743164, -0.026618661358952522, -0.08689187467098236, -0.17053236067295074, 0.013469519093632698, -0.4585787057876587, -0.06183319538831711], [0.07822199910879135, -0.13391195237636566, -0.008353297598659992, -0.19300512969493866, -0.00635488098487258, 0.14870429039001465, 0.2750428318977356, 0.1343708485364914, -0.11968320608139038, 0.5200126767158508, -0.06350968033075333, 0.07211194932460785, 0.10238058865070343, 0.15792006254196167, 0.02110934816300869, -0.076657235622406, 0.19089005887508392, 0.2950156331062317, 0.025945579633116722, 0.45860859751701355, -0.31101876497268677, 0.18590319156646729, -0.16340240836143494, 0.20427994430065155, -0.1441139131784439, 0.24504701793193817, 0.023712409660220146, -0.032010454684495926, 0.2951543629169464, -0.018912015482783318, 0.149108424782753, -0.00854839663952589], [0.01706697791814804, -0.025242269039154053, -0.011944110505282879, -0.20342673361301422, -0.11351533979177475, -0.11141382157802582, -0.10617432743310928, 0.04312407970428467, -0.029674269258975983, -0.14333631098270416, -0.14658138155937195, 0.11582271009683609, 0.16707034409046173, -0.014286546036601067, 0.29522085189819336, 0.037358105182647705, -0.046861931681632996, 0.292762815952301, 0.02942144125699997, 0.14538609981536865, 0.1284084916114807, -0.13462017476558685, 0.15038961172103882, 0.032066088169813156, -0.11881687492132187, -0.04286133125424385, -0.3065395653247833, 0.3009340465068817, 0.07794133573770523, 0.009895704686641693, -0.24783167243003845, -0.05599880591034889], [-0.10548252612352371, -0.43349501490592957, 0.22406485676765442, -0.1689957231283188, 0.03994251415133476, 0.018459120765328407, -0.042533133178949356, -0.1536310464143753, -0.06827154010534286, -0.05406904220581055, -0.45797964930534363, 0.08705805242061615, -0.002826408948749304, -0.014790408313274384, -0.011654959991574287, 0.1150730550289154, -0.09756195545196533, 0.05926835164427757, -0.16453894972801208, -0.0935712456703186, -0.26444217562675476, 0.0008981325663626194, 0.13643644750118256, -0.3086266815662384, -0.1762322634458542, -0.05676857754588127, -0.163596048951149, 0.10148065537214279, 0.10884717106819153, 0.10826867073774338, -0.047804176807403564, 0.13940685987472534], [0.04715629667043686, 0.1492854207754135, 0.2171599566936493, 0.1133652850985527, -0.028337929397821426, -0.11544014513492584, -0.2670976221561432, -0.11344745755195618, 0.10698017477989197, 0.43759381771087646, 0.18008901178836823, 0.26332712173461914, -0.435668408870697, -0.0900682732462883, -0.007575467694550753, 0.3463139832019806, -0.007015175186097622, 0.044565197080373764, 0.307958722114563, 0.23441094160079956, -0.29073816537857056, 0.035891544073820114, -0.05336480587720871, -0.2990531623363495, -0.31029564142227173, 0.10592808574438095, 0.26276135444641113, -0.1494503766298294, 0.06822293996810913, 0.01055354904383421, -0.09890212118625641, 0.29296204447746277], [-0.16591747105121613, -0.05978289991617203, -0.1301352083683014, -0.1842062622308731, 0.14108490943908691, -0.12845291197299957, 0.03517984226346016, -0.0013281912542879581, 0.016506735235452652, -0.28547561168670654, 0.05574493855237961, -0.056332528591156006, 0.30449017882347107, -0.1681729108095169, -0.038871921598911285, -0.011637857183814049, -0.37932977080345154, 0.06907563656568527, 0.27222755551338196, -0.17704465985298157, -0.024967193603515625, 0.029136084020137787, -0.06462020426988602, -0.21128003299236298, 0.11707044392824173, 0.09198135137557983, -0.16047903895378113, 0.06333526968955994, 0.09007470309734344, 0.029278554022312164, 0.2848096191883087, 0.11133573949337006], [0.10383721441030502, 0.06853644549846649, 0.1501595824956894, -0.17049220204353333, -0.06364721804857254, 0.39338061213493347, 0.02017623744904995, -0.09056727588176727, -0.1549578607082367, 0.2714882493019104, 0.20891673862934113, 0.10634391009807587, -0.13990475237369537, 0.17252284288406372, 0.11567583680152893, 0.06452128291130066, 0.07896078377962112, -0.1803794652223587, -0.1540532112121582, -0.16799090802669525, -0.0392514243721962, 0.38271665573120117, -0.05254568159580231, 0.018510622903704643, 0.16493669152259827, 0.11223956197500229, -0.004564879462122917, 0.23237770795822144, -0.3207029104232788, -0.46517229080200195, 0.09644270688295364, 0.17798148095607758], [-0.41582947969436646, -0.11301620304584503, 0.2073214054107666, -0.09633900970220566, -0.08075997233390808, -0.017921891063451767, -0.04622593894600868, 0.09008350968360901, -0.05986141413450241, 0.34852588176727295, -0.28079673647880554, 0.10760409384965897, -0.03703305497765541, 0.05848049372434616, -0.09811901301145554, -0.17595018446445465, 0.03705360367894173, 0.14698943495750427, -0.09596305340528488, 0.23554667830467224, -0.04639935493469238, 0.14540952444076538, 0.12401214241981506, -0.2548547387123108, 0.03412880003452301, -0.20466181635856628, 0.021663092076778412, -0.1354908049106598, -5.291495472192764e-05, 0.12311486899852753, -0.37325844168663025, -0.13504697382450104], [0.06906529515981674, 0.10557802021503448, -0.10004160553216934, -0.19357551634311676, 0.29978153109550476, 0.20941197872161865, 0.03660352900624275, -0.047236621379852295, 0.2512798607349396, 0.04862137883901596, 0.06073350831866264, 0.003977513872087002, -0.025828290730714798, -0.09469303488731384, -0.030850905925035477, -0.36222997307777405, 0.07521122694015503, 0.1266259104013443, -0.06802944839000702, -0.024747177958488464, -0.08174945414066315, -0.3398153781890869, -0.04780174046754837, 0.04601867496967316, 0.09380456060171127, 0.013809965923428535, 0.0637466162443161, 0.08309777826070786, -0.1278274804353714, -0.18409283459186554, 0.023170096799731255, 0.043433044105768204], [0.03206947073340416, -0.01955401711165905, -0.173392653465271, -0.1082504615187645, 0.015328245237469673, -0.08176636695861816, 0.09328626096248627, -0.15269677340984344, 0.09287898987531662, -0.3199528157711029, 0.1550176590681076, 0.008313044905662537, -0.21097540855407715, 0.10864410549402237, -0.15185196697711945, -0.2698962688446045, 0.0026770606637001038, -0.2127697616815567, 0.15757398307323456, 0.06863515079021454, 0.09310176223516464, 0.1399994194507599, -0.1320994347333908, -0.25214502215385437, -0.13493312895298004, -0.08245418220758438, -0.0497487373650074, 0.24238018691539764, -0.2659252882003784, -0.47748711705207825, -0.044918790459632874, -0.006104332860559225], [-0.06593751162290573, -0.2728869616985321, 0.22107896208763123, 0.21682687103748322, 0.06720263510942459, 0.17977771162986755, -0.1650657206773758, -0.29068419337272644, -0.08262025564908981, 0.026679396629333496, -0.08410820364952087, 0.013037266209721565, -0.05756363645195961, -0.04101908206939697, -0.2563113272190094, -0.2993752658367157, 0.41474661231040955, -0.12169532477855682, -0.17948316037654877, -0.0506746843457222, -0.07250303775072098, -0.44292140007019043, -0.003644685260951519, 0.003061276860535145, 0.13243824243545532, -0.14731469750404358, -0.1632392406463623, -0.09594070911407471, 0.12673181295394897, -0.13531987369060516, 0.08642131090164185, 0.3360489308834076], [-0.06847546994686127, 0.17760463058948517, 0.08979763090610504, -0.21263736486434937, -0.020143548026680946, -0.177055224776268, -0.16125129163265228, 0.01543488446623087, -0.16186046600341797, 0.03551524505019188, -0.23664472997188568, -0.015352427028119564, 0.08398448675870895, 0.20251408219337463, 0.08448614180088043, -0.32708027958869934, 0.16545075178146362, 0.13929763436317444, -0.1319129467010498, -0.1438157707452774, -0.1851309835910797, 0.24236005544662476, -0.028358332812786102, -0.10106352716684341, -0.2225799709558487, -0.028371915221214294, -0.14350993931293488, 0.206298366189003, -0.0794592797756195, -0.07446138560771942, -0.2468084990978241, -0.23949187994003296], [-0.16729964315891266, 0.09961806982755661, 0.012505573220551014, 0.14131325483322144, -0.07390240579843521, 0.1444794237613678, 0.05524848401546478, -0.05892333388328552, -0.24481922388076782, 0.30128487944602966, 0.2436649352312088, -0.19367389380931854, -0.24821867048740387, 0.08058091253042221, -0.1819247156381607, 0.27429330348968506, 0.08236666023731232, -0.4013179838657379, -0.16432435810565948, 0.3603033721446991, 0.047692425549030304, 0.07194512337446213, 0.07656516879796982, 0.1891448050737381, 0.19010348618030548, 0.036777764558792114, -0.24502819776535034, 0.08702918142080307, -0.1102074608206749, -0.24004796147346497, 0.08197510242462158, 0.06856785714626312], [0.3392944037914276, -0.0849342942237854, 0.1777798980474472, 0.029871607199311256, 0.08554737269878387, 0.5105156898498535, -0.011023206636309624, 0.16902472078800201, -0.0186779648065567, -0.02779024839401245, -0.13973861932754517, 0.02142401412129402, -0.1480613797903061, -0.00879235751926899, -0.08260932564735413, -0.05638007074594498, -0.04568051919341087, 0.23302477598190308, 0.17062051594257355, -0.12503087520599365, 0.07788071036338806, 0.03825497254729271, 0.023539282381534576, 0.018637899309396744, 0.08893705904483795, -0.32575809955596924, -0.16062787175178528, -0.06393714249134064, 0.05008682236075401, -0.12813885509967804, -0.10363993048667908, 0.01945880800485611], [-0.15264511108398438, 0.08176366984844208, -0.02227325178682804, -0.26234474778175354, 0.07197003811597824, 0.0801025852560997, -0.08042103052139282, 0.22779281437397003, -0.2931233048439026, 0.2469508945941925, 0.058111522346735, -0.18383736908435822, -0.06868801265954971, -0.09984306991100311, 0.01088322140276432, 0.03733821213245392, 0.24965086579322815, 0.2968149781227112, -0.062481414526700974, -0.13477639853954315, 0.1901065856218338, -0.002593531971797347, -0.05562165752053261, 0.1076391190290451, 0.029934076592326164, 0.0612914115190506, 0.05600142851471901, 0.08901406079530716, 0.223530575633049, 0.23631249368190765, 0.08399616926908493, -0.11913970112800598], [-0.022601278498768806, 0.057766105979681015, 0.08067627251148224, 0.06207803264260292, -0.1628635674715042, -0.12358701229095459, -0.04186680167913437, -0.12537629902362823, -0.12251154333353043, -0.09802882373332977, 0.1257038563489914, 0.19858157634735107, -0.41962072253227234, -0.13723105192184448, 0.1991938203573227, -0.06370191276073456, 0.0972943976521492, 0.0724853053689003, -0.16666829586029053, -0.20386666059494019, 0.05446772649884224, 0.2294592261314392, -0.0169987715780735, 0.06995819509029388, -0.20638002455234528, 0.16955693066120148, -0.02360437624156475, -0.3816410005092621, -0.18957290053367615, 0.03126320242881775, -0.13312281668186188, 0.07207363098859787], [-0.08086037635803223, -0.05858629569411278, 0.019206954166293144, -0.16292759776115417, -0.04532351344823837, 0.17984704673290253, -0.12072346359491348, -0.17432454228401184, -0.21445538103580475, -0.14328217506408691, 0.2330383062362671, -0.021474139764904976, -0.007890352047979832, 0.04594787210226059, 0.0892174169421196, -0.2591002285480499, 0.20312924683094025, 0.15298637747764587, -0.044749923050403595, -0.036204542964696884, 0.06800767034292221, 0.04113154485821724, 0.13439160585403442, 0.1354542225599289, 0.18958425521850586, 0.02499486319720745, 0.043003149330616, 0.01239657960832119, 0.13263674080371857, -0.370563805103302, -0.3125724494457245, -0.009929433465003967], [-0.14338041841983795, -0.09333183616399765, 0.12703153491020203, -0.21604107320308685, -0.19041958451271057, 0.07959722727537155, -0.04047183692455292, 0.13603614270687103, 0.19235311448574066, -0.12371832132339478, 0.04138217866420746, 0.07637841999530792, -0.10562729090452194, -0.011492357589304447, -0.107518270611763, 0.34972476959228516, -0.1391294300556183, 0.11619099974632263, -0.2149541676044464, -0.10929183661937714, -0.01262172032147646, 0.0817091315984726, -0.005860087927430868, -0.3062664270401001, -0.023301633074879646, 0.1199151799082756, -0.04991107061505318, 0.2341301292181015, 0.10103295743465424, 0.07353901118040085, -0.2723377048969269, -0.026645207777619362], [-0.08612103015184402, 0.3230838179588318, -0.26458224654197693, -0.003539287718012929, -0.22597059607505798, 0.038505349308252335, 0.005212363786995411, 0.03337474912405014, -0.3165839612483978, -0.01316966861486435, 0.025979192927479744, 0.12907667458057404, -0.3370762765407562, -0.06792309880256653, 0.11707624047994614, -0.1283406764268875, -0.036070164293050766, -0.2821381986141205, -0.2912428379058838, 0.14570258557796478, 0.16971980035305023, 0.007085672579705715, 0.03684411197900772, 0.036043647676706314, -0.4174325466156006, 0.0009014906827360392, 0.11834228038787842, 0.08061567693948746, 0.09651409089565277, -0.07437067478895187, -0.07573001086711884, -0.09777490049600601], [0.10206903517246246, 0.25214093923568726, 0.07136709243059158, 0.2848827540874481, 0.04708590358495712, -0.00987422838807106, 0.19727639853954315, -0.12162470072507858, 0.015251359902322292, -0.11389882117509842, -0.007650285959243774, 0.09687040001153946, -0.003835301846265793, -0.26274198293685913, -0.48680031299591064, -0.08760051429271698, -0.20173512399196625, -0.011610977351665497, 0.0524248369038105, 0.094015933573246, 0.27510663866996765, -0.13683268427848816, 0.1281903088092804, 0.3213277757167816, -0.22513769567012787, 0.038583312183618546, 0.24864226579666138, -0.2231251448392868, -0.09993702173233032, 0.37647250294685364, -0.39088672399520874, 0.002573515521362424], [-0.01779118739068508, -0.1503118872642517, -0.27317431569099426, -0.0392681248486042, 0.07338916510343552, -0.08978229016065598, 0.024643748998641968, -0.037930041551589966, 0.14536450803279877, -0.12264367938041687, 0.16407151520252228, 0.1414373368024826, -0.06839920580387115, -0.05544068664312363, -0.13803286850452423, -0.09214867651462555, 0.03800088167190552, 0.02108483389019966, -0.09662626683712006, -0.07873769104480743, -0.06737155467271805, -0.09171402454376221, 0.06602198630571365, -0.059808921068906784, 0.17800430953502655, -0.005487479269504547, -0.1443503051996231, 0.10684636980295181, 0.06039920821785927, -0.04824713617563248, -0.030939407646656036, -0.09838340431451797], [-0.11878952383995056, 0.27458861470222473, 0.3149077892303467, 0.021394381299614906, -0.2395242601633072, -0.059732869267463684, 0.04668409749865532, -0.06853864341974258, 0.23509471118450165, 0.22239989042282104, -0.27933669090270996, -0.20860303938388824, 0.18818242847919464, -0.0303061380982399, -0.03432203829288483, 0.11130107939243317, 0.0643051341176033, 0.2142656445503235, -0.10970310121774673, -0.10476451367139816, -0.364326536655426, -0.10464811325073242, -0.149893656373024, -0.04410645365715027, -0.025345847010612488, 0.13800737261772156, -0.03395870700478554, -0.0784236267209053, -0.42696648836135864, 0.11291440576314926, 0.1300373375415802, 0.0327158160507679], [-0.20079411566257477, -0.014289245940744877, -0.24117405712604523, -0.08733570575714111, -0.09202016890048981, -0.3049890995025635, 0.15178412199020386, 0.16753113269805908, 0.12916575372219086, -0.09066720306873322, 0.05723126232624054, 0.21587689220905304, 0.2046942114830017, 0.16687732934951782, -0.033051490783691406, -0.10111310333013535, 0.11278757452964783, -0.07098742574453354, 0.1831977814435959, 0.0947795882821083, -0.17401760816574097, 0.12240461260080338, -0.04180204123258591, 0.16038435697555542, 0.13202805817127228, -0.030234571546316147, -0.03186024725437164, 0.12588825821876526, 0.026905180886387825, -0.04637574777007103, -0.15654531121253967, 0.07679253816604614], [-0.2589363157749176, -0.09921823441982269, 0.1001882404088974, -0.11405086517333984, -0.19707854092121124, 0.07492416352033615, -0.10505969822406769, 0.09245774894952774, -0.010113870725035667, 0.18451164662837982, 0.11882901191711426, -0.1387014240026474, -0.1387270838022232, -0.06238867715001106, -0.013357552699744701, -0.05648622661828995, 0.047688018530607224, -0.11556950956583023, 0.04446806386113167, 0.18167877197265625, 0.3949993848800659, -0.10140347480773926, 0.26523923873901367, -0.23066723346710205, -0.05421198904514313, -0.4499102532863617, 0.13904406130313873, 0.10989625006914139, 0.15738484263420105, 0.18182538449764252, 0.18502949178218842, -0.34157440066337585]], "layers.0.attention.attn.in_proj_weight": [[0.059615395963191986, -0.15724743902683258, 0.04572583734989166, 0.030834432691335678, -0.23764877021312714, 0.15397900342941284, -0.08901096135377884, 0.19524013996124268, -0.24551017582416534, 0.0351576954126358, 0.0584007129073143, 0.015160535462200642, 0.021670624613761902, 0.16366665065288544, -0.02176044136285782, -0.1070503294467926, 0.21200940012931824, -0.1201094388961792, 0.17566996812820435, 0.16214413940906525, -0.19104179739952087, 0.06152486428618431, -0.07671818882226944, 0.09390509873628616, 0.17917582392692566, -0.022421235218644142, 0.06209821254014969, 0.11573170125484467, -0.14862003922462463, -0.18896183371543884, -0.05419075861573219, -0.08489938080310822], [0.09982883185148239, 0.140674889087677, 0.02014605887234211, -0.24061313271522522, -0.16924896836280823, -0.2159307450056076, 0.12601952254772186, -0.2233598232269287, 0.21569857001304626, -0.17486156523227692, -0.0824979767203331, -0.07349920272827148, -0.035250578075647354, 0.06581954658031464, 0.0016102781519293785, 0.06803464144468307, 0.18182165920734406, 0.0687999576330185, -0.21972452104091644, 0.03466596454381943, -0.09870878607034683, -0.1273004114627838, -0.18705753982067108, -0.18872001767158508, -0.13352948427200317, -0.06709764152765274, 0.09498436748981476, -0.16234631836414337, -0.15781989693641663, 0.13835512101650238, 0.10089360922574997, 0.11743208020925522], [0.005233399104326963, 0.1842033863067627, -0.027119020000100136, 0.15443968772888184, -0.04488598555326462, 0.19139575958251953, -0.06159774586558342, -0.10732048004865646, -0.19959589838981628, -0.11809153109788895, 0.04462825134396553, -0.022415174171328545, 0.16673614084720612, 0.04493717849254608, -0.15192827582359314, -0.19089330732822418, -0.0742313340306282, -0.1311214119195938, -0.19447283446788788, -0.05794162303209305, -0.0614544153213501, -0.1993301659822464, -0.09813991189002991, 0.01735619455575943, -0.13294975459575653, -0.18008746206760406, 0.09638471156358719, 0.043005283921957016, 0.12212835252285004, -0.2070203423500061, 0.14295272529125214, -0.09780199825763702], [0.10928945243358612, -0.13853034377098083, 0.19129256904125214, 0.15219071507453918, -0.1590711772441864, -0.09785352647304535, -0.055670853704214096, 0.0950101837515831, -0.030047152191400528, -0.19977952539920807, 0.008277826011180878, 0.0746077224612236, 0.16498807072639465, 0.13172860443592072, 0.2132152020931244, -0.06575941294431686, 0.05714830383658409, -0.029185712337493896, -0.11684413254261017, -0.06985194236040115, -0.16316290199756622, -0.034608058631420135, -0.1128455400466919, -0.033171676099300385, -0.14684483408927917, -0.22977715730667114, 0.022885169833898544, -0.19242540001869202, -0.16120070219039917, -0.0008924473077058792, 0.22032344341278076, 0.05257028341293335], [0.15519237518310547, -0.1589185893535614, -0.08231627941131592, 0.20816592872142792, -0.2351602464914322, -0.16422773897647858, -0.07000292837619781, 0.10337158292531967, 0.14669716358184814, -0.17878179252147675, -0.24086156487464905, -0.2161814123392105, 0.20211844146251678, -0.2110348641872406, -0.10393006354570389, -0.15184608101844788, -0.05564315989613533, -0.2377428114414215, 0.18144866824150085, 0.09852907061576843, -0.14721551537513733, -0.06000669300556183, -0.07433917373418808, 0.014912553131580353, -0.054408397525548935, -0.09129016846418381, -0.1774708479642868, -0.010906330309808254, 0.12701977789402008, 0.08593787997961044, -0.02950235642492771, 0.041396625339984894], [-0.15544390678405762, -0.014794547110795975, -0.09910085052251816, 0.12476365268230438, 0.200054332613945, -0.1698574274778366, -0.04302814602851868, -0.142352893948555, -0.021500159054994583, 0.12488654255867004, -0.06374116986989975, -0.014681795611977577, 0.02657356485724449, 0.1447981297969818, -0.18963101506233215, 0.21469707787036896, 0.03610808774828911, 0.002448722720146179, 0.03381893038749695, 0.09590493887662888, 0.07956801354885101, -0.0037565366365015507, 0.10478474944829941, -0.05055368319153786, -0.011907233856618404, 0.2072410136461258, 0.03842953220009804, -0.13762925565242767, -0.1715678721666336, 0.11406946182250977, -0.1891762614250183, -0.07586012780666351], [0.13629163801670074, 0.0122733935713768, 0.09378865361213684, -0.06046026945114136, 0.04967493563890457, -0.1424509733915329, -0.18791408836841583, -0.13905958831310272, 0.05702965706586838, -0.1949504017829895, -0.12969724833965302, 0.17783287167549133, 0.04165537282824516, -0.051694586873054504, 0.002881778171285987, -0.1451101005077362, 0.146800696849823, 0.06490984559059143, -0.1016073003411293, 0.16485059261322021, 0.18266788125038147, -0.09865690767765045, 0.13199114799499512, -0.08301929384469986, 0.10299447923898697, 0.21080493927001953, -0.05580880865454674, 0.03473477065563202, -0.13773269951343536, 0.08615381270647049, 0.19218844175338745, 0.11884184926748276], [-0.20883911848068237, -0.1855759620666504, -0.06628765910863876, 0.03475889563560486, -0.1898292750120163, 0.058288998901844025, -0.15701916813850403, 0.06118771433830261, 0.17574355006217957, 0.20362526178359985, 0.01650889776647091, 0.040557827800512314, -0.2387416660785675, 0.17336617410182953, -0.1472194492816925, 0.22769662737846375, 0.18761961162090302, -0.11998644471168518, -0.09693203866481781, 0.03558958321809769, 0.0880877897143364, -0.1822824776172638, -0.0878276377916336, 0.08296998590230942, -0.19522766768932343, 0.17084984481334686, -0.15440724790096283, 0.07210201770067215, 0.04036741331219673, 0.04572468623518944, 0.1608131229877472, 0.015271193347871304], [0.2092440128326416, -0.17649352550506592, -0.15149900317192078, 0.24219506978988647, -0.1270616054534912, 0.17506611347198486, -0.2509341239929199, 0.22468005120754242, 0.11322546750307083, 0.1780771017074585, -0.12702326476573944, -0.1335574984550476, -0.1124332845211029, -0.1298970729112625, 0.012915101833641529, 0.19007427990436554, -0.045597244054079056, -0.15219810605049133, -0.14722242951393127, -0.16064171493053436, 0.019660739228129387, -0.22756008803844452, 0.08839204162359238, -0.02212861366569996, -0.16129940748214722, -0.06645568460226059, 0.18050618469715118, 0.01218595914542675, 0.18484731018543243, -0.22631286084651947, 0.206431582570076, -0.10935096442699432], [0.024159591645002365, 0.19673261046409607, 0.025143228471279144, 0.2068501114845276, 0.1725890189409256, 0.08353710174560547, 0.12339308857917786, 0.036155443638563156, 0.04042645916342735, -0.13755758106708527, 0.2088164985179901, -0.2044508010149002, 0.04860351234674454, 0.18351928889751434, -0.10545966774225235, 0.19143323600292206, 0.19235360622406006, -0.16182714700698853, 0.1030661091208458, 0.20293287932872772, 0.07672856003046036, -0.06394720077514648, -0.06380061060190201, -0.07876428961753845, 0.03699569031596184, 0.14936038851737976, -0.06774048507213593, -0.12460137158632278, -0.09681961685419083, 0.1414690464735031, 0.2303306609392166, -0.0849907323718071], [0.23243077099323273, -0.019494445994496346, -0.09098951518535614, 0.24970288574695587, 0.05994902178645134, 0.03329943120479584, 0.0324736163020134, 0.03487071767449379, -0.09643194079399109, 0.16213290393352509, -0.10572437196969986, 0.0020167154725641012, 0.2318735420703888, 0.10728158801794052, 0.17007119953632355, -0.2341943234205246, -0.07637353986501694, 0.1110575944185257, 0.21066537499427795, -0.12389446049928665, 0.1713017076253891, -0.007944874465465546, -0.13709738850593567, 0.17363455891609192, 0.08014748245477676, 0.14352749288082123, 0.005693561397492886, 0.10112960636615753, -0.18790608644485474, 0.06511103361845016, 0.12111993134021759, -0.14832352101802826], [-0.16203247010707855, -0.18183961510658264, 0.15714822709560394, -0.08928404748439789, 0.21464143693447113, -0.14157997071743011, 0.14386685192584991, 0.22851203382015228, -0.04990803450345993, -0.21590375900268555, 0.13997602462768555, 0.02383052371442318, -0.08518655598163605, 0.11911217868328094, -0.033484987914562225, 0.027009963989257812, -0.12039616703987122, 0.17445623874664307, -0.060767676681280136, 0.15937766432762146, -0.04714346304535866, 0.08443054556846619, 0.165129154920578, -0.22337311506271362, 0.025458406656980515, -0.13018548488616943, 0.0985078364610672, 0.013697583228349686, -0.11064990609884262, -0.1853615641593933, -0.17257896065711975, 0.18235795199871063], [-0.19494055211544037, 0.20829546451568604, -0.04579771310091019, -0.12045406550168991, -0.0705118328332901, 0.1295326054096222, 0.17182070016860962, 0.20235252380371094, -0.23734509944915771, 0.13863666355609894, -0.10572925955057144, 0.06823398917913437, 0.14820368587970734, 0.1223328709602356, -0.08265747874975204, -0.16006216406822205, 0.11691000312566757, -0.2139538824558258, 0.026919711381196976, -0.1932043731212616, 0.1247144266963005, -0.1776321977376938, 0.158151775598526, 0.06122777611017227, 0.22546739876270294, 0.09898825734853745, -0.11509659886360168, 0.036506544798612595, -0.033146489411592484, -0.06981852650642395, 0.16449813544750214, -0.013373348861932755], [0.009006411768496037, -0.05686367303133011, 0.03353215381503105, -0.07823202759027481, 0.1553153395652771, -0.03484273701906204, -0.02289954014122486, 0.1687530279159546, 0.22429154813289642, -0.0007358808070421219, -0.1916647106409073, -0.020779723301529884, -0.0887722447514534, 0.10211297869682312, -0.19357110559940338, 0.17464230954647064, -0.0755651444196701, -0.13563419878482819, -0.0886160135269165, 0.14611367881298065, -0.007580695208162069, -0.05314651504158974, -0.14293012022972107, -0.0340118482708931, -0.1304423063993454, 0.18973872065544128, -0.15345734357833862, -0.17230969667434692, -0.11298298090696335, -0.09522836655378342, 0.10782421380281448, 0.11686953157186508], [0.13493862748146057, 0.11492624878883362, 0.17895467579364777, 0.15097001194953918, 0.020167864859104156, 0.018936969339847565, 0.13731959462165833, -0.11036224663257599, 0.1520753800868988, 0.04700027406215668, -0.046205129474401474, 0.11373879760503769, 0.03469608351588249, -0.18393048644065857, 0.06967174261808395, 0.04442383721470833, 0.1364949345588684, 0.1280858814716339, -0.19898824393749237, 0.15409858524799347, -0.13379792869091034, -0.13636334240436554, 0.09335439652204514, -0.07636341452598572, 0.08035434782505035, 0.17244921624660492, -0.001688981894403696, 0.1910882592201233, 0.0034075668081641197, -0.059977900236845016, 0.014237501658499241, -0.05283106490969658], [0.004097633063793182, 0.08104907721281052, -0.14988774061203003, 0.0881471186876297, -0.14211493730545044, -0.21114034950733185, -0.048145610839128494, 0.002086199587211013, -0.02801809087395668, -0.1388821303844452, -0.1676204651594162, 0.05557223781943321, 0.16281792521476746, -0.024440258741378784, 0.19158409535884857, -0.14714574813842773, -0.13607355952262878, -0.1070537194609642, -0.027637802064418793, -0.03362298384308815, -0.13728785514831543, 0.22832541167736053, 0.08375783264636993, 0.16523315012454987, 0.039827730506658554, -0.06755395978689194, -0.059793621301651, 0.023398950695991516, -0.1795831173658371, 0.03067687526345253, 0.0939335897564888, -0.11159694939851761], [-0.11686273664236069, -0.1257220059633255, -0.18706506490707397, -0.15421991050243378, 0.1243191808462143, 0.11453491449356079, 0.08142035454511642, 0.1695161759853363, -0.15184731781482697, 0.11916270852088928, -0.03521064668893814, -0.19027113914489746, 0.05997425690293312, 0.08467330038547516, -0.03643612191081047, -0.03978388011455536, 0.20085251331329346, 0.03537844121456146, 0.034608542919158936, -0.11910773813724518, -0.04827910289168358, 0.11222439259290695, 0.16177165508270264, -0.12695197761058807, -0.05351954326033592, 0.01621898263692856, 0.14812837541103363, 0.14059393107891083, -0.025544531643390656, 0.12786665558815002, 0.044801317155361176, -0.19255481660366058], [-0.07252487540245056, -0.17041637003421783, 0.1803172528743744, 0.14732855558395386, -0.05475237965583801, 0.21443748474121094, -0.06630866974592209, -0.0649203285574913, -0.1051272600889206, 0.19580811262130737, -0.12066992372274399, 0.09097898006439209, -0.18010620772838593, 0.000823458656668663, -0.11148086190223694, -0.09175685793161392, 0.023146387189626694, 0.13685953617095947, 0.1960291713476181, -0.12576669454574585, 0.09289766103029251, 0.013613637536764145, 0.2175780087709427, 0.19641871750354767, -0.16296347975730896, -0.18860776722431183, 0.12777617573738098, 0.16406677663326263, -0.13559211790561676, 0.14479191601276398, 0.20198778808116913, 0.025153206661343575], [0.13027691841125488, -0.005888256244361401, 0.09382832795381546, -0.15797927975654602, -0.04185793921351433, 0.15897518396377563, 0.036999087780714035, 0.15500925481319427, -0.15395094454288483, 0.12232691049575806, -0.17831465601921082, -0.12089690566062927, 0.13902826607227325, -0.009963560849428177, -0.15634505450725555, -0.14558346569538116, 0.14151443541049957, -0.04481130093336105, -0.14619632065296173, 0.07621551305055618, 0.09382365643978119, 0.019750185310840607, -0.18187139928340912, -0.15162168443202972, 0.16795054078102112, -0.12455438077449799, 0.11100278049707413, -0.21117179095745087, -0.10779055207967758, -0.06605298817157745, -0.038670338690280914, -0.23386931419372559], [0.1723533719778061, -0.09538955986499786, -0.13835398852825165, 0.09796719253063202, -0.11196780949831009, 0.11530672013759613, -0.09982696920633316, 0.21329323947429657, 0.16031819581985474, 0.12431088089942932, 0.1028396487236023, 0.15686576068401337, 0.16994784772396088, 0.1348491758108139, 0.15597979724407196, -0.07404915243387222, -0.1368955373764038, 0.17996129393577576, 0.008311264216899872, -0.11214835941791534, 0.09689082950353622, -0.09924768656492233, 0.0890505462884903, 0.04560587927699089, -0.13670004904270172, -0.14787687361240387, -0.20989201962947845, -0.11806020140647888, 0.043731771409511566, 0.047366589307785034, 0.03766464814543724, -0.12325828522443771], [0.159398153424263, -0.033690180629491806, 0.00808347761631012, -0.17575979232788086, 0.008941525593400002, -0.06833003461360931, 0.07093869894742966, 0.08362118899822235, -0.1152103990316391, 0.12554390728473663, 0.08980417996644974, -0.17811143398284912, -0.18438073992729187, -0.13372169435024261, 0.0923716276884079, -0.11844493448734283, -0.03028804063796997, -0.08311913162469864, 0.07611888647079468, -0.20533473789691925, 0.03952968865633011, 0.12269934266805649, 0.09369421750307083, -0.21800675988197327, -0.0038834467995911837, -0.24261584877967834, 0.2095099538564682, 0.13444843888282776, -0.1367902308702469, 0.08646861463785172, -0.1335960328578949, -0.20778460800647736], [-0.1090630441904068, 0.14059937000274658, 0.19996318221092224, -0.008601769804954529, 0.08228693157434464, -0.0758388340473175, -0.20714285969734192, 0.1722373217344284, 0.1244163066148758, -0.10902056097984314, -0.15057842433452606, 0.1067255288362503, -0.15434454381465912, -0.15648166835308075, 0.11359892785549164, 0.13730895519256592, 0.22721827030181885, -0.04024287313222885, -0.08095458894968033, 0.028996815904974937, 0.11008939892053604, -0.05864604935050011, -0.051523126661777496, -0.005330290179699659, -0.019074374809861183, -0.05841844528913498, -0.11170735955238342, -0.22207728028297424, 0.23926733434200287, 0.1249476745724678, -0.02120315283536911, 0.07071822881698608], [-0.23258323967456818, -0.01730470359325409, -0.15165820717811584, 0.15410128235816956, -0.168151393532753, -0.01691639982163906, 0.20156949758529663, 0.17120350897312164, -0.10776474326848984, -0.06094421446323395, 0.027733447030186653, 0.16360458731651306, 0.09372902661561966, 0.19091275334358215, 0.16091075539588928, -0.13830161094665527, -0.1968058943748474, -0.15726685523986816, 0.11333919316530228, 0.004532448016107082, 0.05267826467752457, -0.03508153185248375, -0.2252093106508255, 0.03774912655353546, 0.11165801435709, 0.0632549449801445, 0.0016291034407913685, 0.10287401080131531, -0.1977514773607254, -0.09691771864891052, -0.10962065309286118, -0.013062221929430962], [-0.1351374238729477, 0.18209312856197357, 0.18670572340488434, -0.19125600159168243, 0.1282402127981186, 0.09627693891525269, 0.20963606238365173, -0.001076583517715335, 0.03596162050962448, 0.19884584844112396, 0.06490551680326462, 0.1646004021167755, 0.17066672444343567, 0.1716190129518509, -0.15180855989456177, 0.15234026312828064, -0.14117924869060516, -0.17160619795322418, -0.16385512053966522, 0.0030907606706023216, -0.06794581562280655, 0.1743568331003189, 0.08583056926727295, 0.11465004831552505, 0.11562306433916092, -0.11961336433887482, 0.16219572722911835, -0.16812479496002197, 0.013668933883309364, -0.05438162013888359, -0.07224366068840027, -0.14681750535964966], [-0.08849222958087921, -0.13061818480491638, -0.021179115399718285, -0.09877052158117294, 0.1993063986301422, 0.1519068330526352, 0.08765177428722382, -0.053640808910131454, 0.14575083553791046, 0.1830293834209442, -0.009018042124807835, 0.18377117812633514, 0.12223675847053528, 0.05351385846734047, 0.13412438333034515, 0.16982361674308777, 0.1270553469657898, 0.022830268368124962, -0.19583052396774292, -0.12448669224977493, 0.14087307453155518, -0.09957130253314972, 0.029308129101991653, 0.019670095294713974, -0.15572930872440338, 0.20628556609153748, 0.17705999314785004, 0.13936977088451385, 0.13408850133419037, 0.01542455144226551, -0.09118437021970749, 0.13070498406887054], [0.09984152764081955, -0.14569909870624542, -0.04417607933282852, -0.22503794729709625, -0.07374808937311172, -0.22853592038154602, 0.12495950609445572, 0.15138870477676392, -0.13035902380943298, -0.0628567636013031, -0.16289283335208893, 0.23719936609268188, 0.1984725147485733, -0.00866241380572319, -0.18522897362709045, 0.22318293154239655, -0.22210609912872314, 0.06470557302236557, -0.19943246245384216, 0.012476085685193539, 0.1246434673666954, 0.01577804982662201, -0.04045729711651802, 0.093488410115242, 0.07157197594642639, 0.08308139443397522, -0.012157710269093513, -0.15947596728801727, -0.14131265878677368, -0.07175200432538986, -0.11122433841228485, -0.17167235910892487], [-0.10437639057636261, -0.05137940123677254, -0.0009029963985085487, 0.12167258560657501, 0.1771070659160614, -0.032552335411310196, 0.0329437255859375, -0.07229801267385483, -0.13183371722698212, 0.15338543057441711, -0.24028366804122925, 0.09431745857000351, -0.11781848967075348, 0.211099311709404, -0.14661972224712372, -0.18437764048576355, 0.17740142345428467, 0.03495173528790474, -0.03940240293741226, 0.13671867549419403, -0.004639651160687208, 0.16993722319602966, -0.03510061651468277, 0.1313730776309967, -0.17806893587112427, -0.05209243670105934, -0.016257211565971375, -0.08568926900625229, 0.08925800770521164, -0.02882486954331398, 0.16797849535942078, 0.11893098056316376], [0.01646755076944828, 0.11768648773431778, -0.09921547770500183, 0.08197087049484253, 0.17957738041877747, -0.1519249677658081, 0.08384440839290619, -0.0894734263420105, -0.08534775674343109, 0.011849356815218925, -0.15817494690418243, 0.09815835952758789, -0.17126785218715668, 0.053862106055021286, -0.24215960502624512, 0.06175421550869942, -0.15471452474594116, 0.11981456726789474, 0.11871013790369034, 0.2534449100494385, -0.021591175347566605, -0.14433251321315765, -0.22090457379817963, 0.09228349477052689, -0.04193376749753952, -0.13495194911956787, -0.018177345395088196, 0.17911256849765778, 0.09248508512973785, 0.18566395342350006, 0.17694787681102753, 0.027825217694044113], [0.1869458705186844, -0.04609226807951927, -0.039879269897937775, -0.15497101843357086, 0.0043761213310062885, 0.01346040889620781, -0.18231754004955292, -0.12583601474761963, 0.041347794234752655, 0.13064368069171906, 0.03126423433423042, -0.01219327375292778, -0.03259691968560219, -0.1892295777797699, 0.12184926122426987, -0.12137092649936676, -0.18026220798492432, -0.07988983392715454, 0.1866370439529419, 0.18228168785572052, 0.23586894571781158, -0.005170177202671766, -0.1510130763053894, 0.03462317958474159, -0.00839078426361084, 0.1540038138628006, -0.13763928413391113, -0.10219810158014297, -0.039352018386125565, 0.014766243286430836, 0.12412968277931213, 0.14230063557624817], [0.03728904947638512, 0.16517198085784912, 0.02556980401277542, -0.19716611504554749, -0.13177652657032013, 0.1335081160068512, 0.052094269543886185, 0.222481831908226, 0.019428281113505363, -0.06130196526646614, -0.15934661030769348, 0.028602689504623413, 0.2010602205991745, -0.17043060064315796, -0.01873372495174408, 0.01266555581241846, 0.09721345454454422, 0.147336944937706, 0.16495206952095032, -0.1923290342092514, -0.022747686132788658, 0.19197823107242584, 0.16294732689857483, -0.12212390452623367, 0.11136544495820999, -0.21925409138202667, 0.1299952268600464, 0.011540866456925869, -0.18464305996894836, 0.11051195114850998, 0.012303018942475319, 0.016838576644659042], [-0.07130572199821472, 0.1616879254579544, 0.17331504821777344, 0.003263873979449272, -0.16766802966594696, -0.006307066883891821, 0.1960158795118332, -0.0355953723192215, -0.0002720039337873459, 0.06699562817811966, -0.12003029137849808, 0.19622382521629333, -0.11266283690929413, -0.041837431490421295, -0.21794478595256805, 0.19793938100337982, 0.10456041991710663, 0.12958663702011108, -0.14249451458454132, 0.16611026227474213, 0.005352478940039873, -0.018634136766195297, -0.20966605842113495, 0.17697922885417938, 0.1769566684961319, -0.041740741580724716, -0.15250006318092346, -0.17716391384601593, 0.17167726159095764, 0.03546343371272087, -0.1873031109571457, -0.14392060041427612], [0.08537837862968445, -0.04715786874294281, -0.14413617551326752, -0.041973844170570374, -0.10212602466344833, 0.018335498869419098, -0.10540805011987686, -0.09780394285917282, -0.14876702427864075, -0.14255087077617645, 0.13934414088726044, -0.139956533908844, -0.09163091331720352, -0.013380508869886398, 0.11659267544746399, 0.17815938591957092, -0.014069885946810246, 0.0644199475646019, -0.053454671055078506, -0.23199540376663208, -0.03802134096622467, -0.13999870419502258, 0.035472504794597626, 0.16827794909477234, -0.10095001012086868, 0.07621706277132034, -0.11672043055295944, 0.14417091012001038, 0.08952019363641739, -0.19436180591583252, 0.08500629663467407, -0.07038936018943787], [0.11911363899707794, -0.10022402554750443, -0.24289444088935852, -0.11280827224254608, 0.10450296103954315, 0.02552996203303337, -0.13552315533161163, -0.08668803423643112, -0.1512281596660614, -0.01020738109946251, -0.013829973526299, 0.014452625997364521, -0.0014928905293345451, -0.020205071195960045, 0.13102103769779205, -0.02076149545609951, -0.020515352487564087, 0.028193246573209763, 0.10810809582471848, 0.2257632464170456, 0.058065228164196014, 0.13324381411075592, 0.07828697562217712, 0.19020408391952515, 0.19588765501976013, -0.1979687511920929, -0.04159683734178543, -0.013654729351401329, -0.044154662638902664, 0.052325230091810226, 0.04753950610756874, -0.08243635296821594], [-0.1779334843158722, -0.17042072117328644, 0.022217407822608948, 0.24947719275951385, 0.0008647041395306587, -0.030210021883249283, 0.12419644743204117, -0.15082436800003052, 0.013647819869220257, -0.1085008755326271, -0.05806867778301239, 0.12446729838848114, -0.08596071600914001, -0.09144707769155502, 0.09320305287837982, 0.20020361244678497, -0.05433328077197075, 0.16958773136138916, -0.10532660037279129, -0.1802537590265274, 0.20093649625778198, -8.672475814819336e-05, -0.06574802100658417, 0.015531795099377632, -0.18885093927383423, 0.08973658084869385, 0.09857618808746338, -0.04316794127225876, -0.00805068388581276, -0.044895220547914505, -0.14430387318134308, -0.020688850432634354], [-0.16697704792022705, 0.15443207323551178, 0.07376076281070709, -0.14282122254371643, 0.05384356155991554, 0.10174047946929932, 0.01303855050355196, -0.06101643294095993, -0.23776331543922424, 0.004796038847416639, -0.2408333420753479, 0.1461016982793808, -0.09415014088153839, 0.2121417224407196, -0.22195275127887726, -0.12546947598457336, 0.09432663768529892, 0.0894506648182869, -0.1215539500117302, -0.13304507732391357, 0.13287656009197235, 0.1710767298936844, -0.19038845598697662, -0.015220310539007187, 0.10304226726293564, 0.12197230756282806, -0.059990961104631424, 0.15797226130962372, 0.10132841020822525, 0.0902227908372879, -0.16535963118076324, -0.07261528074741364], [0.01220963429659605, -0.03556428849697113, 0.118717260658741, -0.13002881407737732, 0.038082562386989594, -0.2528766691684723, 0.06865537166595459, 0.15779833495616913, -0.019960764795541763, 0.02791360393166542, -0.14349347352981567, 0.14118166267871857, -0.08494231104850769, -0.14954335987567902, 0.011023333296179771, -0.18287590146064758, -0.14699488878250122, -0.08789731562137604, -0.06489202380180359, 0.16387242078781128, 0.1823178082704544, 0.11173821240663528, -0.03919677808880806, -0.11048117280006409, -0.03207039833068848, 0.12613031268119812, 0.14172512292861938, -0.14861147105693817, 0.13496394455432892, 0.1947982758283615, -0.06794623285531998, 0.06263432651758194], [0.06585394591093063, 0.13882602751255035, -0.10854379087686539, -0.01216069795191288, 0.17988216876983643, 0.16884396970272064, -0.037461865693330765, -0.06309881061315536, -0.16857433319091797, 0.058210596442222595, -0.020451117306947708, -0.12230374664068222, -0.18789437413215637, 0.12716028094291687, -0.10943484306335449, 0.15735457837581635, 0.18062908947467804, 0.19944077730178833, -0.048991575837135315, 0.11242496967315674, 0.03608907386660576, -0.04669198393821716, 0.10107280313968658, -0.12908771634101868, -0.15148359537124634, 0.11433883011341095, -0.20872735977172852, 0.10807959735393524, -0.05812116712331772, -0.11078794300556183, 0.19999858736991882, 0.06086732819676399], [-0.19125132262706757, 0.17633239924907684, 0.03920572251081467, 0.22981484234333038, 0.14427778124809265, -0.2280772179365158, 0.06108107045292854, 0.0737844854593277, -0.0036781970411539078, -0.1879558265209198, 0.07732002437114716, 0.007445631083101034, -0.04695495590567589, -0.21271874010562897, 0.13664475083351135, -0.18151918053627014, 0.09556891024112701, 0.03888842836022377, 0.018629658967256546, -0.19792884588241577, 0.06278672069311142, 0.07373186945915222, -0.08054918795824051, 0.16879960894584656, 0.08249622583389282, 0.15015581250190735, 0.025463169440627098, -0.1359514594078064, 0.17243705689907074, -0.0980992242693901, 0.21046586334705353, -0.15257324278354645], [-0.06384439766407013, -0.23115801811218262, -0.02686816267669201, -0.014312743209302425, -0.17834176123142242, 0.10944422334432602, 0.1629052460193634, 0.035273075103759766, 0.07191266119480133, 0.03015594556927681, 0.09701842814683914, -0.052206747233867645, 0.1591406911611557, -0.01780204474925995, 0.18682122230529785, -0.020406197756528854, 0.1617181897163391, 0.2015295773744583, -0.04990507289767265, -0.12268544733524323, -0.0026745647192001343, -0.11042492836713791, 0.0056236241944134235, 0.07634034007787704, 0.030992329120635986, 0.1898011863231659, -0.06626909971237183, -0.2302563637495041, -0.07627540826797485, 0.16304141283035278, -0.19276933372020721, -0.24335776269435883], [-0.07895907759666443, -0.18987149000167847, -0.08788880705833435, -0.06784167885780334, -0.13843081891536713, -0.15889158844947815, -0.019400570541620255, -0.0424700602889061, -0.05719141662120819, -0.10901089012622833, 0.016741231083869934, 0.03880123049020767, -0.06973633915185928, -0.16254322230815887, -0.14667010307312012, -0.14490334689617157, 0.05008619278669357, -0.15344375371932983, -0.17638127505779266, 0.10543213784694672, 0.18961796164512634, -0.15622101724147797, -0.0920119434595108, 0.23108473420143127, 0.12014772742986679, -0.05214524269104004, 0.1383018046617508, 0.022116512060165405, 0.054133664816617966, -0.24999111890792847, 0.08459506928920746, 0.17424273490905762], [0.1926698088645935, -0.22130286693572998, -0.11751706898212433, 0.06305395066738129, 0.04337719455361366, -0.1457454115152359, -0.1138143539428711, 0.24360832571983337, -0.21757574379444122, -0.16066496074199677, -0.07016116380691528, 0.21859924495220184, -0.14619964361190796, 0.012604579329490662, -0.06276969611644745, -0.04617428779602051, -0.06042483076453209, -0.0656687468290329, 0.171877920627594, -0.03540585935115814, -0.2350786179304123, -0.034044817090034485, -0.04719874635338783, -0.03184633329510689, 0.012737921439111233, -0.16526088118553162, -0.11444039642810822, -0.21795234084129333, 0.007022208534181118, 0.02478800341486931, 0.1470641940832138, 0.11182372272014618], [-0.13884873688220978, -0.03816169872879982, 0.19168727099895477, -0.12278124690055847, -0.03993278741836548, 0.15026362240314484, 0.11525967717170715, 0.011762140318751335, -0.11665233224630356, -0.16651551425457, -0.08910107612609863, 0.18260586261749268, 0.15651002526283264, 0.134403258562088, 0.056497134268283844, 0.04039594531059265, -0.1418662816286087, 0.15431629121303558, -0.2015160322189331, 0.24131125211715698, -0.19062823057174683, 0.009235087782144547, 0.0017838198691606522, -0.13307307660579681, -0.20391668379306793, 0.1500455141067505, 0.10432317107915878, 0.14842408895492554, 0.08530453592538834, -0.11140439659357071, -0.22359617054462433, -0.04572710767388344], [-0.041703611612319946, 0.1775115579366684, 0.01361946202814579, 0.14864684641361237, 0.1513907015323639, 0.0419159010052681, 0.07090433686971664, 0.16829845309257507, 0.22586482763290405, 0.23148037493228912, -0.028836725279688835, -0.19899873435497284, 0.11232532560825348, 0.030420755967497826, -0.2052130252122879, -0.07575812935829163, -0.18202948570251465, -0.15829721093177795, 0.020393017679452896, -0.037088826298713684, -0.13487772643566132, -0.18918636441230774, -0.18384356796741486, -0.18367700278759003, -0.11388895660638809, 0.03512632101774216, 0.029774878174066544, -0.10551659017801285, -0.015492411330342293, 0.17386208474636078, 0.11179705709218979, 0.148320734500885], [0.019011881202459335, 0.04199846461415291, -0.16456271708011627, -0.02618703432381153, 0.12795791029930115, 0.0551445409655571, 0.16733387112617493, -0.08629196137189865, -0.08675286173820496, -0.07848715037107468, -0.029609419405460358, 0.005819430109113455, -0.0313803069293499, 0.04463783651590347, 0.05582829937338829, -0.11169397830963135, 0.22764462232589722, 0.018875107169151306, -0.11334351450204849, 0.13029679656028748, 0.11520621180534363, 0.15853776037693024, -0.007378278765827417, 0.046684157103300095, -0.1930842101573944, 0.11769930273294449, -0.04803691804409027, 0.18106088042259216, 0.22874048352241516, -0.16090553998947144, -0.18046410381793976, 0.06689593195915222], [-0.11309077590703964, 0.0679282546043396, 0.09282195568084717, -0.20429229736328125, 0.20038025081157684, 0.2348603457212448, 0.03878379985690117, 0.1634977012872696, 0.139307901263237, 0.009222665801644325, 0.01730961725115776, -0.08412951976060867, 0.14562757313251495, 0.018077444285154343, -0.1903439164161682, -0.2156914919614792, 0.0773564800620079, 0.05789335072040558, -0.022057892754673958, 0.22326785326004028, -0.00962427631020546, -0.08163174986839294, -0.20315256714820862, -0.05810077488422394, -0.1340436488389969, -0.20218278467655182, -0.2267683446407318, -0.22747966647148132, -0.07688192278146744, -0.19520053267478943, -0.14237402379512787, 0.02724146470427513], [-0.0880918800830841, 0.18261264264583588, -0.15790808200836182, 0.01910100132226944, -0.07697228342294693, -0.09527203440666199, 0.20218659937381744, -0.1111467257142067, 0.14459344744682312, -0.16813316941261292, 0.06316781044006348, -0.09154514968395233, -0.04387832060456276, 0.1559901386499405, 0.1372992843389511, 0.02951962500810623, 0.20874078571796417, 0.16070745885372162, 0.1035563051700592, -0.08248905092477798, 0.06862658262252808, -0.08845967054367065, 0.14793536067008972, -0.1452999711036682, 0.1096286028623581, -0.17189376056194305, -0.04070425406098366, 0.01215977594256401, -0.16838686168193817, -0.1615350991487503, 0.04615059494972229, -0.138252392411232], [-0.19669485092163086, -0.03173338621854782, -0.13200895488262177, -0.15892355144023895, -0.19165551662445068, 0.024967875331640244, -0.15552258491516113, 0.09940771013498306, -0.15561358630657196, -0.006647735834121704, 0.0537932813167572, 0.14580975472927094, -0.07358230650424957, -0.15661419928073883, -0.045437030494213104, 0.01749260351061821, 0.08513900637626648, 0.045486073940992355, -0.001469307579100132, -0.17161856591701508, 0.16923898458480835, 0.05420549213886261, -0.06255201995372772, -0.1304042488336563, -0.024784032255411148, 0.12309998273849487, 0.12683117389678955, -0.03975440189242363, -0.2114589512348175, -0.05509665608406067, 0.09097794443368912, -0.14429141581058502], [0.1600857377052307, 0.15754681825637817, 0.015433390624821186, -0.15968020260334015, 0.18331125378608704, -0.12262869626283646, 0.0882844552397728, -0.14893798530101776, 0.10315772145986557, 0.10219202935695648, 0.022248338907957077, 0.02151867188513279, -0.20069465041160583, -0.07133621722459793, 0.03792545199394226, -0.13172391057014465, 0.18034127354621887, -0.09127573668956757, -0.1317053586244583, 0.0935455858707428, 0.05969202518463135, -0.18198341131210327, -0.012386059388518333, 0.11258478462696075, 0.1671510934829712, 0.199931338429451, -0.15209096670150757, -0.09438519179821014, 0.01644155941903591, -0.18377485871315002, -0.11546173691749573, -0.05216941237449646], [0.13450631499290466, -0.15555529296398163, -0.07554023712873459, -0.006474282126873732, -0.062268324196338654, -0.015511996112763882, 0.13237442076206207, 0.12584927678108215, 0.007875367999076843, -0.04526090994477272, -0.16523708403110504, 0.017464416101574898, 0.18500949442386627, -0.05604543909430504, -0.05168015509843826, -0.22708497941493988, 0.13455872237682343, 0.10110986232757568, -0.03001685068011284, 0.1451248675584793, 0.21469607949256897, 0.07493975758552551, 0.12345341593027115, 0.03718582168221474, -0.04346180707216263, -0.11112428456544876, -0.11256502568721771, 0.06211603432893753, 0.20959706604480743, -0.1740431785583496, 0.14870618283748627, -0.08561872690916061], [0.029803596436977386, 0.12389436364173889, -0.0006603698711842299, -0.10005798935890198, 0.03135053813457489, 0.17298805713653564, -0.0783175602555275, -0.032888997346162796, 0.10410039126873016, -0.22441276907920837, 0.1434832215309143, 0.20562121272087097, 0.14861181378364563, 0.08144962042570114, 0.12162622809410095, -0.2505700886249542, -0.09708621352910995, -0.14785458147525787, -0.1305927336215973, 0.19129137694835663, -0.11806081235408783, -0.005301523022353649, 0.012249654158949852, -0.1571159064769745, 0.04669439047574997, -0.14049530029296875, 0.07337716221809387, -0.11759620159864426, -0.19333411753177643, 0.08217953145503998, -0.024801265448331833, 0.04702334851026535], [0.05561366304755211, 0.14993466436862946, 0.21818029880523682, 0.10240589827299118, 0.10992864519357681, 0.18895217776298523, 0.1586359441280365, 0.1865048110485077, 0.018180198967456818, 0.25477132201194763, -0.11969801783561707, 0.1634603887796402, 0.0018350393511354923, 0.23322324454784393, 0.0723707526922226, 0.15671642124652863, 0.13053619861602783, 0.15693260729312897, 0.1445913314819336, -0.17480549216270447, -0.0908970832824707, 0.09757879376411438, -0.16191932559013367, 0.23339921236038208, 0.16264154016971588, -0.037691351026296616, 0.17763127386569977, -0.12505139410495758, 0.04329538345336914, 0.004076305311173201, 0.0022846409119665623, 0.10720862448215485], [-0.20159654319286346, -0.018571561202406883, 0.0616438090801239, 0.009644697420299053, 0.001852871966548264, -0.12382970005273819, -0.14286106824874878, -0.10761042684316635, 0.17395532131195068, 0.08160241693258286, -0.11053516715765, -0.166960671544075, 0.014627755619585514, 0.1803177446126938, 0.1197786033153534, -0.13502220809459686, 0.0011502252891659737, -0.12552188336849213, -0.07286057621240616, -0.14868475496768951, -0.03415103629231453, -0.135661318898201, 0.048988159745931625, 0.13974691927433014, -0.23148542642593384, 0.09191396832466125, 0.05751810222864151, -0.23285457491874695, 0.1511036604642868, 0.04717119783163071, -0.08661717921495438, 0.2192106544971466], [0.05579795688390732, -0.07056055217981339, 0.15663641691207886, 0.15212130546569824, -0.05815223231911659, 0.2325678914785385, -0.14916600286960602, -0.10517633706331253, 0.029355298727750778, 0.18069204688072205, -0.14780522882938385, 0.13343489170074463, 0.0658443495631218, 0.0006900755688548088, -0.03953709080815315, 0.11054373532533646, 0.09952900558710098, 0.07791057974100113, -0.1327282190322876, -0.04860685393214226, 0.14843517541885376, -0.04096709191799164, -0.05576108396053314, 0.092619888484478, -0.13372498750686646, -0.14444810152053833, -0.04552985355257988, 0.19936764240264893, -0.21150939166545868, -0.1184544563293457, -0.038146138191223145, -0.039655499160289764], [-0.21717552840709686, 0.18824753165245056, 0.021614868193864822, 0.18583543598651886, 0.10595724731683731, 0.030287576839327812, 0.049742452800273895, -0.23100370168685913, -0.02916550450026989, -0.08659175038337708, -0.16451643407344818, -0.00536635285243392, -0.1709354817867279, 0.06869412958621979, 0.23584137856960297, 0.09919066727161407, 0.17225432395935059, -0.06843560934066772, -0.014295634813606739, 0.06498659402132034, 0.22528758645057678, -0.02387954667210579, -0.08106936514377594, -0.10569591075181961, -0.10008039325475693, -0.10583515465259552, -0.13498535752296448, 0.028461674228310585, 0.038482703268527985, 0.05723538622260094, 0.1162012368440628, -0.05551081523299217], [0.11317819356918335, 0.10972464829683304, -0.17165672779083252, 0.035507671535015106, -0.19952470064163208, -0.18936631083488464, 0.0047725411131978035, 0.20814697444438934, -0.14732728898525238, 0.10100499540567398, -0.013555465266108513, -0.062411606311798096, 0.08000946044921875, 0.025679266080260277, -0.13200412690639496, 0.23804305493831635, -0.07705750316381454, -0.14738255739212036, 0.031028684228658676, 0.1858232021331787, -0.11177390813827515, -0.19674232602119446, 0.1676468551158905, 0.17586183547973633, -0.1907654106616974, -0.044390663504600525, 0.06151334568858147, -0.21542778611183167, 0.16151738166809082, 0.20121745765209198, -0.054163869470357895, 0.11237010359764099], [-0.19642944633960724, 0.14260205626487732, 0.17746171355247498, -0.14422374963760376, 0.0025385431945323944, 0.0274007897824049, 0.0032548559829592705, 0.09893648326396942, 0.20019042491912842, 0.024432901293039322, 0.23091073334217072, 0.06675431877374649, -0.13672874867916107, 0.05037212744355202, 0.18072864413261414, 0.17583701014518738, -0.1067638024687767, 0.005698320455849171, 0.04523522034287453, -0.1175973191857338, -0.19620685279369354, -0.03279246389865875, -0.19658663868904114, -0.06869852542877197, 0.06405583024024963, -0.18904493749141693, 0.013841811567544937, -0.08458344638347626, 0.16045024991035461, 0.2369452714920044, 0.040345724672079086, -0.16225001215934753], [0.015706751495599747, 0.14715906977653503, -0.19003194570541382, 0.05676093325018883, 0.05830775946378708, -0.028970196843147278, 0.22254371643066406, -0.016901878640055656, 0.0321798101067543, 0.19756193459033966, 0.0503728874027729, -0.13460029661655426, -0.10400064289569855, -0.1879669725894928, -0.03472050651907921, 0.15696981549263, 0.18988078832626343, 0.1769174188375473, 0.002379171084612608, -0.1396864354610443, 0.04677576944231987, 0.16575878858566284, 0.037965789437294006, 0.11558777093887329, -0.03844139352440834, 0.07089155912399292, -0.18504345417022705, -0.10108504444360733, 0.03921612352132797, -0.1381586343050003, -0.1164715588092804, -0.1449582278728485], [0.10830769687891006, 0.17224432528018951, 0.0030722874216735363, 0.02839316427707672, -0.01963621936738491, -0.2131904810667038, 0.05969031900167465, -0.046639349311590195, 0.02570698782801628, -0.11747714877128601, -0.1398962438106537, -0.02290637232363224, 0.19208839535713196, -0.15588626265525818, -0.04917310178279877, -0.22802136838436127, 0.20400530099868774, 0.16381894052028656, -0.07708125561475754, 0.1390940248966217, 0.19913910329341888, 0.23271143436431885, 0.1707967072725296, -0.055373191833496094, -0.09017457067966461, -0.025283388793468475, 0.007193973753601313, 0.007728501223027706, 0.23321464657783508, 0.011742204427719116, 0.0555245541036129, 0.09124475717544556], [-0.05418739840388298, -0.1265053153038025, 0.10887829959392548, -0.15605558454990387, 0.14984668791294098, -0.22143572568893433, -0.08738496899604797, -0.12147632241249084, -0.0246034637093544, -0.16420044004917145, -0.04534297063946724, -0.10748189687728882, 0.19822002947330475, -0.17273849248886108, 0.0021453318186104298, -0.08980131149291992, -0.03839883208274841, -0.03931164741516113, 0.11755214631557465, -0.026190614327788353, 0.024332625791430473, 0.16366565227508545, -0.08479668945074081, -0.05792475491762161, 0.13954639434814453, 0.052024781703948975, -0.14338339865207672, -0.15225446224212646, -0.008794963359832764, 0.08485928177833557, -0.20303839445114136, 0.05270272493362427], [0.20819078385829926, -0.09680948406457901, -0.10909877717494965, -0.12462440133094788, 0.029189640656113625, 0.09327270835638046, 0.23700959980487823, -0.08043386787176132, 0.2147427797317505, -0.02776274085044861, 0.20253369212150574, 0.16075751185417175, -0.03192875161767006, -0.006214299239218235, 0.2227059304714203, -0.21144087612628937, 0.2194446474313736, -0.2199966311454773, -0.08020132780075073, -0.009611684828996658, 0.0942370742559433, -0.18862676620483398, 0.19604262709617615, -0.04155634343624115, -0.131790891289711, -0.07993324100971222, -0.13008400797843933, -0.0724412053823471, -0.051061421632766724, 0.028491731733083725, -0.04736911132931709, 0.1949096918106079], [0.11476344615221024, 0.13815554976463318, -0.1028972640633583, 0.15263774991035461, -0.09944316744804382, 0.14020054042339325, -0.06790667027235031, -0.09330618381500244, 0.06357283145189285, 0.18137666583061218, -0.12265470623970032, 0.0794568732380867, 0.008777091279625893, -0.1837935894727707, -0.17064547538757324, -0.23124055564403534, -0.0868309959769249, 0.1923416256904602, 0.17954696714878082, 0.004299200139939785, -0.18794602155685425, 0.08325443416833878, -0.19811686873435974, -0.17966632544994354, -0.1531580239534378, -0.2281065732240677, -0.14446400105953217, -0.15250520408153534, -0.08289752155542374, 0.04917173087596893, 0.05164368078112602, -0.03161343187093735], [-0.18269969522953033, 0.07178705185651779, 0.20980964601039886, 0.19837087392807007, 0.10049497336149216, -0.059709567576646805, 0.1332305371761322, 0.1382911503314972, 0.02386702597141266, 0.05332832783460617, -0.03220503777265549, -0.057968948036432266, 0.03410576283931732, -0.049529679119586945, 0.07551831752061844, -0.2276131957769394, -0.01232128031551838, 0.15391866862773895, -0.1719372272491455, 0.014980667270720005, -0.13116709887981415, 0.06854774057865143, 0.03483569622039795, 0.21422617137432098, 0.13139130175113678, -0.05963115394115448, 0.016050439327955246, -0.14388884603977203, -0.1924268752336502, 0.04796137660741806, -0.17354732751846313, -0.007766162045300007], [0.0006870721699669957, 0.13893647491931915, -0.1625356823205948, -0.19003872573375702, -0.17415522038936615, -0.04230513423681259, 0.01283504068851471, -0.08610203117132187, 0.18838490545749664, -0.038913775235414505, 0.06408000737428665, 0.07836227118968964, -0.16308113932609558, 0.11021679639816284, -0.17475299537181854, -0.13511398434638977, 0.1318521648645401, 0.16335341334342957, -0.11434464156627655, -0.1666291356086731, -0.02540486678481102, 0.19092011451721191, -0.06563526391983032, 0.09604929387569427, 0.044197093695402145, 0.13734805583953857, 0.20771822333335876, 0.04354959726333618, -0.1796487420797348, 0.11170130223035812, -0.1256359964609146, -0.019689524546265602], [-0.0831293836236, -0.19679661095142365, 0.04837341979146004, 0.10595545172691345, -0.08909154683351517, 0.18211346864700317, -0.007296448107808828, 0.17088638246059418, -0.17916327714920044, 0.13335490226745605, -0.024191563948988914, 0.046541888266801834, 0.13062767684459686, 0.055634211748838425, 0.07125502079725266, 0.08219732344150543, -0.12174931168556213, -0.18068942427635193, -0.047364652156829834, 0.020747948437929153, 0.13906091451644897, -0.10386490076780319, -0.0005196710117161274, 0.20439882576465607, -0.021818291395902634, -0.18466652929782867, 0.138374462723732, 0.028254015371203423, -0.08571718633174896, -0.019349785521626472, 0.15828855335712433, -0.08543477207422256], [0.24395868182182312, -0.0706438422203064, 0.1565721333026886, -0.1052674949169159, 0.1820434182882309, 0.2164805382490158, 0.08206036686897278, 0.16216515004634857, 0.0075156670063734055, -0.03886210545897484, -0.09484737366437912, -0.23604314029216766, -0.17619997262954712, -0.0983000099658966, -0.10030774772167206, 0.02338753081858158, 0.19684410095214844, -0.0656198188662529, 0.06311757117509842, 0.029019039124250412, -0.0033062552101910114, 0.12145012617111206, -0.15794850885868073, -0.04726916551589966, -0.12092795968055725, -0.112883061170578, -0.038085587322711945, 0.1630707085132599, -0.16951769590377808, -0.018197806552052498, 0.05288708955049515, 0.12808501720428467], [-0.09030310064554214, 0.04519084095954895, 0.08641603589057922, 0.07885140180587769, -0.19025756418704987, 0.06268743425607681, -0.12600013613700867, -0.04524778947234154, 0.0886702686548233, 0.026454787701368332, -0.12828251719474792, 0.15819554030895233, 0.09182126075029373, -0.16091781854629517, 0.18102560937404633, -0.1127869263291359, -0.00021400977857410908, -0.16911664605140686, 0.20233100652694702, -0.16999077796936035, 0.03491884842514992, 0.025478946045041084, -0.2074829638004303, 0.10284747183322906, -0.009115030989050865, 0.1951453685760498, -0.06283532828092575, 0.09518864005804062, -0.1941824108362198, -0.05830880627036095, -0.08256599307060242, 0.04553195461630821], [-0.001649500336498022, -0.08905380219221115, 0.1056017354130745, -0.13874487578868866, -0.09466949850320816, 0.02162034623324871, 0.011017919518053532, 0.10330545157194138, 0.09502620249986649, -0.03724066913127899, 0.05504763871431351, -0.18067358434200287, 0.08757402747869492, 0.01169578731060028, -0.14564429223537445, -0.16365812718868256, -0.21789252758026123, -0.15195079147815704, -0.1338740885257721, -0.14076560735702515, 0.16823452711105347, 0.05163758248090744, 0.006047640461474657, -0.013797089457511902, -0.05418721213936806, -0.10227934271097183, 0.157051682472229, -0.11242928355932236, -0.2215203195810318, 0.0991230234503746, 0.11123794317245483, 0.08620008081197739], [-0.08792375773191452, -0.06470784544944763, -0.017372658476233482, -0.10508975386619568, 0.0945018082857132, -0.09897810965776443, -0.12410235404968262, 0.11129364371299744, 0.1249781921505928, 0.17709985375404358, -0.06236541271209717, -0.059176843613386154, -0.018579045310616493, -0.0776425153017044, -0.07910264283418655, 0.1205875352025032, -0.0740833654999733, 0.11889494955539703, 0.18752320110797882, -0.15721158683300018, 0.13513796031475067, 0.10037431120872498, 0.12979906797409058, 0.10830540210008621, 0.09297651052474976, 0.1239924356341362, -0.07204460352659225, -0.1239839568734169, 0.055692095309495926, 0.19040441513061523, 0.05069786310195923, 0.13095809519290924], [-0.17815636098384857, -0.12807808816432953, 0.042537298053503036, 0.03717733174562454, 0.22002381086349487, 0.17489047348499298, -0.17733199894428253, 0.2361237108707428, -0.17129197716712952, 0.08070958405733109, -0.16446620225906372, -0.023537255823612213, 0.09001332521438599, -0.05665300413966179, 0.0978488177061081, 0.06351937353610992, 0.008296745829284191, -0.12578748166561127, 0.05353882908821106, 0.027147196233272552, -0.11274758726358414, -0.10446137934923172, -0.07695049792528152, -0.02357468381524086, 0.22080861032009125, 0.165224090218544, -0.08926679193973541, -0.09850440174341202, -0.18350835144519806, -0.1318872720003128, 0.049386657774448395, 0.13537417352199554], [-0.07234255224466324, 0.1038169264793396, 0.0540287084877491, 0.12264978140592575, 0.04166658967733383, 0.13005360960960388, -0.08415679633617401, 0.03333042562007904, 0.08400458842515945, -0.05411278456449509, -0.009437603875994682, -0.11479933559894562, 0.029008664190769196, -0.08169298619031906, -0.012715084478259087, -0.0885358452796936, 0.010818100534379482, -0.1447647213935852, -0.18872056901454926, 0.0102043766528368, 0.15307986736297607, -0.19337767362594604, 0.028971493244171143, 0.08074012398719788, 0.042129747569561005, -0.005471654701977968, -0.1412314772605896, -0.05583259090781212, -0.20057550072669983, 0.19047322869300842, 0.12385404109954834, -0.023917807266116142], [-0.1877642124891281, -0.10393453389406204, 0.13252507150173187, 0.1697774976491928, 0.08017288893461227, 0.024775944650173187, 0.13604646921157837, 0.15944300591945648, -0.23339299857616425, 0.027285434305667877, 0.22289688885211945, 0.1409398764371872, 0.03774324059486389, -0.11297851800918579, 0.1386340856552124, -0.1375432312488556, -0.14407287538051605, 0.012638778425753117, 0.08227753639221191, 0.004433131776750088, -0.17514872550964355, -0.09071235358715057, -0.003466172143816948, -0.23746296763420105, -0.07283248752355576, 0.16786660254001617, -0.014977551065385342, 0.07944157719612122, -0.03825494274497032, 0.009729383513331413, -0.06477290391921997, -0.06229902803897858], [-0.020430032163858414, 0.10718714445829391, 0.00678463838994503, 0.018228592351078987, -0.09876931458711624, -0.06643766909837723, 0.1721651405096054, -0.19082261621952057, -0.21314211189746857, 0.03307811915874481, -0.09658563137054443, -0.010610658675432205, 0.11937596648931503, -0.16078433394432068, 0.059746041893959045, 0.165486678481102, -0.18237189948558807, 0.0596655048429966, -0.09905101358890533, -0.20085495710372925, 0.23367823660373688, -0.016811424866318703, -0.1757902204990387, 0.0064792390912771225, 0.14690110087394714, 0.15539129078388214, 0.15245968103408813, -0.11816990375518799, -0.1251068413257599, 0.11136730015277863, 0.05002136528491974, -0.20755824446678162], [0.14282891154289246, 0.10033539682626724, 0.1170031726360321, -0.09298285096883774, 0.015466641634702682, -0.17181342840194702, -0.1909434050321579, 0.10346002876758575, 0.07683277130126953, 0.07989228516817093, 0.2143152952194214, 0.18368440866470337, 0.13808421790599823, -0.23931410908699036, 0.10745460540056229, 0.024674933403730392, 0.04833254590630531, -0.11331436038017273, 0.010809586383402348, 0.1829313039779663, -0.02043311856687069, -0.1961342692375183, 0.17950423061847687, -0.11098014563322067, -0.14777691662311554, -0.21903300285339355, -0.1385994702577591, -0.007465996779501438, 0.22170670330524445, 0.17316140234470367, -0.05996541306376457, 0.13428433239459991], [0.08889251947402954, 0.0516207255423069, -0.004933177959173918, -0.11758507043123245, -0.20612327754497528, 0.18061262369155884, 0.0926247388124466, -0.12896376848220825, 0.23526334762573242, 0.23518985509872437, 0.05838603526353836, 0.15645749866962433, 0.008988423272967339, 0.019079459831118584, 0.09723594039678574, -0.1484644114971161, -0.21725605428218842, -0.1639551818370819, -0.021654924377799034, 0.027345456182956696, -0.09749919176101685, 0.045842185616493225, 0.1153990775346756, 0.19453294575214386, 0.05590257793664932, -0.09128202497959137, -0.191013902425766, 0.05790439993143082, 0.04035554453730583, -0.18876679241657257, 0.14887140691280365, -0.056170910596847534], [-0.09565971791744232, -0.0908086895942688, 0.040023449808359146, 0.2329513430595398, -0.12965260446071625, 0.0883399173617363, 0.1446550041437149, -0.013834301382303238, -0.20049332082271576, -0.17641596496105194, 0.1646229475736618, -0.06410648673772812, -0.04061191901564598, -0.1784961074590683, 0.014387598261237144, 0.14990735054016113, 0.1913546323776245, -0.17898766696453094, 0.11899593472480774, -0.11309248954057693, -0.0013088721316307783, -0.2094409167766571, -0.06876154243946075, -0.17046520113945007, -0.017780808731913567, 0.12912943959236145, 0.11903714388608932, -0.05954974889755249, -0.11808618158102036, -0.15596666932106018, 0.12340272963047028, -0.11927812546491623], [0.1278141885995865, -0.13955415785312653, -0.02086174301803112, 0.2122233808040619, 0.11684972792863846, -0.059363897889852524, 0.1539245992898941, 0.19928079843521118, 0.05717278644442558, 0.04971480369567871, -0.19537128508090973, -0.15445804595947266, 0.025804027915000916, 0.09942740947008133, 0.008823640644550323, 0.15455147624015808, 0.17962908744812012, 0.2053997814655304, -0.15168069303035736, 0.0024169753305613995, -0.19826072454452515, 0.1292930394411087, -0.09113550931215286, 0.19948627054691315, 0.11632778495550156, -0.12466378509998322, 0.06714963167905807, 0.20583677291870117, 0.018517116084694862, 0.17830076813697815, -0.12046878784894943, 0.09959442168474197], [-0.011040500365197659, -0.13828350603580475, -0.11758435517549515, -0.06332778185606003, -0.005149040371179581, 0.22660142183303833, -0.18821538984775543, -0.07021550834178925, -0.17868579924106598, 0.19529683887958527, -0.054673146456480026, 0.09645132720470428, 0.0023321581538766623, 0.026373974978923798, -0.004614381585270166, -0.08588668704032898, -0.1964958757162094, -0.14788466691970825, 0.17619946599006653, 0.12567120790481567, 0.0294194333255291, -0.035351160913705826, -0.19179825484752655, -0.15100383758544922, -0.0017892393516376615, 0.036419227719306946, -0.11353010684251785, 0.009052911773324013, -0.11055650562047958, 0.05611157417297363, -0.06728676706552505, 0.1629192978143692], [-0.02721977047622204, -0.09248832613229752, -0.04455837607383728, 0.1770261973142624, -0.0730709359049797, 0.030069798231124878, 0.05803043767809868, -0.17621833086013794, -0.17889629304409027, 0.2182437926530838, -0.1384807974100113, -0.1693185269832611, -0.21861831843852997, -0.12240135669708252, -0.06892838329076767, -0.14999844133853912, 0.057767488062381744, 0.014850407838821411, -0.1997428685426712, 0.15877383947372437, 0.11793699115514755, -0.09447237849235535, 0.1307700127363205, 0.052849702537059784, 0.008238568902015686, 0.019949067384004593, 0.027664562687277794, -0.10193195939064026, 0.15106752514839172, 0.17773360013961792, -0.23202791810035706, -0.06298726052045822], [-0.1545747071504593, 0.1270494908094406, 0.1555768847465515, -0.008891034871339798, 0.10277333855628967, -0.1319095343351364, -0.15982356667518616, 0.05471912771463394, -0.11300300806760788, -0.05721711739897728, -0.04612093046307564, -0.013576339930295944, 0.0230348352342844, -0.21531115472316742, 0.14006464183330536, -0.12660470604896545, 0.04013165831565857, 0.15885710716247559, -0.20190811157226562, 0.08994897454977036, -0.16658511757850647, 0.08560322970151901, 0.1977139413356781, -0.04142577946186066, -0.12468264997005463, -0.017585108056664467, -0.007137255743145943, -0.10526283085346222, 0.008528171107172966, 0.13833914697170258, 0.16570933163166046, 0.07186927646398544], [-0.017890315502882004, -0.22618627548217773, -0.17250922322273254, -0.1434779167175293, 0.008467406965792179, 0.12507224082946777, 0.23194833099842072, 0.07474511861801147, 0.00995949748903513, 0.031971752643585205, -0.2370888888835907, 0.09873280674219131, -0.18401193618774414, 0.18428926169872284, -0.09660021215677261, -0.13048653304576874, 0.025867870077490807, -0.0819743424654007, -0.06837485730648041, 0.17264659702777863, -0.151851087808609, -0.17760339379310608, 0.0016017411835491657, -0.09293299168348312, -0.1422649770975113, -0.17485186457633972, 0.08553317934274673, -0.017725983634591103, 0.07949914038181305, 0.03364189714193344, -0.1914880871772766, 0.07118506729602814], [-0.04551495611667633, 0.14438581466674805, -0.13741260766983032, 0.24530483782291412, -0.05605633929371834, 0.2391475886106491, -0.24909353256225586, 0.00798338744789362, -0.031175684183835983, -0.20849718153476715, -0.1137113869190216, -0.11330094188451767, 0.218175008893013, -0.19777505099773407, 0.07068222761154175, -0.2289474457502365, 0.02195417508482933, -0.05584795027971268, -0.06907101720571518, -0.05217643827199936, 0.002527677919715643, 0.09383245557546616, -0.011265333741903305, 0.07923062890768051, 0.039510831236839294, -0.08562931418418884, 0.018892649561166763, 0.0015599578619003296, -0.07666587829589844, 0.11670324206352234, 0.22529461979866028, 0.0875406414270401], [0.22070179879665375, -0.14914488792419434, 0.1912073940038681, -0.0005979624111205339, 0.15234814584255219, 0.015738951042294502, -0.20183230936527252, 0.1552860587835312, -0.14980539679527283, -0.05613977089524269, -0.009977496229112148, -0.15837283432483673, 0.16865205764770508, 0.20716127753257751, -0.09449946880340576, -0.09932083636522293, 0.17340148985385895, -0.03661121428012848, -0.19534994661808014, 0.02524108812212944, 0.06201011314988136, 0.14705459773540497, -0.08018495887517929, -0.18188224732875824, 0.2048112452030182, -0.1791990101337433, -0.14804860949516296, 0.13479700684547424, -0.2093605250120163, 0.1925564855337143, 0.1934157758951187, -0.13111786544322968], [-0.19441001117229462, -0.10192377865314484, -0.1667824238538742, -0.2113388627767563, 0.035081710666418076, 0.015786275267601013, 0.11767131835222244, 0.15036188066005707, 0.09032432734966278, -0.050375115126371384, -0.13613586127758026, 0.20380567014217377, 0.03386659920215607, -0.09388884902000427, 0.05748993903398514, -0.06219527870416641, -0.008244739845395088, 0.1233188733458519, 0.11255505681037903, -0.05538099631667137, -0.05798995867371559, 0.19111792743206024, -0.005779893137514591, 0.050832103937864304, -0.2351454794406891, 0.13422875106334686, -0.14723941683769226, 0.13511179387569427, -0.1686220020055771, -0.006893505807965994, -0.20712217688560486, -0.010321677662432194], [-0.017477143555879593, -0.14489826560020447, 0.001713455654680729, -0.04485727846622467, -0.17949947714805603, -0.08847162127494812, -0.07740280032157898, -0.005389793775975704, -0.1393003612756729, 0.15455235540866852, 0.1740131825208664, 0.22298969328403473, -0.13582460582256317, 0.10164773464202881, -0.13814379274845123, 0.24633140861988068, 0.12404564023017883, -0.15030717849731445, 0.03335902467370033, -0.05467093735933304, 0.16667035222053528, -0.026774313300848007, 0.14262497425079346, 0.1307794153690338, 0.01482416968792677, 0.126226007938385, 0.13667285442352295, 0.0804520770907402, 0.01944575645029545, -0.1553177684545517, -0.2115737348794937, 0.18746955692768097], [0.09433041512966156, 0.12453068047761917, 0.04284852743148804, -0.10212080925703049, -0.1387210637331009, -0.15656428039073944, 0.008374048396945, 0.09941063076257706, 0.0724637508392334, 0.1225670725107193, -0.06761707365512848, 0.22912485897541046, 0.14066296815872192, -0.1735984981060028, 0.0618177130818367, 0.10938973724842072, 0.08822198957204819, 0.24132637679576874, -0.07944226264953613, -0.006847065407782793, 0.18018166720867157, 0.06432782113552094, -0.008865470066666603, -0.011022518388926983, 0.013626175932586193, -0.011983916163444519, 0.14762145280838013, -0.02132211998105049, -0.034861233085393906, -0.18829748034477234, 0.18688593804836273, 0.05432521179318428], [-0.16247369349002838, 0.0625389814376831, -0.12209905683994293, -0.14768260717391968, 0.21713906526565552, -0.20487432181835175, 0.06705155223608017, 0.21244122087955475, 0.15799690783023834, 0.08918029069900513, 0.1709252893924713, -0.18228986859321594, -0.11789031326770782, 0.15930499136447906, 0.06330239027738571, -0.08955638110637665, 0.026737604290246964, -0.12629547715187073, 0.07283581793308258, 0.05186406522989273, -0.17188826203346252, -0.10013815760612488, -0.047798220068216324, -0.1816292107105255, 0.15713195502758026, -0.19961293041706085, -0.015265091322362423, -0.005443942733108997, 0.09613441675901413, 0.17763030529022217, -0.2047271430492401, 0.20383091270923615], [-0.05767986178398132, 0.11585649847984314, -0.11497887969017029, -0.0034136800095438957, 0.10964079201221466, -0.02196403406560421, 0.1887456476688385, -0.020320618525147438, 0.18841233849525452, -0.028159182518720627, 0.14672721922397614, -0.06922122091054916, 0.06292150914669037, 0.0656660869717598, -0.22613976895809174, -0.17323178052902222, -0.19044801592826843, -0.13070181012153625, -0.15172825753688812, 0.0806882381439209, 0.15658274292945862, -0.07425098121166229, -0.06923920661211014, 0.25028687715530396, -0.2238674759864807, -0.18149642646312714, 0.11802953481674194, 0.19166326522827148, -0.03378681838512421, 0.2056833654642105, -0.08651301264762878, -0.014886433258652687], [-0.07495277374982834, 0.06073785573244095, -0.034545548260211945, -0.07069007307291031, -0.20506858825683594, 0.07924181967973709, 0.2371056228876114, -0.05619055777788162, -0.07650946080684662, 0.22942174971103668, -0.1939815878868103, 0.09051869064569473, -0.08927090466022491, 0.21714121103286743, 0.17674455046653748, -0.03564773127436638, 0.05687284469604492, 0.15354904532432556, -0.21402442455291748, 0.23579490184783936, -0.23530514538288116, -0.05067552253603935, -0.03971850499510765, 0.17704008519649506, -0.00700624892488122, -0.1262127161026001, 0.13652057945728302, 0.1452248990535736, 0.12316299229860306, 0.19469396770000458, 0.18714570999145508, 0.17415885627269745], [-0.08228401094675064, 0.10173409432172775, -0.07604669034481049, 0.17569482326507568, 0.09274247288703918, 0.027426017448306084, -0.0049730585888028145, -0.008818957954645157, 0.03112740069627762, -0.0350852869451046, 0.09460188448429108, -0.08360128104686737, 0.14667853713035583, 0.05268097668886185, -0.13427892327308655, 0.12114358693361282, -0.12580722570419312, 0.12764666974544525, -0.06255888193845749, -0.12996111810207367, 0.09290015697479248, 0.08669178932905197, 0.0032384730875492096, 0.15717735886573792, 0.23027102649211884, 0.013583567924797535, -0.01628470979630947, -0.14125852286815643, 0.16505387425422668, 0.12207581847906113, -0.15907929837703705, -0.15919648110866547], [-0.09357878565788269, -0.012753680348396301, -0.1123230904340744, 0.11656446009874344, 0.06868766248226166, 0.13817407190799713, -0.06878330558538437, 0.23197148740291595, 0.03788011521100998, -0.09443728625774384, 0.04403645917773247, 0.04449215531349182, -0.05209184065461159, -0.14432454109191895, -0.11201253533363342, -0.07787468284368515, -0.13684841990470886, 0.02497611753642559, -0.01657634787261486, -0.06471686065196991, 0.14099812507629395, -0.17027905583381653, 0.02954220585525036, -0.10605202615261078, 0.18941062688827515, 0.06014281138777733, -0.05452004820108414, 0.15693236887454987, -0.16026170551776886, -0.23275649547576904, -0.08894267678260803, -0.056939687579870224], [-0.023225262761116028, 0.10798235982656479, 0.005784825421869755, -0.14019058644771576, 0.027256721630692482, -0.12117109447717667, -0.22382508218288422, -0.0980495885014534, -0.15934401750564575, -0.06010044366121292, -0.09919200837612152, -0.12713903188705444, -0.15944306552410126, -0.18254625797271729, -0.10691490024328232, 0.043478209525346756, -0.1677742600440979, 0.14286011457443237, 0.21428295969963074, -0.007535610813647509, 0.13181829452514648, 0.1096259281039238, -0.1532040685415268, -0.1285010278224945, -0.1393674612045288, -0.18443290889263153, -0.08153417706489563, 0.10334198921918869, 0.04358141869306564, 0.18614333868026733, -0.1620735228061676, 0.053406089544296265], [-0.1813168078660965, 0.09300556033849716, 0.07828071713447571, 0.002443544799461961, -0.1777496188879013, -0.19775390625, -0.13011544942855835, 0.04522331431508064, -0.1962595283985138, 0.005630191415548325, -0.08763225376605988, -0.19035086035728455, -0.14228080213069916, 0.0657387301325798, 0.010298672132194042, 0.030721895396709442, 0.002341880463063717, -0.19196420907974243, -0.1626189947128296, -0.19071459770202637, 0.17832203209400177, -0.05492859333753586, 0.1189335286617279, 0.18029314279556274, 0.08906435966491699, 0.07337865233421326, 0.05199632793664932, 0.07435772567987442, -0.04954015836119652, 0.09409831464290619, -0.11518844962120056, -0.0595637783408165], [-0.022355223074555397, -0.15873824059963226, 0.14548473060131073, -0.1519182026386261, 0.13038429617881775, 0.12221956998109818, -0.14317816495895386, 0.06540089845657349, -0.06761184334754944, -0.21033960580825806, -0.039922282099723816, -0.17472681403160095, -0.18462269008159637, -0.11720285564661026, 0.09168685227632523, 0.18807341158390045, -0.06685445457696915, 0.19377753138542175, 0.09200944006443024, 0.09773831814527512, 0.1820296198129654, 0.1301438808441162, 0.16664867103099823, -0.15483756363391876, 0.023720312863588333, -0.2182767540216446, 0.02632797136902809, 0.06487234681844711, -0.11772968620061874, -0.09747288376092911, -0.16128353774547577, -0.06462375819683075], [0.14529187977313995, 0.1605719029903412, 0.058084823191165924, -0.19785360991954803, 0.062062349170446396, -0.19411487877368927, -0.14657020568847656, -0.15283513069152832, -0.03992761671543121, 0.0350969135761261, -0.10881545394659042, -0.11728332936763763, 0.14268150925636292, -0.1916772425174713, -0.0469132736325264, 0.008971567265689373, 0.19828540086746216, 0.004368172958493233, 0.10689271241426468, -0.14250996708869934, -0.0742281973361969, -0.09858934581279755, -0.028690528124570847, -0.14834155142307281, -0.19813032448291779, -0.032210759818553925, -0.044687241315841675, 0.02253689058125019, -0.06326661258935928, 0.1316230297088623, -0.013961322605609894, 0.17950330674648285], [0.10830258578062057, -0.12968355417251587, 0.004816114902496338, 0.13073866069316864, -0.2138034850358963, 0.08293935656547546, -0.0929245725274086, 0.038817185908555984, 0.047605548053979874, -0.026597149670124054, 0.06643453985452652, -0.03822000324726105, 0.1533607691526413, -0.009512963704764843, -0.1563175767660141, -0.09137258678674698, -0.18513044714927673, 0.11385667324066162, -0.03131723776459694, -0.19422395527362823, -0.1525985300540924, 0.0010796627029776573, -0.07518593966960907, -0.1047234758734703, -0.15877260267734528, 0.1291772425174713, 0.197765052318573, -0.09690491110086441, 0.054776713252067566, -0.13307921588420868, 