{"embedding.embedding.weight": [[-0.24828463792800903, -0.1962815523147583, 0.222910076379776, 0.12354574352502823, -0.17301784455776215, -0.09132005274295807, -0.16946113109588623, -0.05086294561624527, 0.22330594062805176, 0.1530093103647232, -0.32601726055145264, -0.1304149031639099, -0.2840465307235718, 0.08926758915185928, -0.02544529363512993, -0.0833166241645813, 0.03984757512807846, -0.1465495228767395, 0.19723112881183624, -0.4107998311519623, 0.03676442429423332, -0.08711433410644531, 0.1423766314983368, -0.120517797768116, 0.0646766945719719, -0.1709500402212143, 0.09784910827875137, -0.010083002969622612, -0.1464989334344864, 0.012131588533520699, -0.012960238382220268, -0.08162660151720047], [-0.235165074467659, 0.07734662294387817, -0.2604886293411255, 0.08333329111337662, 0.13365688920021057, 0.1418139487504959, 0.14561021327972412, -0.288052499294281, -0.14941701292991638, -0.2971651256084442, 0.04357803985476494, -0.16701647639274597, 0.018139686435461044, -0.07609434425830841, 0.16378915309906006, -0.022662833333015442, -0.10327012091875076, -0.25016698241233826, -0.012122532352805138, 0.28982385993003845, -0.05116062983870506, -0.1728617399930954, 0.05036679655313492, 0.2178766280412674, 0.15889015793800354, 0.12576264142990112, -0.5091063976287842, 0.04826202988624573, 0.1325874924659729, -0.19181311130523682, 0.143634632229805, 0.043174758553504944], [0.015950823202729225, -0.010244338773190975, -0.08065484464168549, -0.041163984686136246, 0.2454662322998047, -0.026054441928863525, 0.20134112238883972, 0.009693015366792679, 0.3399122357368469, 0.19560381770133972, -0.009843331761658192, -0.05949041619896889, -0.045832470059394836, -0.03485141694545746, 0.25987592339515686, -0.0452166311442852, 0.3121854364871979, 0.14678050577640533, -0.09818114340305328, 0.02941998839378357, -0.11000367999076843, -0.07767148315906525, 0.31011828780174255, 0.14401157200336456, -0.0226712916046381, -0.2099398374557495, -0.042912404984235764, 0.1808241456747055, -0.3149610757827759, 0.31038692593574524, 0.018246475607156754, -0.2154214084148407], [0.08136206865310669, 0.026632104068994522, -0.3981611132621765, -0.016948362812399864, 0.016171768307685852, -0.09850748628377914, -0.046544890850782394, -0.23044686019420624, 0.17778633534908295, -0.33143317699432373, 0.18075241148471832, -0.07885243743658066, 0.130464106798172, 0.023823503404855728, -0.25603723526000977, -0.09331513196229935, -0.12441283464431763, 0.15639463067054749, 0.2961369454860687, 0.10911525040864944, -0.1691095232963562, -0.1275169998407364, 0.11581539362668991, -0.09849227219820023, 0.011608485132455826, -0.14494137465953827, -0.004725205712020397, 0.06247745454311371, 0.12111788243055344, 0.15165047347545624, 0.09817363321781158, 0.3667585849761963], [-0.09317775815725327, 0.00922202505171299, -0.09480169415473938, -0.23290199041366577, -0.10362008213996887, 0.005857964977622032, -0.09446914494037628, -0.048824161291122437, -0.2749690115451813, 0.26801618933677673, 0.14635123312473297, 0.11674600839614868, 0.5331553220748901, 0.16589108109474182, -0.07818737626075745, -0.00962936319410801, 0.1563848853111267, -0.10763856023550034, 0.04778680577874184, 0.019957490265369415, -0.16691698133945465, 0.015517264604568481, -0.15426518023014069, -0.02458498813211918, 0.17189070582389832, -0.2597525119781494, 0.05339628458023071, -0.09465602785348892, -0.01385363470762968, 0.12387113273143768, -0.039370134472846985, 0.24341799318790436], [0.017225248739123344, 0.022393720224499702, 0.03764985501766205, 0.10184748470783234, -0.06509259343147278, -0.19523648917675018, -0.01128099299967289, 0.3422594964504242, -0.041881490498781204, -0.16202384233474731, -0.18941918015480042, 0.14791631698608398, -0.3856686055660248, -0.06953645497560501, -0.030838854610919952, -0.031454578042030334, -0.11560340225696564, 0.1472574770450592, 0.19172996282577515, -0.23155881464481354, 0.20290246605873108, -0.1265849471092224, 0.11785581707954407, 0.0614030547440052, 0.003137296997010708, -0.026596076786518097, 0.11115116626024246, 0.3484603464603424, -0.1282302290201187, 0.061929211020469666, 0.2785252630710602, -0.25063854455947876], [-0.16390398144721985, -0.0007158080115914345, -0.1025896668434143, 0.03938039019703865, 0.0212053582072258, -0.0687393993139267, 0.12703417241573334, -0.018017522990703583, 0.11948150396347046, 0.021725937724113464, 0.011918534524738789, -0.00026854220777750015, -0.08355911821126938, 0.18495048582553864, 0.1319420039653778, 0.3098674714565277, 0.10784323513507843, 0.14813609421253204, 0.3334108591079712, -0.10765617340803146, 0.01186823658645153, 0.04671131819486618, -0.1399468332529068, -0.022182371467351913, 0.2668512761592865, -0.06342434138059616, -0.16139823198318481, -0.041112106293439865, 0.17988726496696472, 0.0908011719584465, 0.22929957509040833, -0.03365733101963997], [-0.10348885506391525, -0.010340042412281036, 0.03041996620595455, -0.040066350251436234, -0.16363553702831268, 0.17271707952022552, -0.11152428388595581, -0.21622148156166077, 0.3946887254714966, 0.20834563672542572, -0.27675190567970276, 0.3265698254108429, -0.12735991179943085, -0.4012713134288788, -0.4294132888317108, -0.15437695384025574, -0.23693937063217163, -0.003264999482780695, -0.12507840991020203, -0.10476024448871613, -0.1969819962978363, 0.042808614671230316, -0.16213025152683258, 0.14196275174617767, 0.2505320608615875, 0.10730995237827301, 0.2603716552257538, 0.034859176725149155, 0.1266530305147171, 0.002171000000089407, 0.16464278101921082, 0.0016970043070614338], [-0.03052905946969986, 0.20449137687683105, 0.09848741441965103, 0.11722520738840103, 0.1550278514623642, -0.085135817527771, -0.11054334044456482, 0.2598452866077423, -0.08207278698682785, -0.2346898317337036, 0.2252575010061264, -0.13732238113880157, 0.32672813534736633, -0.12263399362564087, 0.2136833220720291, 0.09924526512622833, 0.3181972801685333, 0.25348544120788574, -0.3294493556022644, -0.15994103252887726, -0.48305222392082214, -0.04769644886255264, -0.28218215703964233, -0.09309089183807373, -0.051035087555646896, -0.05844905972480774, -0.18905222415924072, 0.13323616981506348, 0.14999143779277802, 0.16585753858089447, -0.21927186846733093, 0.010321903973817825], [-0.11198490858078003, -0.1231122836470604, 0.0016780705191195011, 0.013982271775603294, -0.14025287330150604, -0.36871135234832764, 0.19219553470611572, -0.03269413858652115, 0.14524167776107788, -0.3461943566799164, -0.0214029923081398, 0.032055601477622986, -0.09844020754098892, -0.1653769314289093, -0.13350491225719452, -0.08767329901456833, -0.3101566433906555, -0.07542259991168976, -0.09599851816892624, 0.1371220499277115, 0.04569699242711067, 0.21311399340629578, -0.12453704327344894, -0.19373103976249695, 0.22951233386993408, -0.10840102285146713, 0.1635451465845108, 0.042029425501823425, -0.07882220298051834, -0.028612524271011353, -0.29277151823043823, -0.18917988240718842], [0.09985030442476273, -0.1856296956539154, 0.4356703460216522, -0.16530254483222961, 0.4707637131214142, 0.14755520224571228, 0.2430656999349594, 0.4120854139328003, 0.3396238386631012, 0.05482790619134903, -0.3241812288761139, -0.17367415130138397, 0.1926877796649933, 0.20765656232833862, -0.1038288027048111, 0.07735412567853928, -0.18259450793266296, -0.29727596044540405, -0.006349303759634495, 0.25613826513290405, -0.28689563274383545, -0.2926523685455322, -0.01648011989891529, -0.21882781386375427, 0.41034382581710815, 0.06991450488567352, 0.10847258567810059, 0.28138524293899536, 0.0640469416975975, 0.059008363634347916, -0.24426548182964325, 0.3267519772052765], [-0.12999030947685242, 0.11718103289604187, -0.2792702615261078, -0.18515363335609436, 0.018623661249876022, -0.22437679767608643, 0.21880042552947998, 0.10258325189352036, -0.1963634192943573, 0.06275404244661331, -0.24736329913139343, -0.13833162188529968, -0.03611103445291519, 0.16108502447605133, 0.16659879684448242, -0.060745902359485626, 0.05039221793413162, 0.003128195647150278, 0.03284037858247757, -0.12019521743059158, 0.036066051572561264, -0.14876821637153625, 0.03341829031705856, 0.13524265587329865, 0.2690751850605011, -0.07076963782310486, 0.10336202383041382, -0.1272192895412445, 0.12972323596477509, 0.38673052191734314, 0.10452297329902649, 0.13568709790706635], [0.338837593793869, -0.022644739598035812, -0.30163058638572693, 0.18459060788154602, 0.16238977015018463, 0.17226272821426392, -0.10968387126922607, -0.31744033098220825, -0.3910062909126282, -0.32277947664260864, 0.0009537048172205687, 0.15307895839214325, 0.07821481674909592, -0.06235532835125923, -0.20704828202724457, 0.22619296610355377, 0.20601828396320343, -0.18943166732788086, -0.22171637415885925, -0.23891307413578033, -0.30624130368232727, 0.13140305876731873, 0.10763861238956451, -0.15944930911064148, -0.05760703980922699, -0.21082523465156555, -0.21611502766609192, -0.5460192561149597, -0.14940153062343597, -0.13277176022529602, 0.05915933474898338, -0.2569812834262848], [0.2603154182434082, 0.08275054395198822, 0.029960550367832184, -0.0370236299932003, 0.2536967694759369, -0.1599223017692566, 0.07494048774242401, -0.03138241544365883, -0.02468429133296013, -0.16656769812107086, -0.08624578267335892, 0.10616959631443024, -0.23958182334899902, 0.0029643166344612837, 0.1276063621044159, 0.15335789322853088, 0.010502108372747898, 0.047788023948669434, -0.14962676167488098, -0.19814111292362213, -0.2737106382846832, 0.01200820878148079, -0.26464608311653137, -0.11850808560848236, -0.012871386483311653, 0.25025567412376404, 0.023346297442913055, 0.03305017203092575, -0.07817932963371277, -0.09609927982091904, 0.09519246220588684, 0.07183656096458435], [-0.12638087570667267, -0.03281152993440628, 0.3014826476573944, -0.007319459225982428, -0.26150670647621155, -0.3571327030658722, 0.19324243068695068, 0.09069658070802689, 0.08137417584657669, -0.008330841548740864, -0.2072071135044098, 0.0007113795727491379, 0.012544943951070309, -0.09146372228860855, 0.19017913937568665, 0.1051749438047409, 0.04659642279148102, -0.365156888961792, -0.11974623799324036, -0.09304460883140564, -0.25089603662490845, -0.22820088267326355, 0.23361220955848694, 0.17318153381347656, -0.17839016020298004, -0.019441820681095123, 0.05198017135262489, -0.04128815233707428, 0.29522955417633057, -0.2036617249250412, -0.07017038762569427, 0.10456851124763489], [0.35424286127090454, 0.41130873560905457, 0.018007779493927956, 0.04786291718482971, 0.029744159430265427, 0.09948863089084625, -0.16451182961463928, 0.07782848924398422, 0.17899245023727417, -0.13734130561351776, 0.05992119014263153, 0.001353994943201542, -0.0798000693321228, -0.23957961797714233, -0.3642169237136841, 0.10366970300674438, -0.020802399143576622, 0.3445720970630646, 0.04569173604249954, -0.34620946645736694, 0.04343564808368683, -0.08138111233711243, -0.2371808886528015, -0.16522851586341858, -0.16780829429626465, -0.25969523191452026, 0.13167424499988556, 0.046212706714868546, 0.07026191055774689, -0.2463216483592987, 0.2094273567199707, -0.14672008156776428], [-0.16467614471912384, 0.2282760590314865, -0.0996963381767273, -0.49221667647361755, -0.1820884495973587, -0.2379527986049652, -0.22491373121738434, -0.12894611060619354, 0.10379083454608917, -0.22109588980674744, -0.30988261103630066, -0.19951921701431274, 0.0920647606253624, -0.2184019833803177, -0.14859694242477417, 0.07367195188999176, 0.1817222237586975, -0.14050008356571198, 0.07603561878204346, -0.2901485562324524, 0.16889268159866333, 0.12461043149232864, 0.16864827275276184, 0.32020103931427, 0.06315234303474426, -0.2506884038448334, 0.09232469648122787, -0.020360959693789482, 0.24899400770664215, 0.009070102125406265, -0.06322254985570908, 0.3286200761795044], [-0.2762255072593689, 0.033885709941387177, -0.19764108955860138, -0.08783942461013794, -0.13958579301834106, -0.02621707320213318, -0.2203643023967743, 0.02093593403697014, -0.04774891212582588, 0.09938491135835648, 0.226566880941391, -0.14136630296707153, 0.21057020127773285, 0.23400534689426422, -0.14086946845054626, 0.1283569186925888, -0.42940860986709595, 0.21601848304271698, -0.3665313422679901, 0.038597285747528076, -0.010350553318858147, -0.05038178339600563, 0.10010617971420288, -0.2669987082481384, 0.12960268557071686, -0.10254984349012375, 0.03999989852309227, -0.22130806744098663, -0.32458847761154175, -0.11975447088479996, -0.050807733088731766, 0.33870384097099304], [0.15076296031475067, -0.12784643471240997, -0.16082286834716797, -0.32278358936309814, 0.20467814803123474, 0.20460370182991028, 0.31440475583076477, 0.16154639422893524, 0.0902111828327179, -0.10296560823917389, -0.1500972956418991, -0.13019618391990662, -0.028440769761800766, 0.13060876727104187, -0.0130825936794281, -0.15236324071884155, -0.13289031386375427, 0.09762497246265411, 0.28894710540771484, 0.02746395952999592, -0.17255866527557373, -0.13947974145412445, -0.15634015202522278, -0.07213544845581055, 0.086435966193676, -0.03287474811077118, -0.2139481008052826, 0.15323218703269958, -0.3464735746383667, -0.357490211725235, -0.09221760183572769, -0.13204309344291687], [0.12748445570468903, 0.18453122675418854, -0.22558419406414032, -0.06899841129779816, -0.09513884037733078, 0.025638703256845474, 0.1444721668958664, 0.02811095491051674, -0.03036796674132347, -0.2645181119441986, -0.09576119482517242, 0.06760381162166595, 0.17834076285362244, -0.1256776750087738, -0.15632499754428864, 0.2791028618812561, 0.21806620061397552, -0.10130814462900162, 0.034796878695487976, -0.04679388180375099, -0.21086108684539795, 0.09581150114536285, -0.01719992235302925, 0.3242550790309906, -0.07782445102930069, 0.1368178278207779, -0.09990047663450241, -0.14078040421009064, 0.1431591808795929, 0.06315820664167404, 0.3780217468738556, 0.15111377835273743], [0.47882702946662903, -0.2022719532251358, -0.2714771032333374, -0.1374644637107849, 0.11198092252016068, 0.1277247667312622, -0.03267306834459305, 0.16084900498390198, -0.4123595356941223, -0.29038920998573303, 0.10594750940799713, -0.13062724471092224, 0.09720582515001297, 0.2191939353942871, -0.14889365434646606, -0.0015518148429691792, -0.1587372124195099, -0.12785392999649048, 0.23714956641197205, -0.3897436261177063, 0.0019698133692145348, 0.09137333184480667, 0.2505592405796051, 0.11664915084838867, -0.013699698261916637, -0.05898807570338249, -0.09520478546619415, -0.03589162975549698, -0.08528349548578262, -0.10661973059177399, 0.17593027651309967, 0.27914151549339294], [0.11606165766716003, -0.1564064770936966, 0.4041515290737152, 0.11626148223876953, 0.09715967625379562, 0.10768494009971619, -0.07458547502756119, -0.04348762705922127, 0.22328829765319824, 0.13250108063220978, 0.20488351583480835, 0.365140825510025, -0.021509241312742233, 0.25706732273101807, 0.15478181838989258, 0.010364595800638199, -0.0609949491918087, -0.010999171994626522, 0.1714830994606018, -0.16978591680526733, -0.17707251012325287, -0.15679317712783813, -0.14890269935131073, 0.2557867467403412, 0.291910320520401, -0.16873428225517273, 0.021814264357089996, 0.06645794957876205, 0.26431435346603394, 0.2070363610982895, -0.2829662263393402, -0.11417092382907867], [0.3103165030479431, 0.1995692253112793, -0.054853081703186035, 0.07926107197999954, 0.05947217345237732, 0.06189708784222603, -0.20785455405712128, 0.3277495205402374, -0.0072429003193974495, -0.1466924101114273, 0.16694411635398865, 0.05535688251256943, 0.2942526340484619, 0.019202731549739838, 0.2856893539428711, 0.27371010184288025, 0.03552484139800072, -0.2918192446231842, -0.18752391636371613, -0.008127486333251, 0.09226999431848526, 0.020591415464878082, -0.17984788119792938, 0.012561669573187828, -0.1594197154045105, 0.05014217644929886, 0.0949653834104538, 0.04513722285628319, 0.33736327290534973, 0.2596496641635895, -0.05164938047528267, 0.006021272856742144], [-0.36094480752944946, 0.03833320736885071, 0.12415561825037003, 0.23428663611412048, -0.013057777658104897, 0.23113290965557098, -0.21326452493667603, -0.21580255031585693, 0.14723758399486542, -0.004460013005882502, -0.29444581270217896, -0.08264376223087311, 0.03320285305380821, -0.2206680178642273, -0.019588032737374306, -0.17289523780345917, -0.10888734459877014, -0.1607738882303238, -0.1553124636411667, 0.10356658697128296, 0.01879940927028656, -0.13995066285133362, -0.12852899730205536, -0.3210905194282532, 0.41408300399780273, -0.04895002394914627, 0.06109432876110077, -0.06882344186306, -0.06042560562491417, 0.11784413456916809, 0.03360168635845184, 0.0789482370018959], [0.1021043211221695, 0.1461329609155655, 0.06534237414598465, -0.34738802909851074, 0.1177188903093338, 0.07604242861270905, 0.05343746393918991, -0.27910393476486206, 0.2464679628610611, 0.03213995695114136, -0.01932414248585701, 0.15492753684520721, -0.41546085476875305, 0.021443841978907585, 0.040880803018808365, -0.08016337454319, 0.18018853664398193, 0.08132663369178772, 0.019980039447546005, 0.201194629073143, -0.379526823759079, -0.001019077841192484, -0.0853615254163742, -0.10960128158330917, -0.24921442568302155, 0.09549036622047424, -0.13453082740306854, 0.2225678712129593, -0.20705774426460266, -0.0013293721713125706, -0.09664516150951385, -0.21740156412124634], [-0.22694818675518036, -0.10670068114995956, 0.09665653109550476, 0.19413205981254578, -0.3086538016796112, -0.07076913118362427, 0.015384497120976448, -0.07533778250217438, -0.0522586889564991, 0.26145145297050476, -0.3495293855667114, 0.17012883722782135, 0.07761131227016449, 0.11737141013145447, 0.10703033953905106, -0.11676949262619019, 0.15086880326271057, 0.08660350739955902, 0.07967400550842285, 0.03662073239684105, -0.03378647565841675, -0.0438106432557106, 0.3102790415287018, 0.002500354778021574, 0.054758377373218536, 0.26748380064964294, 0.13333478569984436, -0.10186038911342621, 0.16316361725330353, -0.22112639248371124, -0.10971061885356903, -0.18314790725708008], [-0.08621235936880112, 0.1466686874628067, -0.07498105615377426, 0.12303336709737778, -0.11358357965946198, -0.14279942214488983, -0.024249961599707603, -0.11841181665658951, -0.0348401702940464, 0.08960817754268646, -0.00015388661995530128, 0.36720460653305054, 0.27552738785743713, 0.012139257043600082, 0.07895730435848236, -0.36158934235572815, -0.26007601618766785, -0.0506884902715683, 0.0459316223859787, -0.04061038792133331, -0.09912725538015366, 0.14218547940254211, -0.1375308334827423, 0.06119838356971741, 0.023662300780415535, 0.3281189501285553, -0.04157166928052902, -0.07223354279994965, -0.1580662578344345, -0.0020484370179474354, -0.44540244340896606, -0.04636150971055031], [0.06260355561971664, -0.14747841656208038, -0.023824114352464676, -0.1883428692817688, -0.02082185633480549, 0.1640925109386444, 0.29065442085266113, 0.11881852895021439, -0.10404793918132782, 0.5066478252410889, -0.04795457422733307, 0.08440372347831726, 0.10454367101192474, 0.17318306863307953, 0.03658108413219452, -0.06214528903365135, 0.19617703557014465, 0.2799779176712036, 0.04096779227256775, 0.47389405965805054, -0.32519298791885376, 0.18459908664226532, -0.1480254828929901, 0.18986406922340393, -0.12848585844039917, 0.23024606704711914, 0.016418281942605972, -0.016646765172481537, 0.28568920493125916, -0.03454155847430229, 0.13352860510349274, -0.024181123822927475], [0.014258071780204773, -0.01499650627374649, -0.027577009052038193, -0.18848736584186554, -0.09791029989719391, -0.12669913470745087, -0.1214730441570282, 0.05749955400824547, -0.014036454260349274, -0.1280336081981659, -0.16214658319950104, 0.13115929067134857, 0.18227262794971466, -0.010416356846690178, 0.2795834541320801, 0.0525263175368309, -0.031229062005877495, 0.3011960983276367, 0.04448790103197098, 0.16096772253513336, 0.11451014876365662, -0.12070558220148087, 0.13475504517555237, 0.016499806195497513, -0.10799480974674225, -0.027223780751228333, -0.3220261335372925, 0.28561002016067505, 0.06568378210067749, 0.020595600828528404, -0.26321539282798767, -0.06814263761043549], [-0.10209806263446808, -0.44900041818618774, 0.23968788981437683, -0.18462702631950378, 0.026232223957777023, 0.027388999238610268, -0.05806143954396248, -0.13827109336853027, -0.08378464728593826, -0.03845622017979622, -0.4423445165157318, 0.10255829989910126, -0.0120717016980052, -0.025382595136761665, -0.02498009242117405, 0.130288764834404, -0.08192456513643265, 0.04420459643006325, -0.18017630279064178, -0.07800351828336716, -0.24898450076580048, -0.014729121699929237, 0.1520736664533615, -0.2938220500946045, -0.16067281365394592, -0.041280362755060196, -0.17901985347270966, 0.08620071411132812, 0.12447775900363922, 0.12373405694961548, -0.06343193352222443, 0.14161355793476105], [0.031531885266304016, 0.16411226987838745, 0.20331352949142456, 0.09785452485084534, -0.02137674018740654, -0.09983056783676147, -0.28272372484207153, -0.1290624588727951, 0.0916772335767746, 0.45318180322647095, 0.16496454179286957, 0.2700306475162506, -0.4509730339050293, -0.08761189877986908, -0.021561836823821068, 0.3610150218009949, -0.022604919970035553, 0.059807807207107544, 0.2928573787212372, 0.2499496042728424, -0.27537602186203003, 0.05149085074663162, -0.03794845938682556, -0.2968284785747528, -0.2951604425907135, 0.12088191509246826, 0.2615354061126709, -0.16436026990413666, 0.07040836662054062, -0.005084190517663956, -0.10548455268144608, 0.305225133895874], [-0.1767282336950302, -0.044241804629564285, -0.14187957346439362, -0.17123720049858093, 0.12559594213962555, -0.11288751661777496, 0.04973505809903145, 0.013333914801478386, 0.0009566363878548145, -0.3010488450527191, 0.041248761117458344, -0.04078103229403496, 0.288981556892395, -0.1525355875492096, -0.0254536010324955, -0.026524215936660767, -0.39477676153182983, 0.0791858360171318, 0.28701701760292053, -0.1926814168691635, -0.02680077590048313, 0.04263004660606384, -0.08017425239086151, -0.22610026597976685, 0.1326642781496048, 0.08722254633903503, -0.17585904896259308, 0.060472793877124786, 0.07444877922534943, 0.04454512521624565, 0.30032604932785034, 0.12672363221645355], [0.11836985498666763, 0.05292030796408653, 0.13683250546455383, -0.15495310723781586, -0.05172549933195114, 0.37775662541389465, 0.01731245033442974, -0.07521198689937592, -0.13932201266288757, 0.2845292389392853, 0.19359353184700012, 0.09131333976984024, -0.1370454728603363, 0.17215430736541748, 0.10004056990146637, 0.08014911413192749, 0.09459812194108963, -0.19194403290748596, -0.13865771889686584, -0.15238194167613983, -0.02487095259130001, 0.39817777276039124, -0.06817004829645157, 0.002988012507557869, 0.14957231283187866, 0.09660260379314423, 0.00789475254714489, 0.21823030710220337, -0.3051082491874695, -0.4496890604496002, 0.08080672472715378, 0.16441985964775085], [-0.4301711618900299, -0.10740452259778976, 0.22282634675502777, -0.09273871779441833, -0.06512229144573212, -0.033531080931425095, -0.030886702239513397, 0.10475225746631622, -0.07545962184667587, 0.3330763578414917, -0.2963668406009674, 0.12319878488779068, -0.050511471927165985, 0.07411821186542511, -0.08265888690948486, -0.1915268748998642, 0.02186848223209381, 0.1354624181985855, -0.11160077154636383, 0.22025620937347412, -0.06176210939884186, 0.129805326461792, 0.13735716044902802, -0.2685295641422272, 0.04712055251002312, -0.19063729047775269, 0.006291360594332218, -0.15105149149894714, -0.015341048128902912, 0.13874445855617523, -0.35818564891815186, -0.12048236280679703], [0.08443678915500641, 0.1032596156001091, -0.11523450911045074, -0.17842434346675873, 0.28443291783332825, 0.19377921521663666, 0.021043958142399788, -0.06285183876752853, 0.23566262423992157, 0.03322398662567139, 0.07633274793624878, 0.01839093491435051, -0.03768276050686836, -0.08817538619041443, -0.015423191711306572, -0.3471620976924896, 0.07828816026449203, 0.11297839134931564, -0.07575232535600662, -0.009462100453674793, -0.06618042290210724, -0.32507482171058655, -0.0634394958615303, 0.06118738651275635, 0.07827485352754593, 0.02943618968129158, 0.0793800950050354, 0.06749413162469864, -0.11220085620880127, -0.16982980072498322, 0.0080005107447505, 0.027953682467341423], [0.01652434468269348, -0.03519180789589882, -0.15781556069850922, -0.11652194708585739, -0.00029461272060871124, -0.09739749878644943, 0.08076787739992142, -0.13769422471523285, 0.07739824801683426, -0.30437126755714417, 0.14174935221672058, 0.02353503927588463, -0.19548630714416504, 0.09634019434452057, -0.1643349826335907, -0.2548919916152954, 0.018314875662326813, -0.197493314743042, 0.16318070888519287, 0.08419680595397949, 0.07929320633411407, 0.15535032749176025, -0.11648373305797577, -0.23650899529457092, -0.11958304792642593, -0.06739817559719086, -0.06495554000139236, 0.25728991627693176, -0.25068721175193787, -0.4619789719581604, -0.060532573610544205, -0.02172795496881008], [-0.07746995985507965, -0.2572590112686157, 0.20546123385429382, 0.23184417188167572, 0.05157485976815224, 0.19535532593727112, -0.14959266781806946, -0.30071181058883667, -0.07681144773960114, 0.011135173961520195, -0.07742806524038315, 0.028361009433865547, -0.07318850606679916, -0.025427941232919693, -0.2688254117965698, -0.3150130808353424, 0.39910879731178284, -0.12618474662303925, -0.164324089884758, -0.06629691272974014, -0.056865982711315155, -0.42936840653419495, -0.019282102584838867, -0.011732000857591629, 0.1480257362127304, -0.16131527721881866, -0.1477026790380478, -0.08057133108377457, 0.11121299862861633, -0.1199166402220726, 0.10197681188583374, 0.32076364755630493], [-0.06847546994686127, 0.17760463058948517, 0.08979763090610504, -0.21263736486434937, -0.020143548026680946, -0.177055224776268, -0.16125129163265228, 0.01543488446623087, -0.16186046600341797, 0.03551524505019188, -0.23664472997188568, -0.015352427028119564, 0.08398448675870895, 0.20251408219337463, 0.08448614180088043, -0.32708027958869934, 0.16545075178146362, 0.13929763436317444, -0.1319129467010498, -0.1438157707452774, -0.1851309835910797, 0.24236005544662476, -0.028358332812786102, -0.10106352716684341, -0.2225799709558487, -0.028371915221214294, -0.14350993931293488, 0.206298366189003, -0.0794592797756195, -0.07446138560771942, -0.2468084990978241, -0.23949187994003296], [-0.16729964315891266, 0.09961806982755661, 0.012505573220551014, 0.14131325483322144, -0.07390240579843521, 0.1444794237613678, 0.05524848401546478, -0.05892333388328552, -0.24481922388076782, 0.30128487944602966, 0.2436649352312088, -0.19367389380931854, -0.24821867048740387, 0.08058091253042221, -0.1819247156381607, 0.27429330348968506, 0.08236666023731232, -0.4013179838657379, -0.16432435810565948, 0.3603033721446991, 0.047692425549030304, 0.07194512337446213, 0.07656516879796982, 0.1891448050737381, 0.19010348618030548, 0.036777764558792114, -0.24502819776535034, 0.08702918142080307, -0.1102074608206749, -0.24004796147346497, 0.08197510242462158, 0.06856785714626312], [0.3392944037914276, -0.0849342942237854, 0.1777798980474472, 0.029871607199311256, 0.08554737269878387, 0.5105156898498535, -0.011023206636309624, 0.16902472078800201, -0.0186779648065567, -0.02779024839401245, -0.13973861932754517, 0.02142401412129402, -0.1480613797903061, -0.00879235751926899, -0.08260932564735413, -0.05638007074594498, -0.04568051919341087, 0.23302477598190308, 0.17062051594257355, -0.12503087520599365, 0.07788071036338806, 0.03825497254729271, 0.023539282381534576, 0.018637899309396744, 0.08893705904483795, -0.32575809955596924, -0.16062787175178528, -0.06393714249134064, 0.05008682236075401, -0.12813885509967804, -0.10363993048667908, 0.01945880800485611], [-0.15264511108398438, 0.08176366984844208, -0.02227325178682804, -0.26234474778175354, 0.07197003811597824, 0.0801025852560997, -0.08042103052139282, 0.22779281437397003, -0.2931233048439026, 0.2469508945941925, 0.058111522346735, -0.18383736908435822, -0.06868801265954971, -0.09984306991100311, 0.01088322140276432, 0.03733821213245392, 0.24965086579322815, 0.2968149781227112, -0.062481414526700974, -0.13477639853954315, 0.1901065856218338, -0.002593531971797347, -0.05562165752053261, 0.1076391190290451, 0.029934076592326164, 0.0612914115190506, 0.05600142851471901, 0.08901406079530716, 0.223530575633049, 0.23631249368190765, 0.08399616926908493, -0.11913970112800598], [-0.022601278498768806, 0.057766105979681015, 0.08067627251148224, 0.06207803264260292, -0.1628635674715042, -0.12358701229095459, -0.04186680167913437, -0.12537629902362823, -0.12251154333353043, -0.09802882373332977, 0.1257038563489914, 0.19858157634735107, -0.41962072253227234, -0.13723105192184448, 0.1991938203573227, -0.06370191276073456, 0.0972943976521492, 0.0724853053689003, -0.16666829586029053, -0.20386666059494019, 0.05446772649884224, 0.2294592261314392, -0.0169987715780735, 0.06995819509029388, -0.20638002455234528, 0.16955693066120148, -0.02360437624156475, -0.3816410005092621, -0.18957290053367615, 0.03126320242881775, -0.13312281668186188, 0.07207363098859787], [-0.08086037635803223, -0.05858629569411278, 0.019206954166293144, -0.16292759776115417, -0.04532351344823837, 0.17984704673290253, -0.12072346359491348, -0.17432454228401184, -0.21445538103580475, -0.14328217506408691, 0.2330383062362671, -0.021474139764904976, -0.007890352047979832, 0.04594787210226059, 0.0892174169421196, -0.2591002285480499, 0.20312924683094025, 0.15298637747764587, -0.044749923050403595, -0.036204542964696884, 0.06800767034292221, 0.04113154485821724, 0.13439160585403442, 0.1354542225599289, 0.18958425521850586, 0.02499486319720745, 0.043003149330616, 0.01239657960832119, 0.13263674080371857, -0.370563805103302, -0.3125724494457245, -0.009929433465003967], [-0.14338041841983795, -0.09333183616399765, 0.12703153491020203, -0.21604107320308685, -0.19041958451271057, 0.07959722727537155, -0.04047183692455292, 0.13603614270687103, 0.19235311448574066, -0.12371832132339478, 0.04138217866420746, 0.07637841999530792, -0.10562729090452194, -0.011492357589304447, -0.107518270611763, 0.34972476959228516, -0.1391294300556183, 0.11619099974632263, -0.2149541676044464, -0.10929183661937714, -0.01262172032147646, 0.0817091315984726, -0.005860087927430868, -0.3062664270401001, -0.023301633074879646, 0.1199151799082756, -0.04991107061505318, 0.2341301292181015, 0.10103295743465424, 0.07353901118040085, -0.2723377048969269, -0.026645207777619362], [-0.08612103015184402, 0.3230838179588318, -0.26458224654197693, -0.003539287718012929, -0.22597059607505798, 0.038505349308252335, 0.005212363786995411, 0.03337474912405014, -0.3165839612483978, -0.01316966861486435, 0.025979192927479744, 0.12907667458057404, -0.3370762765407562, -0.06792309880256653, 0.11707624047994614, -0.1283406764268875, -0.036070164293050766, -0.2821381986141205, -0.2912428379058838, 0.14570258557796478, 0.16971980035305023, 0.007085672579705715, 0.03684411197900772, 0.036043647676706314, -0.4174325466156006, 0.0009014906827360392, 0.11834228038787842, 0.08061567693948746, 0.09651409089565277, -0.07437067478895187, -0.07573001086711884, -0.09777490049600601], [0.10206903517246246, 0.25214093923568726, 0.07136709243059158, 0.2848827540874481, 0.04708590358495712, -0.00987422838807106, 0.19727639853954315, -0.12162470072507858, 0.015251359902322292, -0.11389882117509842, -0.007650285959243774, 0.09687040001153946, -0.003835301846265793, -0.26274198293685913, -0.48680031299591064, -0.08760051429271698, -0.20173512399196625, -0.011610977351665497, 0.0524248369038105, 0.094015933573246, 0.27510663866996765, -0.13683268427848816, 0.1281903088092804, 0.3213277757167816, -0.22513769567012787, 0.038583312183618546, 0.24864226579666138, -0.2231251448392868, -0.09993702173233032, 0.37647250294685364, -0.39088672399520874, 0.002573515521362424], [-0.01779118739068508, -0.1503118872642517, -0.27317431569099426, -0.0392681248486042, 0.07338916510343552, -0.08978229016065598, 0.024643748998641968, -0.037930041551589966, 0.14536450803279877, -0.12264367938041687, 0.16407151520252228, 0.1414373368024826, -0.06839920580387115, -0.05544068664312363, -0.13803286850452423, -0.09214867651462555, 0.03800088167190552, 0.02108483389019966, -0.09662626683712006, -0.07873769104480743, -0.06737155467271805, -0.09171402454376221, 0.06602198630571365, -0.059808921068906784, 0.17800430953502655, -0.005487479269504547, -0.1443503051996231, 0.10684636980295181, 0.06039920821785927, -0.04824713617563248, -0.030939407646656036, -0.09838340431451797], [-0.11878952383995056, 0.27458861470222473, 0.3149077892303467, 0.021394381299614906, -0.2395242601633072, -0.059732869267463684, 0.04668409749865532, -0.06853864341974258, 0.23509471118450165, 0.22239989042282104, -0.27933669090270996, -0.20860303938388824, 0.18818242847919464, -0.0303061380982399, -0.03432203829288483, 0.11130107939243317, 0.0643051341176033, 0.2142656445503235, -0.10970310121774673, -0.10476451367139816, -0.364326536655426, -0.10464811325073242, -0.149893656373024, -0.04410645365715027, -0.025345847010612488, 0.13800737261772156, -0.03395870700478554, -0.0784236267209053, -0.42696648836135864, 0.11291440576314926, 0.1300373375415802, 0.0327158160507679], [-0.20079411566257477, -0.014289245940744877, -0.24117405712604523, -0.08733570575714111, -0.09202016890048981, -0.3049890995025635, 0.15178412199020386, 0.16753113269805908, 0.12916575372219086, -0.09066720306873322, 0.05723126232624054, 0.21587689220905304, 0.2046942114830017, 0.16687732934951782, -0.033051490783691406, -0.10111310333013535, 0.11278757452964783, -0.07098742574453354, 0.1831977814435959, 0.0947795882821083, -0.17401760816574097, 0.12240461260080338, -0.04180204123258591, 0.16038435697555542, 0.13202805817127228, -0.030234571546316147, -0.03186024725437164, 0.12588825821876526, 0.026905180886387825, -0.04637574777007103, -0.15654531121253967, 0.07679253816604614], [-0.2589363157749176, -0.09921823441982269, 0.1001882404088974, -0.11405086517333984, -0.19707854092121124, 0.07492416352033615, -0.10505969822406769, 0.09245774894952774, -0.010113870725035667, 0.18451164662837982, 0.11882901191711426, -0.1387014240026474, -0.1387270838022232, -0.06238867715001106, -0.013357552699744701, -0.05648622661828995, 0.047688018530607224, -0.11556950956583023, 0.04446806386113167, 0.18167877197265625, 0.3949993848800659, -0.10140347480773926, 0.26523923873901367, -0.23066723346710205, -0.05421198904514313, -0.4499102532863617, 0.13904406130313873, 0.10989625006914139, 0.15738484263420105, 0.18182538449764252, 0.18502949178218842, -0.34157440066337585]], "layers.0.attention.attn.in_proj_weight": [[0.05823937803506851, -0.17535479366779327, 0.04289236664772034, 0.013206792995333672, -0.21965119242668152, 0.13562244176864624, -0.07144734263420105, 0.18333815038204193, -0.22588352859020233, 0.04515298455953598, 0.07458528131246567, 0.029641442000865936, 0.022911686450242996, 0.17230050265789032, -0.03390547260642052, -0.09728995710611343, 0.20534281432628632, -0.10757013410329819, 0.17187047004699707, 0.16548512876033783, -0.1981874704360962, 0.07523612678050995, -0.0884694755077362, 0.09826692938804626, 0.1748514175415039, -0.01782861351966858, 0.06692841649055481, 0.1250661313533783, -0.1603539139032364, -0.1758614033460617, -0.06760194152593613, -0.0773044005036354], [0.09798547625541687, 0.14614897966384888, 0.018059302121400833, -0.22745196521282196, -0.17008021473884583, -0.19740456342697144, 0.10917890071868896, -0.21833796799182892, 0.19809608161449432, -0.1785443127155304, -0.08555696904659271, -0.08390459418296814, -0.02915824204683304, 0.05993221700191498, 0.009674089029431343, 0.06098790094256401, 0.18791931867599487, 0.05951438471674919, -0.22037860751152039, 0.03426886722445488, -0.09390353411436081, -0.1368429958820343, -0.178855761885643, -0.1919422745704651, -0.1271582990884781, -0.07188358902931213, 0.09333053976297379, -0.17244626581668854, -0.15124747157096863, 0.12953126430511475, 0.1091594249010086, 0.11527484655380249], [0.017790254205465317, 0.18916510045528412, -0.014673692174255848, 0.13896936178207397, -0.03555617853999138, 0.17277899384498596, -0.04947325587272644, -0.10326583683490753, -0.18849995732307434, -0.10835205763578415, 0.04131578654050827, -0.012457255274057388, 0.15490159392356873, 0.04995089769363403, -0.16265882551670074, -0.18554793298244476, -0.07773465663194656, -0.1219853088259697, -0.19567152857780457, -0.06727218627929688, -0.06765260547399521, -0.19066190719604492, -0.10641352087259293, 0.017122361809015274, -0.14324034750461578, -0.1790282428264618, 0.1040198802947998, 0.04928687959909439, 0.11347945034503937, -0.2006441056728363, 0.13954266905784607, -0.09578320384025574], [0.11119666695594788, -0.1449076235294342, 0.18881756067276, 0.13662895560264587, -0.16475091874599457, -0.11397521197795868, -0.041305482387542725, 0.08961931616067886, -0.01407381147146225, -0.18852010369300842, 0.0003176312893629074, 0.08865848183631897, 0.15176823735237122, 0.14095333218574524, 0.19936224818229675, -0.05553886666893959, 0.04589631408452988, -0.015842925757169724, -0.12523521482944489, -0.06420204788446426, -0.17276130616664886, -0.02178642898797989, -0.12489384412765503, -0.024781176820397377, -0.15914948284626007, -0.22050006687641144, 0.02099565789103508, -0.18018469214439392, -0.17436504364013672, 0.011561541818082333, 0.20893089473247528, 0.060948729515075684], [0.15756326913833618, -0.1719236820936203, -0.07356342673301697, 0.19217194616794586, -0.2170286923646927, -0.18172587454319, -0.05482151359319687, 0.09251738339662552, 0.1654767096042633, -0.17490258812904358, -0.2256423830986023, -0.20709463953971863, 0.19885797798633575, -0.20967277884483337, -0.11230118572711945, -0.14777815341949463, -0.05422867834568024, -0.2303556650876999, 0.18450725078582764, 0.09012561291456223, -0.14879021048545837, -0.05304192006587982, -0.0799727812409401, 0.012989670038223267, -0.05831940099596977, -0.09371289610862732, -0.167299285531044, -0.005789865739643574, 0.12083180993795395, 0.09262209385633469, -0.034380462020635605, 0.041381508111953735], [-0.15534989535808563, -0.0037460755556821823, -0.10266828536987305, 0.13631922006607056, 0.1901540607213974, -0.1548389196395874, -0.054488714784383774, -0.14185774326324463, -0.03703223541378975, 0.11907705664634705, -0.05974236875772476, -0.024050958454608917, 0.0345885306596756, 0.13955935835838318, -0.1804802417755127, 0.20830070972442627, 0.041224293410778046, -0.006014008074998856, 0.03629050403833389, 0.09610821306705475, 0.08539837598800659, -0.011914806440472603, 0.11239266395568848, -0.053798846900463104, -0.004870383068919182, 0.20392531156539917, 0.03788828104734421, -0.1454085409641266, -0.16393981873989105, 0.10538012534379959, -0.1816074252128601, -0.07978362590074539], [0.13505220413208008, 0.0077704633586108685, 0.0769956037402153, -0.05063996464014053, 0.04350634664297104, -0.12813793122768402, -0.1968177855014801, -0.1321224719285965, 0.040414586663246155, -0.1950623244047165, -0.13939233124256134, 0.17175856232643127, 0.04688376560807228, -0.05323415994644165, 0.006689590867608786, -0.14532367885112762, 0.14676988124847412, 0.05980762094259262, -0.10514221340417862, 0.18041034042835236, 0.1847372204065323, -0.10334242135286331, 0.13650323450565338, -0.07744327932596207, 0.1079045832157135, 0.21423526108264923, -0.072291798889637, 0.028961732983589172, -0.13499191403388977, 0.08410878479480743, 0.1942588984966278, 0.1244291216135025], [-0.20694400370121002, -0.17949756979942322, -0.07181040942668915, 0.04761669784784317, -0.19500724971294403, 0.07111558318138123, -0.1684855818748474, 0.06435270607471466, 0.16546232998371124, 0.19534461200237274, 0.024191956967115402, 0.033334940671920776, -0.23008733987808228, 0.1670714020729065, -0.13919633626937866, 0.22104527056217194, 0.19218777120113373, -0.12745623290538788, -0.09376475214958191, 0.03615758195519447, 0.0949949249625206, -0.18952390551567078, -0.08019835501909256, 0.07914681732654572, -0.18747106194496155, 0.16715794801712036, -0.15231306850910187, 0.06603232771158218, 0.046426042914390564, 0.03753867745399475, 0.1664266288280487, 0.010591516271233559], [0.2091902643442154, -0.19271516799926758, -0.14340366423130035, 0.22540061175823212, -0.10885294526815414, 0.15691687166690826, -0.2346087545156479, 0.2178582102060318, 0.1330323964357376, 0.18537497520446777, -0.11531250923871994, -0.1237194761633873, -0.10806293785572052, -0.12564577162265778, 0.005365646444261074, 0.1952662318944931, -0.047467779368162155, -0.14411769807338715, -0.14804083108901978, -0.16213643550872803, 0.014808835461735725, -0.21860434114933014, 0.08078080415725708, -0.021356113255023956, -0.1619972288608551, -0.06584414839744568, 0.18608930706977844, 0.01572858728468418, 0.1783176213502884, -0.21595235168933868, 0.19606050848960876, -0.10502894222736359], [0.03027915582060814, 0.213690847158432, 0.0278634000569582, 0.20119576156139374, 0.16241130232810974, 0.0784938782453537, 0.11960189789533615, 0.044414255768060684, 0.03751632571220398, -0.1300395429134369, 0.1966153383255005, -0.1987857222557068, 0.03609507530927658, 0.18728646636009216, -0.1132572665810585, 0.1953769326210022, 0.18854008615016937, -0.15554551780223846, 0.09985153377056122, 0.1995774358510971, 0.07083041965961456, -0.060803838074207306, -0.06855067610740662, -0.07435184717178345, 0.02555064484477043, 0.15321588516235352, -0.07110998034477234, -0.11700895428657532, -0.1035095602273941, 0.14488835632801056, 0.2298281341791153, -0.08216345310211182], [0.22923560440540314, -0.02879093773663044, -0.08408267796039581, 0.23410972952842712, 0.07636772096157074, 0.01943148300051689, 0.045548927038908005, 0.03006765805184841, -0.0821419283747673, 0.17483536899089813, -0.1103639230132103, 0.012393614277243614, 0.22290487587451935, 0.11497534066438675, 0.15931177139282227, -0.22676296532154083, -0.08201850950717926, 0.12106539309024811, 0.20381146669387817, -0.12307052314281464, 0.1621074080467224, 0.0016413982957601547, -0.14705069363117218, 0.17892864346504211, 0.0697879046201706, 0.14886820316314697, 0.006654774770140648, 0.10849174857139587, -0.19719170033931732, 0.07490045577287674, 0.11258802562952042, -0.14114397764205933], [-0.15745572745800018, -0.19349779188632965, 0.15475009381771088, -0.10558517277240753, 0.2191144973039627, -0.16012626886367798, 0.16097652912139893, 0.21532469987869263, -0.03064255230128765, -0.20916055142879486, 0.1577143669128418, 0.039964839816093445, -0.07904015481472015, 0.12204357981681824, -0.0465606190264225, 0.03519224748015404, -0.1185481920838356, 0.1884797215461731, -0.05810274928808212, 0.15372152626514435, -0.04776227846741676, 0.0986284539103508, 0.15433765947818756, -0.22267568111419678, 0.01759670302271843, -0.1303519904613495, 0.11241361498832703, 0.026757456362247467, -0.1213432103395462, -0.17340530455112457, -0.18451789021492004, 0.18547677993774414], [-0.19042962789535522, 0.20271115005016327, -0.04097553342580795, -0.13718543946743011, -0.059823039919137955, 0.11199890822172165, 0.1875351220369339, 0.19410300254821777, -0.22005757689476013, 0.1483551263809204, -0.10765738785266876, 0.07972831279039383, 0.13820898532867432, 0.12859231233596802, -0.09372928738594055, -0.1529868245124817, 0.11180529743432999, -0.20366686582565308, 0.024592168629169464, -0.1953309327363968, 0.11819928139448166, -0.1674250364303589, 0.14884275197982788, 0.06477342545986176, 0.21569624543190002, 0.1029810905456543, -0.11257713288068771, 0.04534398764371872, -0.04275486618280411, -0.061314117163419724, 0.15744824707508087, -0.008773652836680412], [0.007293492089956999, -0.04544282704591751, 0.027867071330547333, -0.06373462826013565, 0.14117611944675446, -0.02004864439368248, -0.034922823309898376, 0.1626104861497879, 0.2087552398443222, -0.01032956037670374, -0.18780726194381714, -0.03015095926821232, -0.0803053081035614, 0.0962151437997818, -0.1841234713792801, 0.16833209991455078, -0.07082099467515945, -0.14444184303283691, -0.08508185297250748, 0.14729715883731842, -0.0006261509843170643, -0.06132406368851662, -0.13459011912345886, -0.03764635697007179, -0.12194839119911194, 0.1861461102962494, -0.15454423427581787, -0.1789577603340149, -0.10476422309875488, -0.10418329387903214, 0.11503714323043823, 0.11210554093122482], [0.15265220403671265, 0.11179623752832413, 0.19084642827510834, 0.13943839073181152, 0.024304581806063652, 0.0024557365104556084, 0.15009747445583344, -0.12259269505739212, 0.17105111479759216, 0.054678354412317276, -0.03630048781633377, 0.12193907052278519, 0.02833041362464428, -0.1817939579486847, 0.06048453599214554, 0.04750526696443558, 0.1349220722913742, 0.13489776849746704, -0.19792762398719788, 0.1457519680261612, -0.13632117211818695, -0.12821558117866516, 0.08708260953426361, -0.07958928495645523, 0.07476712763309479, 0.17270784080028534, 0.01021803542971611, 0.1922740936279297, -0.0034127929247915745, -0.056154508143663406, 0.010636935010552406, -0.051259201020002365], [0.010549884289503098, 0.08957640826702118, -0.15580210089683533, 0.09905388951301575, -0.15364065766334534, -0.20837034285068512, -0.05562310665845871, -0.006510491948574781, -0.009088937193155289, -0.15046292543411255, -0.1597747951745987, 0.04988444969058037, 0.16652539372444153, -0.03249705582857132, 0.19771243631839752, -0.15417130291461945, -0.13027146458625793, -0.1135951429605484, -0.01909288391470909, -0.03844992443919182, -0.1278381645679474, 0.22159883379936218, 0.09185747057199478, 0.1578802764415741, 0.04784126579761505, -0.0742303803563118, -0.05363736301660538, 0.01886986568570137, -0.17290906608104706, 0.022300206124782562, 0.10160285234451294, -0.12054959684610367], [-0.12564468383789062, -0.12392506003379822, -0.191618874669075, -0.16195565462112427, 0.13620823621749878, 0.11028661578893661, 0.08877521753311157, 0.1750972419977188, -0.1405579149723053, 0.12027046084403992, -0.03489695489406586, -0.18660084903240204, 0.06107252836227417, 0.08333289623260498, -0.03926724195480347, -0.038690175861120224, 0.1963529735803604, 0.03718120977282524, 0.03205562010407448, -0.11765334010124207, -0.05037256330251694, 0.11473524570465088, 0.15887005627155304, -0.12288270890712738, -0.054274577647447586, 0.02053946815431118, 0.14826251566410065, 0.14381006360054016, -0.025541629642248154, 0.13029851019382477, 0.04285479336977005, -0.19158248603343964], [-0.0812840461730957, -0.1771029382944107, 0.1799146831035614, 0.15012899041175842, -0.056302253156900406, 0.20907601714134216, -0.07905586808919907, -0.06018054857850075, -0.10948044806718826, 0.20004555583000183, -0.1251242756843567, 0.09630466997623444, -0.18525069952011108, 0.006166130769997835, -0.11697480827569962, -0.08265074342489243, 0.019221749156713486, 0.14371104538440704, 0.1897536665201187, -0.12196095287799835, 0.08571349829435349, 0.018957829102873802, 0.21173229813575745, 0.20169544219970703, -0.17119479179382324, -0.18320070207118988, 0.1207277923822403, 0.16989712417125702, -0.139850914478302, 0.1504276841878891, 0.19752252101898193, 0.03127031773328781], [0.11671576648950577, -0.0014513288624584675, 0.07790923118591309, -0.16921702027320862, -0.05118146911263466, 0.13991746306419373, 0.04803498089313507, 0.14801399409770966, -0.15770328044891357, 0.13110899925231934, -0.18693484365940094, -0.10819239169359207, 0.13598677515983582, 0.0015663783997297287, -0.16944512724876404, -0.13392654061317444, 0.12817935645580292, -0.03121187351644039, -0.1600814014673233, 0.0932379737496376, 0.07914736121892929, 0.029873156920075417, -0.1952947974205017, -0.1373630315065384, 0.15504439175128937, -0.10954074561595917, 0.09777820855379105, -0.19978681206703186, -0.116136834025383, -0.05024714022874832, -0.05303868278861046, -0.2185419201850891], [0.18100416660308838, -0.09565338492393494, -0.12938812375068665, 0.10499223321676254, -0.10533010214567184, 0.12622469663619995, -0.09168027341365814, 0.2154979705810547, 0.16448555886745453, 0.11886079609394073, 0.10719059407711029, 0.14884397387504578, 0.16942188143730164, 0.1293439418077469, 0.16496849060058594, -0.08151043951511383, -0.12846435606479645, 0.17152813076972961, 0.016706358641386032, -0.12097901850938797, 0.10592955350875854, -0.10560010373592377, 0.09727174788713455, 0.03710382059216499, -0.12872014939785004, -0.15650616586208344, -0.2021234631538391, -0.12483761459589005, 0.049126166850328445, 0.03822508454322815, 0.045164670795202255, -0.13215795159339905], [0.1551080197095871, -0.04242970049381256, 0.001093406230211258, -0.19097347557544708, 0.0069192564114928246, -0.08385581523180008, 0.07729494571685791, 0.0778222382068634, -0.130044624209404, 0.13770565390586853, 0.08216225355863571, -0.16653481125831604, -0.1836361140012741, -0.12129729241132736, 0.08010771125555038, -0.10734204202890396, -0.04111779108643532, -0.07211574912071228, 0.06535965204238892, -0.19370846450328827, 0.027027662843465805, 0.13403868675231934, 0.08083939552307129, -0.2068309634923935, -0.013992574997246265, -0.23260048031806946, 0.19821453094482422, 0.14270606637001038, -0.14727666974067688, 0.10101968795061111, -0.14637738466262817, -0.193874329328537], [-0.10843726992607117, 0.12166602909564972, 0.18728986382484436, -0.02242717146873474, 0.09185367822647095, -0.08432059735059738, -0.19324661791324615, 0.18435414135456085, 0.10552351921796799, -0.09222283214330673, -0.1637759506702423, 0.1215381771326065, -0.16526122391223907, -0.13857440650463104, 0.0974116399884224, 0.15297318994998932, 0.21165330708026886, -0.0251535065472126, -0.09575086832046509, 0.045571405440568924, 0.0936649739742279, -0.04202297329902649, -0.06736592203378677, 0.010093744844198227, -0.03380930423736572, -0.04384012892842293, -0.12878382205963135, -0.20706798136234283, 0.22138947248458862, 0.14074580371379852, -0.038536615669727325, 0.08808735758066177], [-0.22626109421253204, -0.02389022707939148, -0.14399901032447815, 0.16704250872135162, -0.15171928703784943, -0.010108493268489838, 0.20557357370853424, 0.18312668800354004, -0.08988393843173981, -0.0702454075217247, 0.03224770724773407, 0.15464940667152405, 0.09166280180215836, 0.1822521686553955, 0.17124563455581665, -0.14624813199043274, -0.18727129697799683, -0.16402800381183624, 0.12230074405670166, -0.00629723584279418, 0.06362566351890564, -0.0437435507774353, -0.21455812454223633, 0.028129834681749344, 0.11929910629987717, 0.05388259515166283, 0.011269142851233482, 0.09722045809030533, -0.19000640511512756, -0.10801918059587479, -0.09865490347146988, -0.02505428157746792], [-0.14841638505458832, 0.1941661834716797, 0.16761387884616852, -0.1849285215139389, 0.11287947744131088, 0.08144115656614304, 0.20345492660999298, -0.0014675448182970285, 0.016562554985284805, 0.20879261195659637, 0.04511112719774246, 0.17596596479415894, 0.15274164080619812, 0.18729610741138458, -0.16799135506153107, 0.16960540413856506, -0.1567026972770691, -0.15562719106674194, -0.17901654541492462, 0.01967622898519039, -0.0820256769657135, 0.1893051415681839, 0.0723065510392189, 0.13203316926956177, 0.09747756272554398, -0.1036633774638176, 0.14407645165920258, -0.15078644454479218, -0.0005507180467247963, -0.0406523197889328, -0.08798762410879135, -0.12951740622520447], [-0.08283963054418564, -0.131392702460289, -0.01437649317085743, -0.08414500951766968, 0.20854327082633972, 0.16587726771831512, 0.08937333524227142, -0.0437481552362442, 0.15839537978172302, 0.1717153787612915, -0.006125002633780241, 0.17360617220401764, 0.11560937017202377, 0.04324093461036682, 0.14519421756267548, 0.1605088859796524, 0.1359480321407318, 0.014013181440532207, -0.18548016250133514, -0.1366143822669983, 0.1537657082080841, -0.10816176235675812, 0.04130416736006737, 0.009319582022726536, -0.1467999815940857, 0.19660818576812744, 0.18704421818256378, 0.13449406623840332, 0.14111341536045074, 0.0012920517474412918, -0.07849094271659851, 0.1165454089641571], [0.11259535700082779, -0.14930380880832672, -0.02955775149166584, -0.21307259798049927, -0.06253429502248764, -0.21440613269805908, 0.11617467552423477, 0.15972207486629486, -0.1273331642150879, -0.07092326879501343, -0.15727365016937256, 0.22619086503982544, 0.19851471483707428, -0.017690908163785934, -0.1738271713256836, 0.2138536274433136, -0.2104363888502121, 0.054104313254356384, -0.18773864209651947, -0.0021102000027894974, 0.13678127527236938, 0.006567178759723902, -0.02897106297314167, 0.08126125484704971, 0.08101629465818405, 0.07027342170476913, -0.0008266251534223557, -0.16892710328102112, -0.13384045660495758, -0.08430010080337524, -0.09917913377285004, -0.1845034807920456], [-0.09613807499408722, -0.04106748104095459, 0.012886409647762775, 0.13640856742858887, 0.18343451619148254, -0.01633714698255062, 0.021763073280453682, -0.06835505366325378, -0.12254612147808075, 0.1430869847536087, -0.23142790794372559, 0.08154463022947311, -0.11771386116743088, 0.1985970288515091, -0.133205845952034, -0.1964655965566635, 0.19087256491184235, 0.021942146122455597, -0.02768579125404358, 0.12342877686023712, 0.007939842529594898, 0.15759173035621643, -0.021947791799902916, 0.11868786066770554, -0.1676376312971115, -0.06436433643102646, -0.0033501507714390755, -0.09766045957803726, 0.10095852613449097, -0.04316049814224243, 0.1803033947944641, 0.10519995540380478], [0.02801256626844406, 0.12789803743362427, -0.08044472336769104, 0.09673185646533966, 0.186632439494133, -0.1374649554491043, 0.07322599738836288, -0.08592206984758377, -0.0674610584974289, -0.0029165521264076233, -0.14379777014255524, 0.08308691531419754, -0.16280589997768402, 0.037207767367362976, -0.2268090695142746, 0.047100380063056946, -0.13920605182647705, 0.10535671561956406, 0.13436296582221985, 0.23590806126594543, -0.0059332940727472305, -0.15982504189014435, -0.20474018156528473, 0.0760592445731163, -0.028369341045618057, -0.15067607164382935, -0.0012328745797276497, 0.16447168588638306, 0.1076219230890274, 0.16867098212242126, 0.19397619366645813, 0.01064729318022728], [0.18095749616622925, -0.055770691484212875, -0.045493967831134796, -0.16688750684261322, 0.005506535526365042, -0.00019066501408815384, -0.17729857563972473, -0.12262896448373795, 0.029829492792487144, 0.14183838665485382, 0.020924203097820282, -0.0014757616445422173, -0.040273722261190414, -0.17816270887851715, 0.11042489856481552, -0.110599085688591, -0.19026771187782288, -0.06881460547447205, 0.17651104927062988, 0.19197063148021698, 0.22482308745384216, 0.005186224356293678, -0.16202498972415924, 0.044499605894088745, -0.019249599426984787, 0.16322916746139526, -0.14799809455871582, -0.09282766282558441, -0.04986533150076866, 0.026922058314085007, 0.11371646821498871, 0.15385915338993073], [0.027282781898975372, 0.1463654637336731, 0.009404664859175682, -0.20743364095687866, -0.12512123584747314, 0.1169406846165657, 0.0707608312368393, 0.2208898514509201, 0.0121257733553648, -0.054476406425237656, -0.16028863191604614, 0.03626183420419693, 0.19992126524448395, -0.15597641468048096, -0.024601804092526436, 0.020631827414035797, 0.08881870657205582, 0.15350127220153809, 0.15836620330810547, -0.17792119085788727, -0.032749127596616745, 0.2043316662311554, 0.15351121127605438, -0.11051743477582932, 0.11250565201044083, -0.20783300697803497, 0.11694663017988205, 0.0210570078343153, -0.1952570080757141, 0.12100182473659515, -0.0019855420105159283, 0.030277909711003304], [-0.05972670763731003, 0.1696498543024063, 0.18810699880123138, 0.01903686299920082, -0.17672906816005707, 0.007377327885478735, 0.18348635733127594, -0.02929675206542015, 0.014529955573379993, 0.054456938058137894, -0.11242873966693878, 0.18358732759952545, -0.11154935508966446, -0.05437294393777847, -0.20540359616279602, 0.1868203729391098, 0.11633284389972687, 0.11816071718931198, -0.1298993080854416, 0.1518702208995819, 0.01805175468325615, -0.03058779239654541, -0.19633519649505615, 0.16399312019348145, 0.18637406826019287, -0.054080504924058914, -0.1396545171737671, -0.18752454221248627, 0.18215002119541168, 0.021465547382831573, -0.17375749349594116, -0.15807123482227325], [0.0750245749950409, -0.05392038822174072, -0.15709508955478668, -0.055702801793813705, -0.10125533491373062, 0.004610433708876371, -0.09383982419967651, -0.10008690506219864, -0.15863871574401855, -0.13178417086601257, 0.13120365142822266, -0.12837083637714386, -0.09523215144872665, -0.00220075948163867, 0.10460648685693741, 0.18844950199127197, -0.026027029380202293, 0.07553800195455551, -0.06505871564149857, -0.21865612268447876, -0.05006047710776329, -0.12928779423236847, 0.023436738178133965, 0.18017448484897614, -0.11088775843381882, 0.08820775896310806, -0.12821292877197266, 0.15428586304187775, 0.07921850681304932, -0.18148574233055115, 0.0726938396692276, -0.05757661536335945], [0.11676062643527985, -0.1086002066731453, -0.22984398901462555, -0.10782216489315033, 0.09851465374231339, 0.03273044899106026, -0.14365318417549133, -0.08236561715602875, -0.15795187652111053, -0.0015881555154919624, -0.019453464075922966, 0.011164597235620022, -0.006639687344431877, -0.008231266401708126, 0.125226691365242, -0.019299643114209175, -0.02305677719414234, 0.04099774733185768, 0.12130604684352875, 0.2089550495147705, 0.050503335893154144, 0.14936530590057373, 0.0697893500328064, 0.18943260610103607, 0.19078679382801056, -0.1993400752544403, -0.04661073908209801, -0.028658192604780197, -0.053531866520643234, 0.06650378555059433, 0.052251361310482025, -0.0857648104429245], [-0.17977164685726166, -0.17502816021442413, 0.0035384101793169975, 0.23325903713703156, 0.02071048878133297, -0.020051036030054092, 0.12727199494838715, -0.13379676640033722, -0.0001198924146592617, -0.089227095246315, -0.07079243659973145, 0.14414145052433014, -0.10039599239826202, -0.07479824125766754, 0.0837407335639, 0.1857907921075821, -0.05876258760690689, 0.15527962148189545, -0.12431588768959045, -0.16132919490337372, 0.1832432895898819, -0.018498100340366364, -0.0852944552898407, 0.020681796595454216, -0.18574772775173187, 0.08024787157773972, 0.08938901871442795, -0.0364205501973629, -0.017733478918671608, -0.05689787492156029, -0.1639987826347351, -0.040375228971242905], [-0.17691241204738617, 0.16630826890468597, 0.07673640549182892, -0.13410095870494843, 0.03944901376962662, 0.09286802262067795, 0.017039436846971512, -0.07359250634908676, -0.22644437849521637, -0.011908424086868763, -0.23228180408477783, 0.1319807469844818, -0.086151622235775, 0.19755713641643524, -0.2125723510980606, -0.1241578608751297, 0.09454149752855301, 0.0780026987195015, -0.11885210871696472, -0.13533541560173035, 0.14373432099819183, 0.1644289195537567, -0.17642970383167267, -0.020304057747125626, 0.09315633773803711, 0.13087117671966553, -0.05273266136646271, 0.1737859696149826, 0.11048761010169983, 0.07861636579036713, -0.16434063017368317, -0.05308345705270767], [0.027375157922506332, -0.0505107045173645, 0.12160298228263855, -0.13273446261882782, 0.05290237069129944, -0.23436737060546875, 0.049158211797475815, 0.1758849322795868, -0.03963913023471832, 0.04767272621393204, -0.16242729127407074, 0.1591522991657257, -0.10343127697706223, -0.13889458775520325, 0.0017119061667472124, -0.17778970301151276, -0.15756678581237793, -0.0985880121588707, -0.07478096336126328, 0.18004527688026428, 0.16429486870765686, 0.09432514011859894, -0.05631360411643982, -0.1131976842880249, -0.045732103288173676, 0.12699037790298462, 0.12186986207962036, -0.15209569036960602, 0.12002663314342499, 0.19251301884651184, -0.0799039676785469, 0.06475872546434402], [0.08580328524112701, 0.13342490792274475, -0.11760519444942474, -0.01662428490817547, 0.1778150349855423, 0.16111037135124207, -0.03265281766653061, -0.07276551425457001, -0.1623189002275467, 0.04756257310509682, -0.005708233453333378, -0.12266258150339127, -0.1803179681301117, 0.11996391415596008, -0.09762593358755112, 0.1755833625793457, 0.1858164668083191, 0.20970304310321808, -0.05315321683883667, 0.12143244594335556, 0.03255968913435936, -0.056654151529073715, 0.10593921691179276, -0.14851173758506775, -0.1701134741306305, 0.10808920860290527, -0.21094344556331635, 0.11736854910850525, -0.047590095549821854, -0.1010160744190216, 0.20437729358673096, 0.06823869049549103], [-0.18172533810138702, 0.16676999628543854, 0.036127619445323944, 0.2233811318874359, 0.14822085201740265, -0.23010055720806122, 0.0651116818189621, 0.07499725371599197, -0.003153122030198574, -0.18022090196609497, 0.08481340110301971, 0.0033136988058686256, -0.04153171181678772, -0.20135028660297394, 0.14756770431995392, -0.17582817375659943, 0.10389556735754013, 0.052406150847673416, 0.02444934844970703, -0.2075473517179489, 0.05724368989467621, 0.07856515049934387, -0.0868133157491684, 0.1623266339302063, 0.08847980946302414, 0.13957378268241882, 0.02558075077831745, -0.15029726922512054, 0.16878022253513336, -0.07866856455802917, 0.21088218688964844, -0.17199373245239258], [-0.06610241532325745, -0.2238355129957199, -0.03903684765100479, -0.0221414677798748, -0.1796969622373581, 0.10129797458648682, 0.17275887727737427, 0.028702612966299057, 0.07955911755561829, 0.021964218467473984, 0.10472367703914642, -0.05114416033029556, 0.16618195176124573, -0.029079481959342957, 0.19511832296848297, -0.029578890651464462, 0.17014175653457642, 0.19549892842769623, -0.049604352563619614, -0.11741036921739578, 0.005608849227428436, -0.11064677685499191, 0.015345003455877304, 0.08564743399620056, 0.031891848891973495, 0.18546424806118011, -0.0591239407658577, -0.21536070108413696, -0.06698834896087646, 0.14650805294513702, -0.19081707298755646, -0.22946971654891968], [-0.07477253675460815, -0.1943647414445877, -0.074252650141716, -0.07014569640159607, -0.14476172626018524, -0.16144946217536926, -0.018910212442278862, -0.04722411558032036, -0.05379243940114975, -0.11112631857395172, 0.026080718263983727, 0.02936285175383091, -0.06278815120458603, -0.15816468000411987, -0.13143393397331238, -0.14371052384376526, 0.059772200882434845, -0.13789618015289307, -0.16784578561782837, 0.09020284563302994, 0.18383076786994934, -0.14848168194293976, -0.09351799637079239, 0.21957489848136902, 0.11323825269937515, -0.048347849398851395, 0.14044289290905, 0.01029528770595789, 0.05108080059289932, -0.23097282648086548, 0.08634963631629944, 0.16508576273918152], [0.19103270769119263, -0.20994535088539124, -0.11816383898258209, 0.07415549457073212, 0.03036285936832428, -0.15293699502944946, -0.11052543669939041, 0.2327059805393219, -0.2089420109987259, -0.17626354098320007, -0.06144309043884277, 0.2093483954668045, -0.13912071287631989, -0.0026688287034630775, -0.054414380341768265, -0.04728817194700241, -0.05855105444788933, -0.07198841124773026, 0.1737547665834427, -0.03611086681485176, -0.22642430663108826, -0.03449777513742447, -0.03532915934920311, -0.032208506017923355, 0.007098396308720112, -0.1548900455236435, -0.10891730338335037, -0.20179502665996552, 0.01615702174603939, 0.027132291346788406, 0.15565787255764008, 0.1310572624206543], [-0.14090481400489807, -0.022891998291015625, 0.19711020588874817, -0.11249180138111115, -0.055491261184215546, 0.13874422013759613, 0.11897723376750946, -0.003761126659810543, -0.10265375673770905, -0.18417048454284668, -0.07411330938339233, 0.16607800126075745, 0.16976970434188843, 0.11813047528266907, 0.06821737438440323, 0.05014685541391373, -0.13893045485019684, 0.14710988104343414, -0.18944522738456726, 0.22806009650230408, -0.17798453569412231, 0.007040367927402258, 0.01583125814795494, -0.144031822681427, -0.21580301225185394, 0.15725187957286835, 0.11292324960231781, 0.16442903876304626, 0.09585206210613251, -0.09603394567966461, -0.21196186542510986, -0.02868073247373104], [-0.03307860344648361, 0.16939878463745117, 0.029537653550505638, 0.1341460943222046, 0.15659897029399872, 0.056590430438518524, 0.055602412670850754, 0.1732177734375, 0.21139857172966003, 0.21752309799194336, -0.02918858267366886, -0.17895129323005676, 0.11349077522754669, 0.024513913318514824, -0.19694003462791443, -0.06858076900243759, -0.1898687183856964, -0.1485440582036972, 0.0040528010576963425, -0.031677789986133575, -0.15164592862129211, -0.18232689797878265, -0.19496914744377136, -0.18929733335971832, -0.12986676394939423, 0.052731338888406754, 0.011479092761874199, -0.09377248585224152, -0.02601735293865204, 0.18517957627773285, 0.09670229256153107, 0.1655268520116806], [0.03081447258591652, 0.030484598129987717, -0.16346077620983124, -0.03398362174630165, 0.14374226331710815, 0.06513086706399918, 0.16057729721069336, -0.07304447144269943, -0.09872153401374817, -0.061295583844184875, -0.04057246819138527, 0.022467922419309616, -0.04207327961921692, 0.05912650004029274, 0.040995530784130096, -0.11146457493305206, 0.22222182154655457, 0.028637360781431198, -0.12019360065460205, 0.13696923851966858, 0.10455772280693054, 0.16002565622329712, -0.02206844463944435, 0.050319503992795944, -0.18563207983970642, 0.10948075354099274, -0.05643116682767868, 0.16457775235176086, 0.21860012412071228, -0.1791633814573288, -0.18389755487442017, 0.047079503536224365], [-0.12734267115592957, 0.0822715312242508, 0.10745284706354141, -0.19287091493606567, 0.18542473018169403, 0.2234511524438858, 0.036045607179403305, 0.14926008880138397, 0.15311987698078156, -0.008579599671065807, 0.026670966297388077, -0.10205238312482834, 0.15887753665447235, 0.002888212911784649, -0.18631070852279663, -0.20590271055698395, 0.06201454997062683, 0.05115366727113724, -0.01614028587937355, 0.20422813296318054, 0.005711904726922512, -0.09473079442977905, -0.18830649554729462, -0.06189467012882233, -0.1443651169538498, -0.19102482497692108, -0.21718141436576843, -0.21198949217796326, -0.0650976300239563, -0.19980785250663757, -0.14316408336162567, 0.046626292169094086], [-0.09534457325935364, 0.17459717392921448, -0.14779306948184967, 0.016503803431987762, -0.07307477295398712, -0.09147511422634125, 0.20028257369995117, -0.10673800110816956, 0.14055389165878296, -0.15713518857955933, 0.06018988415598869, -0.0914526879787445, -0.045379072427749634, 0.16704276204109192, 0.13322973251342773, 0.02100391685962677, 0.21437934041023254, 0.17242489755153656, 0.10959448665380478, -0.09871705621480942, 0.06078098714351654, -0.07610810548067093, 0.14062921702861786, -0.134964257478714, 0.11250180751085281, -0.173924520611763, -0.04033174365758896, -5.124881863594055e-05, -0.17622721195220947, -0.1433095782995224, 0.05001281574368477, -0.15689973533153534], [-0.18230558931827545, -0.01974644884467125, -0.13327370584011078, -0.1721622794866562, -0.17470525205135345, 0.019876427948474884, -0.1478566974401474, 0.0990842655301094, -0.14973235130310059, -0.005485669709742069, 0.05778209865093231, 0.16283392906188965, -0.08975403010845184, -0.17247481644153595, -0.048885732889175415, 0.006544743664562702, 0.08827614039182663, 0.03751339018344879, -0.017634741961956024, -0.16368378698825836, 0.16078495979309082, 0.04070241376757622, -0.05772892385721207, -0.1467040777206421, -0.043954648077487946, 0.12543873488903046, 0.1337016373872757, -0.022450748831033707, -0.20861004292964935, -0.04991237819194794, 0.07142716646194458, -0.14189845323562622], [0.17659427225589752, 0.16861878335475922, 0.008721338585019112, -0.16515381634235382, 0.17092876136302948, -0.1358252763748169, 0.10003456473350525, -0.1649406999349594, 0.11761041730642319, 0.08384346961975098, 0.03790896758437157, 0.006994103081524372, -0.1855957806110382, -0.08636312931776047, 0.05616848170757294, -0.121913380920887, 0.19223178923130035, -0.09280961751937866, -0.12258797138929367, 0.08936487883329391, 0.07177910208702087, -0.18574461340904236, 0.004164882004261017, 0.0942208543419838, 0.14741908013820648, 0.19775483012199402, -0.14199663698673248, -0.07694767415523529, 0.028175223618745804, -0.16853904724121094, -0.12431015819311142, -0.039739277213811874], [0.1326766163110733, -0.16016432642936707, -0.07429710030555725, 0.009380252100527287, -0.08113665878772736, -0.01287079881876707, 0.12894292175769806, 0.12462856620550156, 0.005636312998831272, -0.045030925422906876, -0.16709385812282562, 0.0010038111358880997, 0.1885920763015747, -0.046422988176345825, -0.0517837256193161, -0.21429593861103058, 0.1311127096414566, 0.09359525144100189, -0.03055056743323803, 0.16262535750865936, 0.20944958925247192, 0.05919928848743439, 0.13294440507888794, 0.026741567999124527, -0.03612998500466347, -0.10692337155342102, -0.11887624859809875, 0.045265402644872665, 0.2071114480495453, -0.18375740945339203, 0.13449180126190186, -0.06998025625944138], [0.0367739163339138, 0.13383972644805908, 0.0015609785914421082, -0.08766044676303864, 0.013727258890867233, 0.17697571218013763, -0.08508715033531189, -0.03371816873550415, 0.10097448527812958, -0.2251814603805542, 0.14158174395561218, 0.18926067650318146, 0.14712195098400116, 0.08890542387962341, 0.12000206112861633, -0.2350759655237198, -0.10308801382780075, -0.14554056525230408, -0.12925347685813904, 0.19669556617736816, -0.12293396890163422, -0.014717621728777885, 0.009683708660304546, -0.16899098455905914, 0.04701601341366768, -0.1333473026752472, 0.0663987323641777, -0.13526372611522675, -0.1991444230079651, 0.07525064796209335, -0.020766763016581535, 0.05706354230642319], [0.07320089638233185, 0.15044596791267395, 0.21078912913799286, 0.10596689581871033, 0.09215536713600159, 0.17422594130039215, 0.1709441989660263, 0.16711090505123138, 0.03603639081120491, 0.2354068011045456, -0.10381904244422913, 0.14874377846717834, 0.010120294988155365, 0.21427831053733826, 0.08558278530836105, 0.16685977578163147, 0.14193715155124664, 0.15540409088134766, 0.16206814348697662, -0.18211744725704193, -0.07358762621879578, 0.11666714400053024, -0.14438234269618988, 0.21904303133487701, 0.17758765816688538, -0.0411323644220829, 0.1915206015110016, -0.10938974469900131, 0.055059101432561874, 0.01969021186232567, 0.017138058319687843, 0.11176656931638718], [-0.20020657777786255, -0.00787782110273838, 0.04947787523269653, -0.0023892084136605263, 0.006473137065768242, -0.13524389266967773, -0.13132987916469574, -0.12012246251106262, 0.18534132838249207, 0.06906012445688248, -0.09684315323829651, -0.1642371416091919, 0.02743193507194519, 0.16818402707576752, 0.1311490684747696, -0.14240948855876923, 0.01268698275089264, -0.13307106494903564, -0.06388571858406067, -0.1538006067276001, -0.024825124070048332, -0.1207958236336708, 0.058428652584552765, 0.13771399855613708, -0.22510910034179688, 0.0842939168214798, 0.06855924427509308, -0.22803378105163574, 0.16089153289794922, 0.05546905845403671, -0.07697204500436783, 0.21551474928855896], [0.06806036829948425, -0.06507328152656555, 0.14175355434417725, 0.14934812486171722, -0.07541707903146744, 0.21689262986183167, -0.13500399887561798, -0.12420342117547989, 0.04662112519145012, 0.16105033457279205, -0.13042111694812775, 0.11894398182630539, 0.0805986151099205, -0.016334593296051025, -0.025486238300800323, 0.11371806263923645, 0.11568988859653473, 0.07585951685905457, -0.11629271507263184, -0.05901411175727844, 0.16260740160942078, -0.0353931225836277, -0.03849949687719345, 0.08144153654575348, -0.11525693535804749, -0.15687617659568787, -0.03231276571750641, 0.1880895346403122, -0.1998765766620636, -0.10453014820814133, -0.019356153905391693, -0.03165816143155098], [-0.2039501965045929, 0.17800843715667725, 0.033805422484874725, 0.19284914433956146, 0.10297095030546188, 0.04022951051592827, 0.039961591362953186, -0.22228609025478363, -0.03876426815986633, -0.07757032662630081, -0.17273877561092377, -0.01945330575108528, -0.1793542504310608, 0.07705959677696228, 0.2268897294998169, 0.1159389466047287, 0.16070052981376648, -0.05585606023669243, -0.019617920741438866, 0.07195054739713669, 0.21334634721279144, -0.02180517092347145, -0.09182342886924744, -0.12047304958105087, -0.11346088349819183, -0.1006133034825325, -0.14383946359157562, 0.010164698585867882, 0.029187435284256935, 0.04564214497804642, 0.11081293970346451, -0.04828418046236038], [0.09502489119768143, 0.1287628412246704, -0.18433311581611633, 0.016173914074897766, -0.18212547898292542, -0.19860002398490906, 0.01978287845849991, 0.22295598685741425, -0.1421680599451065, 0.11013514548540115, -0.023415138944983482, -0.05777720361948013, 0.097591333091259, 0.03250693157315254, -0.132793590426445, 0.22436223924160004, -0.07322817295789719, -0.16463835537433624, 0.01638820953667164, 0.19558903574943542, -0.1012614518404007, -0.20859096944332123, 0.18311908841133118, 0.19559723138809204, -0.1784677952528, -0.03262023255228996, 0.07445985823869705, -0.21173195540905, 0.17808888852596283, 0.18309661746025085, -0.0670824944972992, 0.10864753276109695], [-0.19964714348316193, 0.12994472682476044, 0.19175788760185242, -0.12836118042469025, -0.010112116113305092, 0.039038654416799545, -0.009615423157811165, 0.11042830348014832, 0.189736008644104, 0.028070636093616486, 0.21640343964099884, 0.053304314613342285, -0.15176503360271454, 0.0616653747856617, 0.17150604724884033, 0.19168147444725037, -0.1196766123175621, 0.008971543051302433, 0.04009180888533592, -0.11413024365901947, -0.20107921957969666, -0.051538921892642975, -0.20150324702262878, -0.0708947479724884, 0.06526046991348267, -0.1811092644929886, 0.0020488379523158073, -0.08410700410604477, 0.15154501795768738, 0.2305675446987152, 0.03135637193918228, -0.15761920809745789], [0.003685911186039448, 0.1523943543434143, -0.1923981010913849, 0.0697324201464653, 0.04586693271994591, -0.02887999825179577, 0.22036686539649963, -0.020688557997345924, 0.029798338189721107, 0.20020128786563873, 0.0478934682905674, -0.14842361211776733, -0.08807113766670227, -0.17422500252723694, -0.03102624975144863, 0.17041300237178802, 0.19027699530124664, 0.16098599135875702, -0.005090359598398209, -0.12355391681194305, 0.03434289991855621, 0.14656966924667358, 0.0556628555059433, 0.12354733794927597, -0.03578442335128784, 0.07418439537286758, -0.19307978451251984, -0.11662932485342026, 0.04396400228142738, -0.14340108633041382, -0.1330702155828476, -0.1269708126783371], [0.09922314435243607, 0.1682404726743698, 0.015421451069414616, 0.04394567012786865, -0.034293413162231445, -0.2034294456243515, 0.046818844974040985, -0.03888754919171333, 0.016837630420923233, -0.1157432273030281, -0.15349449217319489, -0.0369858555495739, 0.18055030703544617, -0.14309240877628326, -0.04938167333602905, -0.21079760789871216, 0.19349098205566406, 0.15073063969612122, -0.08028918504714966, 0.14186275005340576, 0.19604617357254028, 0.21341437101364136, 0.174331396818161, -0.04954750835895538, -0.08771489560604095, -0.01990116946399212, -0.004815464839339256, 0.015540774911642075, 0.22667385637760162, 0.011604391038417816, 0.04572803154587746, 0.09003249555826187], [-0.06920326501131058, -0.10952883213758469, 0.12011115252971649, -0.14443331956863403, 0.13784681260585785, -0.21957893669605255, -0.09602348506450653, -0.12450040876865387, -0.02616512030363083, -0.1667506843805313, -0.04687189683318138, -0.12253617495298386, 0.20264029502868652, -0.15644779801368713, 0.01068933680653572, -0.07174625247716904, -0.04790467396378517, -0.05190964788198471, 0.12505532801151276, -0.027784081175923347, 0.02140229009091854, 0.15980353951454163, -0.07713136076927185, -0.07207845151424408, 0.14475971460342407, 0.05978552624583244, -0.14926454424858093, -0.17178207635879517, -0.0017223276663571596, 0.08079290390014648, -0.19883954524993896, 0.059511199593544006], [0.19915080070495605, -0.10108248889446259, -0.09512639045715332, -0.11415325105190277, 0.02525719255208969, 0.10712234675884247, 0.22201888263225555, -0.06367406249046326, 0.1991387903690338, -0.011558834463357925, 0.1874295473098755, 0.1544167548418045, -0.04335605353116989, 0.009574951604008675, 0.22147472202777863, -0.19325938820838928, 0.20392751693725586, -0.22315019369125366, -0.08027219772338867, -0.01623624563217163, 0.08461862057447433, -0.19911342859268188, 0.18483632802963257, -0.039629578590393066, -0.1451343297958374, -0.07485074549913406, -0.14311203360557556, -0.07733211666345596, -0.05913761258125305, 0.023471780121326447, -0.05660445615649223, 0.1796553134918213], [0.11151312291622162, 0.12601546943187714, -0.08832521736621857, 0.1689760982990265, -0.11785295605659485, 0.15241402387619019, -0.08141537755727768, -0.08179951459169388, 0.0526922307908535, 0.1852814108133316, -0.1373337060213089, 0.06631698459386826, -0.007511155679821968, -0.1747151017189026, -0.18076810240745544, -0.21514295041561127, -0.1002700924873352, 0.19660775363445282, 0.17257174849510193, 0.007722761947661638, -0.19068291783332825, 0.0689491480588913, -0.20240356028079987, -0.17341674864292145, -0.15446369349956512, -0.21300479769706726, -0.15630510449409485, -0.14200353622436523, -0.09334094822406769, 0.04313553869724274, 0.04573635756969452, -0.04032992944121361], [-0.1728946715593338, 0.07462290674448013, 0.20083306729793549, 0.19190114736557007, 0.09628099203109741, -0.0701291412115097, 0.14285598695278168, 0.1250554472208023, 0.03558610752224922, 0.03532532975077629, -0.02034582570195198, -0.06506132334470749, 0.0411081537604332, -0.06332513689994812, 0.08384358882904053, -0.21733379364013672, -0.0025596031919121742, 0.15558317303657532, -0.1597924530506134, 0.003781513310968876, -0.11782781034708023, 0.07942990213632584, 0.04587914049625397, 0.19951131939888, 0.14915527403354645, -0.06993924081325531, 0.025940917432308197, -0.1251693069934845, -0.1843569278717041, 0.05802207067608833, -0.15730349719524384, -0.013208671472966671], [-0.004725501406937838, 0.13049717247486115, -0.14586932957172394, -0.18346500396728516, -0.16964927315711975, -0.024349110201001167, -0.0035708053037524223, -0.06614107638597488, 0.16867734491825104, -0.019387396052479744, 0.048072449862957, 0.09573596715927124, -0.17640772461891174, 0.12771108746528625, -0.18739400804042816, -0.11930427700281143, 0.11440249532461166, 0.16678158938884735, -0.11952479183673859, -0.1794765144586563, -0.03741772845387459, 0.1942419558763504, -0.08327621221542358, 0.09558870643377304, 0.026637002825737, 0.140536829829216, 0.19093383848667145, 0.05361265689134598, -0.19547264277935028, 0.13031235337257385, -0.12283597886562347, -0.034989792853593826], [-0.08141575008630753, -0.20121517777442932, 0.05637713149189949, 0.11566141992807388, -0.09390818327665329, 0.19187891483306885, -0.017093127593398094, 0.18084681034088135, -0.18901760876178741, 0.14300160109996796, -0.034272100776433945, 0.03646141663193703, 0.11944730579853058, 0.06503838300704956, 0.062395013868808746, 0.09219950437545776, -0.13126817345619202, -0.16992686688899994, -0.05579165741801262, 0.031181931495666504, 0.12947241961956024, -0.11640603840351105, -0.009486723691225052, 0.20064252614974976, -0.036553770303726196, -0.17239081859588623, 0.12774288654327393, 0.022634349763393402, -0.09462438523769379, -0.03200021758675575, 0.15249064564704895, -0.08181118965148926], [0.2337338775396347, -0.08268047124147415, 0.14631637930870056, -0.11725393682718277, 0.17479349672794342, 0.2061302661895752, 0.0927506536245346, 0.1539279669523239, 0.016652926802635193, -0.02742719277739525, -0.10732991248369217, -0.22487744688987732, -0.18876589834690094, -0.08686289936304092, -0.11126124113798141, 0.03428621217608452, 0.18505357205867767, -0.054425198584795, 0.052125465124845505, 0.040624916553497314, -0.014407509006559849, 0.13244189321994781, -0.16885647177696228, -0.036734215915203094, -0.1322343647480011, -0.10152390599250793, -0.04971560835838318, 0.17442944645881653, -0.1815768927335739, -0.007029300555586815, 0.0412917360663414, 0.1392187476158142], [-0.08365346491336823, 0.05488383769989014, 0.0926055759191513, 0.08802254498004913, -0.1808588206768036, 0.07123338431119919, -0.13510343432426453, -0.03545599803328514, 0.07937897741794586, 0.019581135362386703, -0.12040042132139206, 0.15027940273284912, 0.1025794968008995, -0.17003491520881653, 0.1874457597732544, -0.12058182060718536, 0.00974201038479805, -0.1770862638950348, 0.20880234241485596, -0.17928050458431244, 0.042153630405664444, 0.017330434173345566, -0.200666144490242, 0.09631934016942978, -0.0009954078122973442, 0.18628953397274017, -0.054591916501522064, 0.08683408796787262, -0.1845376193523407, -0.06647022813558578, -0.07355404645204544, 0.03761907294392586], [0.01115964911878109, -0.0756889060139656, 0.11847614496946335, -0.12862464785575867, -0.07886897027492523, 0.035766854882240295, -0.003532079979777336, 0.11879083514213562, 0.08088011294603348, -0.047382231801748276, 0.06332755088806152, -0.19337043166160583, 0.09658127278089523, -0.0006958842277526855, -0.13423936069011688, -0.17653308808803558, -0.20469576120376587, -0.16463209688663483, -0.12191632390022278, -0.15457050502300262, 0.18061012029647827, 0.038749970495700836, 0.018415015190839767, -0.025782184675335884, -0.0419788733124733, -0.11515636742115021, 0.1693422496318817, -0.12484488636255264, -0.21008837223052979, 0.0865316316485405, 0.1241852194070816, 0.07366154342889786], [-0.09476659446954727, -0.07190178334712982, -0.02117053046822548, -0.11355866491794586, 0.08789362758398056, -0.10457608848810196, -0.11966891586780548, 0.10484783351421356, 0.1328551173210144, 0.187954381108284, -0.07589294761419296, -0.053254950791597366, -0.03194848820567131, -0.06925351172685623, -0.08737881481647491, 0.12660014629364014, -0.07971464097499847, 0.12517228722572327, 0.18132109940052032, -0.15319648385047913, 0.12864965200424194, 0.10698617994785309, 0.1241183876991272, 0.11548031121492386, 0.08568228781223297, 0.13050641119480133, -0.07867659628391266, -0.11656525731086731, 0.04549406096339226, 0.19766457378864288, 0.044105712324380875, 0.13801336288452148], [-0.18703708052635193, -0.14082515239715576, 0.028804395347833633, 0.02525492198765278, 0.20783740282058716, 0.16176198422908783, -0.1626589298248291, 0.2228144109249115, -0.1652662754058838, 0.08468194305896759, -0.16663144528865814, -0.011475697159767151, 0.09222365915775299, -0.0481315515935421, 0.08774417638778687, 0.07605022937059402, -0.005909386090934277, -0.11389828473329544, 0.042297519743442535, 0.041871268302202225, -0.12461811304092407, -0.09260492026805878, -0.08971474319696426, -0.01390765979886055, 0.2106349617242813, 0.1771831214427948, -0.10105492919683456, -0.08804161101579666, -0.18894115090370178, -0.12100259214639664, 0.03725666552782059, 0.14687156677246094], [-0.06932094693183899, 0.10862908512353897, 0.060061510652303696, 0.12044212222099304, 0.05329544469714165, 0.13793744146823883, -0.09275080263614655, 0.045090023428201675, 0.07533645629882812, -0.05443451553583145, -0.015490375459194183, -0.11918627470731735, 0.028927968814969063, -0.08594313263893127, -0.010879640467464924, -0.0928078293800354, 0.014242223463952541, -0.14945732057094574, -0.1861303448677063, 0.004152393434196711, 0.156354621052742, -0.1980161964893341, 0.03264191001653671, 0.07748778164386749, 0.04558092728257179, -0.009856346994638443, -0.13782748579978943, -0.05983612686395645, -0.19826874136924744, 0.18659456074237823, 0.12807050347328186, -0.02802261710166931], [-0.19655753672122955, -0.11210127174854279, 0.1262664496898651, 0.16201847791671753, 0.07705311477184296, 0.018250370398163795, 0.14214131236076355, 0.1566944122314453, -0.2277166098356247, 0.03621365875005722, 0.21239233016967773, 0.14888693392276764, 0.028153350576758385, -0.10499891638755798, 0.13005788624286652, -0.12967093288898468, -0.1522562950849533, 0.020618639886379242, 0.07387698441743851, 0.011933957226574421, -0.18338307738304138, -0.08279579132795334, -0.011375021189451218, -0.22939831018447876, -0.08111446350812912, 0.17592839896678925, -0.023192066699266434, 0.08765454590320587, -0.04715611785650253, 0.01791883073747158, -0.07296918332576752, -0.05417022854089737], [-0.022960815578699112, 0.1029716283082962, 0.003586377017199993, 0.010715402662754059, -0.09786728769540787, -0.06840941309928894, 0.1740911602973938, -0.19122564792633057, -0.21121758222579956, 0.04040387272834778, -0.10864925384521484, -0.007122194394469261, 0.10945910960435867, -0.15580910444259644, 0.054915398359298706, 0.16855470836162567, -0.18628372251987457, 0.06332549452781677, -0.1030491292476654, -0.19783057272434235, 0.2300376296043396, -0.013330889865756035, -0.17888322472572327, 0.010438116267323494, 0.14245399832725525, 0.15919847786426544, 0.147773876786232, -0.11390762031078339, -0.13208258152008057, 0.11536702513694763, 0.04591907560825348, -0.203717902302742], [0.13800370693206787, 0.09284058958292007, 0.10974667221307755, -0.10493778437376022, 0.01421723235398531, -0.17757262289524078, -0.1847301423549652, 0.10191929340362549, 0.07834494858980179, 0.08522859215736389, 0.20690378546714783, 0.19136036932468414, 0.13475772738456726, -0.23339003324508667, 0.09983006864786148, 0.032537493854761124, 0.038054484874010086, -0.10579996556043625, 0.003483421169221401, 0.19179999828338623, -0.02860189788043499, -0.1888761818408966, 0.17063502967357635, -0.10515990108251572, -0.15474259853363037, -0.21134662628173828, -0.14707213640213013, -0.000598641112446785, 0.21605822443962097, 0.18004991114139557, -0.06789949536323547, 0.14174193143844604], [0.0967879518866539, 0.061251915991306305, 0.003103763796389103, -0.10640773922204971, -0.20051519572734833, 0.18866299092769623, 0.08450286090373993, -0.12313081324100494, 0.2288713902235031, 0.22590255737304688, 0.06842482835054398, 0.1471739411354065, 0.01887308806180954, 0.009740667417645454, 0.10666345059871674, -0.15778081119060516, -0.20685774087905884, -0.1732151210308075, -0.012703039683401585, 0.01763087883591652, -0.0880054160952568, 0.036589495837688446, 0.1250322163105011, 0.18605312705039978, 0.06519762426614761, -0.1007610559463501, -0.18128658831119537, 0.04868842661380768, 0.05004112794995308, -0.19793929159641266, 0.15853023529052734, -0.06549400836229324], [-0.09606919437646866, -0.09079474210739136, 0.038059353828430176, 0.2288241684436798, -0.11234269291162491, 0.09262412786483765, 0.14002671837806702, 0.0018882383592426777, -0.21250958740711212, -0.17125484347343445, 0.1576503962278366, -0.06300320476293564, -0.04502419754862785, -0.17749528586864471, 0.011020994745194912, 0.1513722538948059, 0.19030064344406128, -0.1778644323348999, 0.11590106785297394, -0.1133473590016365, -0.003977735061198473, -0.2086196392774582, -0.07096337527036667, -0.16818267107009888, -0.020367952063679695, 0.13043470680713654, 0.1167028471827507, -0.05856933444738388, -0.12072248756885529, -0.15491896867752075, 0.12259602546691895, -0.11802193522453308], [0.13518927991390228, -0.13086722791194916, -0.016693899407982826, 0.2202513962984085, 0.1283751130104065, -0.050056733191013336, 0.14380894601345062, 0.21121004223823547, 0.046014077961444855, 0.04451683163642883, -0.19237898290157318, -0.16249090433120728, 0.03420308232307434, 0.0904400646686554, 0.014604167081415653, 0.14724195003509521, 0.18896186351776123, 0.1978469043970108, -0.14552351832389832, -0.007117869332432747, -0.1916278898715973, 0.1211915910243988, -0.0848127231001854, 0.1931697279214859, 0.12390407174825668, -0.13324138522148132, 0.07438516616821289, 0.19779811799526215, 0.027053507044911385, 0.17043562233448029, -0.11161467432975769, 0.09197159856557846], [-0.012933872640132904, -0.14359581470489502, -0.12102232873439789, -0.06762703508138657, -0.004970930516719818, 0.22435499727725983, -0.1863461583852768, -0.07091584801673889, -0.17524537444114685, 0.19969043135643005, -0.06188777834177017, 0.09925349056720734, -0.00386944692581892, 0.029827047139406204, -0.008312530815601349, -0.08247864246368408, -0.20031939446926117, -0.14464235305786133, 0.17291705310344696, 0.12806029617786407, 0.025974441319704056, -0.032430991530418396, -0.19506968557834625, -0.14801530539989471, -0.00533475773409009, 0.039587344974279404, -0.11748982220888138, 0.01260428223758936, -0.1152256652712822, 0.05953524261713028, -0.07061196118593216, 0.16617603600025177], [-0.01835019886493683, -0.08168811351060867, -0.033972036093473434, 0.19317826628684998, -0.06472858786582947, 0.040414996445178986, 0.04787503927946091, -0.16845156252384186, -0.18672539293766022, 0.20832307636737823, -0.1270463466644287, -0.18119296431541443, -0.20874691009521484, -0.13331593573093414, -0.056368984282016754, -0.16205444931983948, 0.0718076303601265, 0.003116060048341751, -0.1882161796092987, 0.14631375670433044, 0.13003601133823395, -0.1063227728009224, 0.14381949603557587, 0.04222450777888298, 0.019445810467004776, 0.008167161606252193, 0.04017464071512222, -0.11343865841627121, 0.16185183823108673, 0.16628439724445343, -0.21987268328666687, -0.07521829754114151], [-0.16343124210834503, 0.11879519373178482, 0.15177679061889648, -0.018546821549534798, 0.0925874188542366, -0.1404123306274414, -0.15147195756435394, 0.04416282847523689, -0.10223069787025452, -0.04591171070933342, -0.05807838216423988, -0.005563723389059305, 0.010768627747893333, -0.2052658051252365, 0.13148219883441925, -0.11960560828447342, 0.03337126597762108, 0.16669589281082153, -0.20926065742969513, 0.09727678447961807, -0.17404204607009888, 0.09410242736339569, 0.1916244924068451, -0.03274768963456154, -0.13356243073940277, -0.008908649906516075, -0.014763163402676582, -0.09643828868865967, -0.0022579780779778957, 0.14702436327934265, 0.1572125107049942, 0.08031181991100311], [-0.00989700760692358, -0.21946072578430176, -0.1649811714887619, -0.13314713537693024, 0.013950951397418976, 0.13249538838863373, 0.2250821888446808, 0.08016398549079895, 0.003901456482708454, 0.02389395423233509, -0.22817379236221313, 0.09055892378091812, -0.1754983812570572, 0.17649845778942108, -0.08736217021942139, -0.13896284997463226, 0.03447851166129112, -0.09033489227294922, -0.05987701192498207, 0.1645205020904541, -0.14315979182720184, -0.18603640794754028, 0.010574350133538246, -0.1012701764702797, -0.13396881520748138, -0.18318381905555725, 0.09411278367042542, -0.026023119688034058, 0.08762093633413315, 0.025432441383600235, -0.183191180229187, 0.062360700219869614], [-0.06105630472302437, 0.12888751924037933, -0.1508912295103073, 0.22980864346027374, -0.07165256887674332, 0.22161124646663666, -0.23107148706912994, -0.006242964882403612, -0.012995370663702488, -0.19241192936897278, -0.12922170758247375, -0.09842639416456223, 0.20050349831581116, -0.18158598244190216, 0.05631168186664581, -0.21532946825027466, 0.009446365758776665, -0.04121825471520424, -0.08393228054046631, -0.03791259974241257, -0.011227254755795002, 0.10856354236602783, -0.024272777140140533, 0.09483031183481216, 0.024387666955590248, -0.07084822654724121, 0.0047538997605443, 0.01732388511300087, -0.092898428440094, 0.1320866048336029, 0.21040216088294983, 0.1024286150932312], [0.22063769400119781, -0.146208718419075, 0.18851694464683533, -0.0018229063134640455, 0.16152073442935944, 0.017893150448799133, -0.20559199154376984, 0.1655508428812027, -0.15867353975772858, -0.05659816786646843, -0.008699249476194382, -0.1575886458158493, 0.1738857626914978, 0.20465388894081116, -0.09621167927980423, -0.09757296741008759, 0.17240971326828003, -0.036408960819244385, -0.19674649834632874, 0.024485984817147255, 0.060192711651325226, 0.1469355970621109, -0.08320301026105881, -0.1815395951271057, 0.20450405776500702, -0.17987674474716187, -0.14833295345306396, 0.13401645421981812, -0.2059299498796463, 0.19229884445667267, 0.19429372251033783, -0.13121357560157776], [-0.1837378591299057, -0.09029645472764969, -0.16038426756858826, -0.20371362566947937, 0.04811296612024307, 0.02355634793639183, 0.11044688522815704, 0.15675577521324158, 0.08431524783372879, -0.06036011874675751, -0.12298344075679779, 0.19436495006084442, 0.04681900143623352, -0.10436265170574188, 0.06751056760549545, -0.07160204648971558, 0.002722814679145813, 0.11340180039405823, 0.12180806696414948, -0.06549382954835892, -0.048342734575271606, 0.1811133176088333, 0.0035799574106931686, 0.041395630687475204, -0.22549432516098022, 0.12390084564685822, -0.13657191395759583, 0.12481416761875153, -0.1568581610918045, -0.01694556325674057, -0.19663017988204956, -0.020448140799999237], [-0.0016880529001355171, -0.12857720255851746, 0.018336791545152664, -0.02742098644375801, -0.16387873888015747, -0.07073226571083069, -0.09519299119710922, 0.006635382305830717, -0.1547093540430069, 0.13897794485092163, 0.18720242381095886, 0.2066274881362915, -0.12064282596111298, 0.08501402288675308, -0.12278740853071213, 0.230429008603096, 0.13999277353286743, -0.16650664806365967, 0.048874467611312866, -0.07148823142051697, 0.18242260813713074, -0.04322759062051773, 0.1584571897983551, 0.11481892317533493, 0.030722282826900482, 0.10992459952831268, 0.1524779200553894, 0.06424906849861145, 0.0354231558740139, -0.1716204434633255, -0.19518975913524628, 0.17121358215808868], [0.10500369966030121, 0.13441355526447296, 0.05307941511273384, -0.09147574007511139, -0.12938164174556732, -0.14562591910362244, -0.0028060413897037506, 0.09436488151550293, 0.06033181771636009, 0.1116623654961586, -0.056972526013851166, 0.21884451806545258, 0.15237286686897278, -0.18426412343978882, 0.07224128395318985, 0.09937401860952377, 0.09785156697034836, 0.23104247450828552, -0.06911461800336838, -0.016856126487255096, 0.19028149545192719, 0.0540827140212059, 0.0010446212254464626, -0.021579885855317116, 0.02412721887230873, -0.02221263386309147, 0.15773199498653412, -0.031862273812294006, -0.02404988743364811, -0.19861143827438354, 0.19712385535240173, 0.04398907721042633], [-0.16472825407981873, 0.05832630395889282, -0.12752017378807068, -0.1525668501853943, 0.21016499400138855, -0.2132820188999176, 0.07716991752386093, 0.19790814816951752, 0.1739877611398697, 0.09336817264556885, 0.1698233038187027, -0.17982850968837738, -0.12352945655584335, 0.16370323300361633, 0.06164384260773659, -0.08865512907505035, 0.028368424624204636, -0.12360639870166779, 0.07102029025554657, 0.0535726323723793, -0.17253872752189636, -0.09759213030338287, -0.04772298410534859, -0.17793740332126617, 0.15488027036190033, -0.19776637852191925, -0.016201600432395935, -0.0017958329990506172, 0.09225637465715408, 0.18051694333553314, -0.2068929672241211, 0.20648056268692017], [-0.042105235159397125, 0.131850004196167, -0.10088485479354858, 0.011711402796208858, 0.12327317893505096, -0.007842469029128551, 0.17477884888648987, -0.007999176159501076, 0.17549331486225128, -0.04388453811407089, 0.16295991837978363, -0.08464764058589935, 0.07883225381374359, 0.05013323575258255, -0.2106286585330963, -0.1885775327682495, -0.17460055649280548, -0.1460358053445816, -0.13603049516677856, 0.06519332528114319, 0.17210926115512848, -0.08962923288345337, -0.05379236489534378, 0.23491539061069489, -0.20836536586284637, -0.1971203088760376, 0.13368046283721924, 0.176153764128685, -0.017861120402812958, 0.19015327095985413, -0.07087305188179016, -0.03026370331645012], [-0.06633778661489487, 0.0696539655327797, -0.02493460662662983, -0.06080076843500137, -0.21597124636173248, 0.08673395216464996, 0.22956418991088867, -0.06850825995206833, -0.06927429139614105, 0.2198743373155594, -0.18470355868339539, 0.08131467550992966, -0.08055200427770615, 0.2084195613861084, 0.18586640059947968, -0.044714394956827164, 0.06598778814077377, 0.1447119265794754, -0.20479591190814972, 0.22661258280277252, -0.2259141206741333, -0.05953255295753479, -0.030415207147598267, 0.16816112399101257, 0.0021321172825992107, -0.13530749082565308, 0.14554840326309204, 0.1365451067686081, 0.13192467391490936, 0.18586012721061707, 0.19613924622535706, 0.16531237959861755], [-0.09918743371963501, 0.08436086773872375, -0.09395773708820343, 0.15767771005630493, 0.07592619955539703, 0.008064999245107174, 0.01488512009382248, -0.02128666825592518, 0.04836289584636688, -0.017951328307390213, 0.08010973781347275, -0.06632930785417557, 0.12949836254119873, 0.07071107625961304, -0.15053966641426086, 0.1376691311597824, -0.14203856885433197, 0.1447973996400833, -0.07916703075170517, -0.11208838224411011, 0.07645267993211746, 0.10405284911394119, -0.012916899286210537, 0.1742941290140152, 0.2131720334291458, 0.03081458806991577, -0.03282114863395691, -0.12389981001615524, 0.14754052460193634, 0.1392478346824646, -0.17647521197795868, -0.14204461872577667], [-0.10591251403093338, -0.02536754682660103, -0.12252575159072876, 0.10485618561506271, 0.0533725842833519, 0.1258614957332611, -0.05691162869334221, 0.21885855495929718, 0.04911085590720177, -0.08310186862945557, 0.033694591373205185, 0.056562647223472595, -0.06308053433895111, -0.1325601488351822, -0.12453021854162216, -0.06577011197805405, -0.1490810066461563, 0.03736705332994461, -0.027633458375930786, -0.05267157033085823, 0.12894414365291595, -0.15790526568889618, 0.0170049499720335, -0.09429479390382767, 0.1779051125049591, 0.0719863623380661, -0.06664000451564789, 0.1690998524427414, -0.1718507558107376, -0.22064493596553802, -0.10093503445386887, -0.04450014606118202], [-0.03828844428062439, 0.09216515719890594, -0.00956362672150135, -0.15615159273147583, 0.015841271728277206, -0.13653388619422913, -0.20830658078193665, -0.11392955482006073, -0.14363011717796326, -0.043613724410533905, -0.11503972858190536, -0.11167305707931519, -0.17544624209403992, -0.16627778112888336, -0.12209466844797134, 0.05836329981684685, -0.18259800970554352, 0.1578558087348938, 0.19831132888793945, 0.008083797991275787, 0.11671394109725952, 0.12488485127687454, -0.16798177361488342, -0.11287971585988998, -0.15478886663913727, -0.16907525062561035, -0.0969756692647934, 0.1188606545329094, 0.027307603508234024, 0.201821967959404, -0.17787393927574158, 0.06902608275413513], [-0.185845747590065, 0.08740563690662384, 0.07411839067935944, -0.006266052834689617, -0.16863182187080383, -0.20360499620437622, -0.11965841799974442, 0.03117675706744194, -0.1802433431148529, 0.012709518894553185, -0.09222011268138885, -0.18671879172325134, -0.15240976214408875, 0.07330949604511261, 0.00755391176789999, 0.032493434846401215, 0.0008386666886508465, -0.18906109035015106, -0.16718052327632904, -0.18630234897136688, 0.17605926096439362, -0.05123770982027054, 0.11827494204044342, 0.1848631650209427, 0.08438780903816223, 0.0783015787601471, 0.049102723598480225, 0.07888119667768478, -0.058077145367860794, 0.09814088046550751, -0.12020710855722427, -0.055463675409555435], [-0.021309904754161835, -0.15549001097679138, 0.15287093818187714, -0.15054193139076233, 0.1502641886472702, 0.13361327350139618, -0.1517491340637207, 0.08124128729104996, -0.07602109760046005, -0.20898662507534027, -0.04716236889362335, -0.17895635962486267, -0.19188843667507172, -0.11868342012166977, 0.0931323766708374, 0.18382959067821503, -0.06492342799901962, 0.18943385779857635, 0.09337066859006882, 0.09462891519069672, 0.18429630994796753, 0.1260022073984146, 0.17202487587928772, -0.1579185575246811, 0.024602796882390976, -0.2196921408176422, 0.028145764023065567, 0.061568982899188995, -0.11987890303134918, -0.10136623680591583, -0.1594393402338028, -0.0674489364027977], [0.15236780047416687, 0.17094053328037262, 0.06423269212245941, -0.18983879685401917, 0.07090817391872406, -0.18581826984882355, -0.15572616457939148, -0.14215707778930664, -0.05097348242998123, 0.025364715605974197, -0.09805615991353989, -0.1253824681043625, 0.1540185660123825, -0.20083056390285492, -0.038999252021312714, 0.0024491441436111927, 0.2048196792602539, -0.003571820445358753, 0.11460557579994202, -0.15084411203861237, -0.06696091592311859, -0.10649009793996811, -0.022461898624897003, -0.1563454568386078, -0.18966640532016754, -0.04049962759017944, -0.03694746643304825, 0.013800798915326595, -0.05322619900107384, 0.12356134504079819, -0.005706773139536381, 0.1716536283493042], [0.10873925685882568, -0.12939803302288055, 0.00801943615078926, 0.13576029241085052, -0.19733670353889465, 0.09157541394233704, -0.10248693078756332, 0.05756096541881561, 0.03384504094719887, -0.024654679000377655, 0.05867938697338104, -0.04053468629717827, 0.14667509496212006, -0.010112042538821697, -0.157170370221138, -0.09273353964090347, -0.1844123899936676, 0.11240152269601822, -0.03197498247027397, -0.19706040620803833, -0.15198256075382233, -0.0009627379477024078, -0.07335992902517319, -0.1049923300743103, -0.1585816890001297, 0.12839540839195251, 0.19746102392673492, -0.09742110222578049, 0.05222116410732269, -0.13447412848472595, 0.10239356011152267, -0.2208782434463501], [0.1350046992301941, 0.1118350401520729, 