{"embedding.embedding.weight": [[0.05129134654998779, 0.27798646688461304, 0.3040061593055725, 0.08294249325990677, 0.026373006403446198, 0.17718832194805145, 0.173676997423172, 0.002015748992562294, -0.05817276984453201, -0.06934047490358353, 0.3404195308685303, 0.011024524457752705, -0.07602246850728989, -0.104557104408741, 0.007220839615911245, -0.3216288387775421, -0.039356548339128494, -0.18808278441429138, -0.047096654772758484, 0.21053485572338104, -0.2407110035419464, 0.22846928238868713, -0.12332795560359955, -0.13253630697727203, -0.07277627289295197, -0.20789654552936554, 0.19565482437610626, 0.06509004533290863, 0.26588723063468933, -0.1707582324743271, 0.022289395332336426, -0.304175466299057], [0.06982621550559998, -0.3418636918067932, -0.255153089761734, 0.05507455766201019, -0.0755908191204071, 0.09005463868379593, -0.03476586565375328, 0.06511173397302628, -0.14382368326187134, -0.05989398807287216, -0.02867223136126995, 0.0555029958486557, 0.14751501381397247, -0.21940605342388153, -0.15242713689804077, 0.22928528487682343, 0.2557518184185028, -0.02183448150753975, 0.19794416427612305, 0.22416768968105316, 0.12157819420099258, -0.10730293393135071, 0.06874304264783859, -0.04327349737286568, -0.09673744440078735, -0.1313065141439438, -0.0648452490568161, 0.23374350368976593, -0.348145455121994, -0.213857039809227, -0.029039090499281883, 0.16055838763713837], [0.05764561891555786, -0.14541053771972656, -0.2981899678707123, -0.07820390164852142, -0.08894305676221848, -0.10884265601634979, -0.1555316001176834, 0.3955323100090027, 0.2314886748790741, 0.09840073436498642, -0.09393654763698578, 0.11474213004112244, 0.07828269153833389, 0.19717366993427277, 0.02473941072821617, -0.17969420552253723, -0.3483632206916809, 0.17794300615787506, 0.21122021973133087, -0.11996829509735107, 0.11261973530054092, 0.003284124657511711, 0.07831648737192154, 0.148820698261261, 0.06766971200704575, -0.046840764582157135, -0.07921341806650162, -0.047718022018671036, -0.17041149735450745, 0.02410179004073143, 0.055563416332006454, -0.11025451123714447], [0.18046893179416656, 0.23415574431419373, -0.012838480062782764, -0.006291365250945091, -0.02508065104484558, -0.2495015561580658, -0.26796755194664, 0.07204663008451462, -0.08949893712997437, 0.27939727902412415, -0.3489188551902771, 0.08934011310338974, -0.02811238542199135, 0.1911698877811432, -0.08828983455896378, -0.22787725925445557, 0.15555013716220856, -0.011129746213555336, 0.26912713050842285, 0.03711048513650894, 0.24413444101810455, -0.06812914460897446, 0.3132021725177765, -0.12595021724700928, 0.15938952565193176, -0.02789936400949955, -0.008732136338949203, 0.05807261914014816, -0.1932893842458725, -0.03871983662247658, -0.026681028306484222, -0.048341065645217896], [0.007726157549768686, -0.40183448791503906, -0.3331664204597473, -0.08639918267726898, -0.30278852581977844, -0.09893588721752167, 0.3305661678314209, -0.02473275363445282, 0.20391228795051575, 0.1139388307929039, 0.09876730293035507, 0.10186462849378586, 0.14931818842887878, -0.01642477884888649, -0.16018830239772797, 0.04400881007313728, -0.1084698736667633, -0.11622252315282822, 0.13992634415626526, -0.1784900277853012, -0.15688832104206085, -0.03531446307897568, 0.14982354640960693, -0.011335226707160473, -0.15676937997341156, 0.05185028538107872, 0.42926010489463806, -0.12466836720705032, -0.055834073573350906, 0.04951811954379082, -0.13149653375148773, -0.0020257895812392235], [-0.03782118111848831, -0.016360223293304443, -0.03877808898687363, -0.0689239576458931, 0.050941161811351776, 0.14103475213050842, 0.13222885131835938, -0.014296433888375759, 0.1642514318227768, 0.1347213089466095, -0.073982834815979, 0.013145686127245426, 0.08749227970838547, -0.16034817695617676, -0.14725372195243835, 0.20376884937286377, 0.17229251563549042, -0.22104504704475403, 0.21528629958629608, 0.044970832765102386, 0.10225596278905869, 0.19427454471588135, 0.4247490465641022, 0.31894591450691223, -0.17464789748191833, 0.07303620129823685, -0.2056540995836258, 0.1786392480134964, 0.16887158155441284, 0.13198798894882202, 0.03876686841249466, 0.04147948697209358], [-0.20278151333332062, 0.033889707177877426, -0.2001492977142334, 0.07264742255210876, -0.068716861307621, 0.2047748863697052, 0.29794880747795105, 0.22753669321537018, -0.22578845918178558, 0.12548893690109253, -0.21879303455352783, -0.2094477415084839, 0.0700850784778595, 0.15308821201324463, -0.15715229511260986, 0.03423402085900307, -0.39411333203315735, -0.12700270116329193, 0.05837904289364815, 0.1847485899925232, -0.2662556767463684, 0.17228977382183075, 0.07730835676193237, 0.0492791086435318, 0.05253572389483452, -0.027758818119764328, 0.30533504486083984, -0.14001445472240448, 0.07920587807893753, 0.4026029407978058, -0.16353510320186615, 0.055119529366493225], [-0.030345626175403595, 0.1613241583108902, -0.15461169183254242, -0.03522782027721405, -0.10136321932077408, -0.13624794781208038, 0.047775253653526306, 0.08939092606306076, -0.03531630337238312, 0.08277278393507004, -0.04183138534426689, -0.005513067357242107, 0.13336268067359924, -0.0335310660302639, -0.012972045689821243, -0.12990355491638184, -0.10754131525754929, -0.12157537788152695, 0.0789739191532135, 0.004736823961138725, 0.31720682978630066, 0.09873481094837189, -0.11877438426017761, -0.3247132897377014, -0.11259303241968155, 0.1261962354183197, 0.1970653533935547, 0.007813537493348122, 0.30049070715904236, 0.061727166175842285, 0.07810110598802567, -0.06377516686916351], [-0.2829864025115967, 0.14069734513759613, -0.3128593862056732, -0.021691281348466873, 0.17295412719249725, 0.4543560743331909, -0.21281573176383972, -0.029520366340875626, -0.051319852471351624, 0.6276378035545349, 0.275020569562912, 0.03682359308004379, -0.22319068014621735, 0.027302805334329605, -0.038047775626182556, 0.2299647331237793, 0.12193883955478668, -0.0754837617278099, -0.27255526185035706, -0.43837153911590576, -0.6229212880134583, 0.27734577655792236, 0.03991090878844261, 0.23627230525016785, -0.21124741435050964, -0.03337600827217102, -0.11291606724262238, -0.0011270996183156967, -0.38986948132514954, -0.2546634078025818, -0.18640956282615662, -0.07503388077020645], [0.2542150020599365, 0.16500447690486908, -0.11139941960573196, 0.09218734502792358, 0.06747081130743027, 0.03354422748088837, 0.35594525933265686, 0.2703835368156433, 0.1718064844608307, 0.017032010480761528, 0.1466665416955948, 0.054237645119428635, -0.09029428660869598, -0.15705056488513947, -0.03713361918926239, 0.05333065614104271, 0.08708880841732025, -0.11921357363462448, -0.10502392053604126, -0.09680144488811493, 0.02337822876870632, 0.19924703240394592, 0.009804817847907543, -0.02094695344567299, -0.0992736741900444, 0.2350766956806183, -0.04697973653674126, 0.10108103603124619, -0.022344330325722694, -0.1088729128241539, 0.13516563177108765, 0.0536804161965847], [-0.05951292812824249, -0.29319000244140625, -0.12090177088975906, -0.3341091275215149, -0.3914848268032074, -0.11794423311948776, 0.012959594838321209, -0.6256893277168274, 0.09382795542478561, -0.06345690786838531, 0.08589576184749603, 0.0735984519124031, -0.23537777364253998, -0.13453510403633118, 0.07035204023122787, -0.147202268242836, 0.007658472750335932, 0.05363231524825096, 0.08818545937538147, -0.17631471157073975, -0.09912870079278946, 0.07055967301130295, -0.07688161730766296, -0.07359643280506134, 0.05728201940655708, 0.25509408116340637, -0.1373700648546219, 0.15990568697452545, 0.09845562279224396, -0.05234931781888008, -0.20207466185092926, 0.38349467515945435], [-0.08693403005599976, 0.18342697620391846, 0.1488134115934372, -0.5318445563316345, -0.03148796036839485, -0.09188424795866013, -0.07560534030199051, -0.08379087597131729, -0.10537321120500565, 0.2304997444152832, -0.15108883380889893, 0.15561549365520477, 0.26843687891960144, -0.12305101007223129, 0.0034620503429323435, -0.13439765572547913, -0.20265565812587738, -0.05425135791301727, -0.16093389689922333, 0.04635335132479668, 0.17066295444965363, 0.037096742540597916, -0.0017118760151788592, -0.1874794363975525, 0.32472196221351624, 0.07590606063604355, 0.1744597852230072, 0.20664279162883759, 0.028650186955928802, 0.19398929178714752, -0.01406935229897499, 0.08425771445035934], [0.3078322112560272, 0.07565805315971375, -0.08378659188747406, 0.22409947216510773, 0.014020873233675957, -0.18242047727108002, -0.08131323009729385, 0.06952600181102753, 0.057048503309488297, -0.041200023144483566, -0.4364953339099884, -0.332313597202301, -0.1046975627541542, -0.013006393797695637, 0.006130265071988106, 0.28481271862983704, 0.05388854444026947, 0.14904339611530304, -0.3669225871562958, 0.2333367019891739, -0.12975743412971497, -0.00403749942779541, 0.11666737496852875, 0.029771655797958374, -0.04906126484274864, -0.21524569392204285, 0.2980780601501465, 0.21890442073345184, 0.1136934831738472, -0.35311073064804077, 0.011656723916530609, 0.3980550467967987], [0.3289017081260681, 0.07150965929031372, -0.39367052912712097, 0.13494007289409637, -0.15815502405166626, 0.24124765396118164, 0.2109536975622177, -0.1975879818201065, -0.21185176074504852, 0.06135713309049606, 0.0347074456512928, -0.28592365980148315, -0.017701026052236557, -0.16605545580387115, -0.016821734607219696, 0.24237160384655, 0.28505197167396545, -0.009542143903672695, 0.049388278275728226, -0.05190318822860718, 0.5582134127616882, 0.21319986879825592, 0.04377755895256996, -0.08652804046869278, 0.06865145266056061, -0.172322079539299, 0.14900289475917816, 0.2966187298297882, -0.15734708309173584, 0.00488360645249486, -0.2930828332901001, -0.1072569191455841], [-0.04711191728711128, -0.09186690300703049, 0.2548813819885254, -0.22284726798534393, 0.0572451651096344, 0.1360625922679901, 0.29530760645866394, 0.03644208982586861, 0.13033460080623627, 0.08420713245868683, 0.3320128917694092, -0.024803537875413895, 0.41125065088272095, 0.16180123388767242, 0.03235403820872307, -0.034488026052713394, 0.33372312784194946, -0.3349199593067169, -0.1942564845085144, -0.16197822988033295, 0.04686453193426132, -0.052033744752407074, -0.09038527309894562, -0.2811736464500427, -0.2589115500450134, -0.013715535402297974, 0.13013528287410736, 0.20868518948554993, 0.354594886302948, 0.07172171026468277, 0.12920919060707092, -0.01515226997435093], [0.043525081127882004, -0.2710680365562439, -0.11332936584949493, -0.04964323714375496, 0.04142184555530548, 0.23882398009300232, 0.009493760764598846, -0.2771875560283661, -0.24944768846035004, -0.0875505730509758, 0.11047745496034622, 0.00518570002168417, -0.056250590831041336, -0.12832768261432648, 0.09427636116743088, -0.032514024525880814, 0.12191476672887802, -0.05451726168394089, -0.07439249753952026, -0.15623418986797333, 0.030564213171601295, -0.05458110570907593, 0.20929957926273346, -0.004797668196260929, 0.25738534331321716, 0.18730901181697845, 0.0982636883854866, -0.27367866039276123, 0.10222090780735016, 0.26512348651885986, -0.29255568981170654, -0.06457480788230896], [-0.23778162896633148, -0.15248408913612366, -0.2897201478481293, -0.1405949592590332, -0.05992098152637482, 0.04511177912354469, -0.05114865303039551, 0.13785596191883087, 0.4970889389514923, -0.026279281824827194, -0.005245596170425415, 0.1918361634016037, 0.039601121097803116, 0.08496412634849548, -0.09601740539073944, 0.002231504302471876, 0.22721949219703674, -0.23959818482398987, 0.1746934950351715, 0.20228026807308197, 0.06359010189771652, 0.09174063056707382, 0.07727987319231033, -0.06952530145645142, 0.30147939920425415, 0.10109841823577881, 0.07127697765827179, -0.1320367306470871, -0.06596141308546066, -0.37103015184402466, 0.19502270221710205, -0.20086489617824554], [-0.2550011873245239, 0.1803564578294754, -0.014136742800474167, 0.12257549911737442, 0.46963757276535034, -0.048463959246873856, -0.013882357627153397, 0.06412484496831894, -0.047061823308467865, 0.1384894698858261, 0.1876078099012375, -0.3170061707496643, 0.0915151983499527, -0.05940252169966698, 0.10938693583011627, 0.14543256163597107, -0.02249653823673725, -0.2239951491355896, 0.27976420521736145, 0.24015671014785767, -0.025481123477220535, -0.03535907715559006, -0.10069739818572998, 0.3466102182865143, -0.15167151391506195, -0.18944324553012848, 0.28470540046691895, -0.07502181828022003, -0.0397341363132, -0.23548291623592377, 0.17686127126216888, -0.19174739718437195], [-0.08024915307760239, -0.22984391450881958, -0.23048727214336395, 0.03471839427947998, 0.12238579988479614, 0.004504266660660505, 0.07410408556461334, 0.16627120971679688, -0.10951646417379379, 0.0563976876437664, -0.23347783088684082, 0.1778721958398819, 0.19295527040958405, 0.10080602020025253, 0.27558633685112, 0.20972700417041779, -0.025648972019553185, -0.058194875717163086, -0.1287766396999359, -0.09705119580030441, -0.047730036079883575, 0.0675622820854187, 0.054829537868499756, 0.09843297302722931, 0.10253463685512543, 0.255987286567688, -0.031126346439123154, -0.07297775149345398, -0.028783317655324936, -0.08452250063419342, 0.1279406100511551, 0.012786990962922573], [-0.35366544127464294, -0.07217934727668762, -0.12401145696640015, -0.03621404990553856, 0.033517226576805115, 0.0859166756272316, -0.007105851545929909, -0.12520931661128998, -0.21740008890628815, 0.03818819671869278, -0.17747603356838226, -0.19266298413276672, 0.19784808158874512, 0.2844368517398834, 0.2936757504940033, 0.1446545422077179, -0.04211165010929108, 0.3023669123649597, 0.16164742410182953, 0.31643277406692505, 0.23181426525115967, 0.06350720673799515, 0.07585480064153671, 0.03146900236606598, 0.22150704264640808, -0.007147829048335552, 0.10726416110992432, 0.1089327409863472, -0.2146139144897461, 0.1083214208483696, -0.047078728675842285, -0.19047623872756958], [0.24296151101589203, 0.0363275483250618, 0.24618080258369446, 0.21536687016487122, -0.004476963542401791, 0.014920735731720924, 0.16502204537391663, -0.1006830483675003, -0.1555030643939972, 0.41755518317222595, 0.15735392272472382, -0.30252212285995483, -0.1799476444721222, 0.43640774488449097, -0.22180479764938354, -0.21425025165081024, 0.01659994199872017, -0.03419812023639679, 0.18441809713840485, 0.3048548102378845, -0.2880515158176422, 0.10636568814516068, -0.013390237465500832, 0.1934366077184677, 0.007543121464550495, -0.13224907219409943, -0.22623282670974731, 0.17131657898426056, 0.1299978643655777, -0.042627304792404175, 0.14343087375164032, 0.1889217495918274], [-0.19325104355812073, 0.026691893115639687, -0.20430178940296173, -0.012192387133836746, -0.2985190153121948, -0.07886046916246414, -0.10902264714241028, -0.29111331701278687, -0.23859378695487976, -0.17671354115009308, 0.07935851812362671, 0.047732602804899216, -0.17618772387504578, 0.2353573739528656, -0.20573081076145172, 0.321259081363678, 0.11876071244478226, 0.25697848200798035, -0.17969828844070435, 0.20801778137683868, -0.17112994194030762, -0.302864670753479, 0.26523810625076294, 0.19782878458499908, 0.25482648611068726, -0.16953355073928833, -0.04485415667295456, -0.11703379452228546, -0.010207519866526127, 0.23203496634960175, -0.18696899712085724, -0.029013127088546753], [0.23684686422348022, 0.29043564200401306, -0.3173273503780365, -0.3936752378940582, 0.2945537269115448, 0.01845385879278183, -0.27481311559677124, 0.10558141767978668, -0.1783638745546341, -0.20001882314682007, -0.016919491812586784, -0.20913851261138916, 0.17814727127552032, 0.06552623957395554, -0.3898163437843323, 0.4059023857116699, 0.2833012342453003, -0.29849883913993835, -0.116694875061512, -0.33336567878723145, 0.24023154377937317, -0.13583530485630035, -0.24872253835201263, -0.22986575961112976, 0.37534183263778687, -0.12129220366477966, -0.1267603486776352, -0.1932239979505539, -0.00908445194363594, -0.24854229390621185, -0.21879655122756958, 0.21805302798748016], [-0.05811746418476105, 0.02252211421728134, 0.24412161111831665, 0.10141333937644958, -0.03560743108391762, 0.11194979399442673, -0.2807503342628479, -0.43352028727531433, 0.003922578878700733, 0.013640155084431171, -0.12721990048885345, 0.2008083462715149, -0.13920621573925018, 0.04146319255232811, -0.2858527600765228, 0.17608408629894257, -0.14537537097930908, -0.03615372255444527, -0.12697438895702362, 0.3972850739955902, 0.1712256669998169, 0.05504413694143295, -0.14601632952690125, 0.008272080682218075, -0.06554754078388214, -0.13057494163513184, 0.29202383756637573, 0.33113303780555725, 0.03914952278137207, 0.09067819267511368, 0.34968385100364685, 0.052665889263153076], [-0.05730726942420006, -0.20567333698272705, -0.030559420585632324, 0.16773447394371033, -0.01541275717318058, -0.11196945607662201, -0.05298393964767456, 0.06552038341760635, 0.08546294271945953, 0.3006491959095001, 0.004737005569040775, 0.01460946723818779, -0.04175224155187607, -0.1906975954771042, 0.17800962924957275, 0.1649543046951294, 0.037452664226293564, -0.1877630054950714, 0.08591683208942413, 0.10779455304145813, 0.07688335329294205, -0.047546256333589554, -0.10176455229520798, -0.2432064712047577, -0.10735124349594116, 0.0732073113322258, 0.021411847323179245, 0.258981853723526, -0.08375725895166397, 0.011247118934988976, -0.09489269554615021, -0.0660015121102333], [0.12750253081321716, -0.10247805714607239, -0.05196519196033478, 0.01569848693907261, 0.10371970385313034, -0.03824611380696297, -0.22012025117874146, -0.09708660840988159, 0.05929804593324661, 0.07099970430135727, -0.502876341342926, 0.01323351263999939, -0.029903212562203407, 0.17307697236537933, 0.2489926666021347, -0.06168997287750244, -0.12263048440217972, 0.029536280781030655, -0.21966087818145752, -0.18038906157016754, 0.022033073008060455, -0.12224393337965012, -0.32688167691230774, -0.2880460023880005, 0.24128413200378418, 0.20982888340950012, -0.3054625391960144, -0.37742090225219727, 0.06818569451570511, -0.1797708421945572, -0.1679762452840805, 0.23688358068466187], [0.1721150130033493, 0.2704450488090515, -0.34821292757987976, -0.14993128180503845, 0.09324242174625397, -0.06267359107732773, -0.22975961863994598, 0.028932245448231697, 0.06906621158123016, -0.07141437381505966, -0.09448748826980591, -0.10260079056024551, -0.2949221134185791, 0.38998568058013916, 0.08781033009290695, 0.02072330191731453, -0.0017310711555182934, -0.13082115352153778, 0.6687853932380676, 0.021412158384919167, 0.011265735141932964, 0.08397795259952545, 0.3468009829521179, -0.09141187369823456, -0.07224574685096741, 0.04769260436296463, 0.07665470242500305, -0.020354174077510834, -0.1813639998435974, 0.3862212896347046, 0.08996491134166718, 0.09120067954063416], [-0.17161615192890167, -0.03550121560692787, 0.13897067308425903, -0.19900807738304138, 0.2082192748785019, 0.059179920703172684, -0.26023921370506287, 0.25304147601127625, -0.04731861501932144, -0.09020636975765228, 0.08562561869621277, 0.14215175807476044, -0.2151629626750946, 0.009779463522136211, 0.04936734214425087, -0.29479748010635376, -0.01337001658976078, -0.05397850647568703, 0.3271535634994507, -0.12464821338653564, -0.2482895702123642, 0.18398259580135345, -0.030574841424822807, -0.34050223231315613, 0.2839806377887726, 0.05955420061945915, -0.007624993100762367, -0.01083230972290039, -0.13169018924236298, 0.33406347036361694, -0.08931412547826767, -0.06508812308311462], [-0.10261853039264679, -0.19258995354175568, -0.5307378768920898, -0.1585598587989807, -0.12421175837516785, -0.06604782491922379, -0.38733774423599243, 0.13818420469760895, -0.1885223388671875, 0.15767785906791687, -0.006426201201975346, 0.2323029339313507, 0.39514464139938354, -0.06274442374706268, 0.1418280005455017, 0.2819480299949646, 0.06509070843458176, -0.3068482577800751, -0.1607738435268402, -0.02954205870628357, 0.23128598928451538, 0.0140465022996068, 0.16770684719085693, 0.029696952551603317, 0.11966634541749954, 0.04929684102535248, 0.04146513715386391, -0.0044420878402888775, -0.024974728003144264, 0.18499760329723358, -0.03230972960591316, 0.10435127466917038], [0.2600584328174591, -0.10337656736373901, 0.04724229499697685, -0.07630136609077454, -0.13140887022018433, 0.09458008408546448, 0.07096276432275772, 0.12606680393218994, 0.07366472482681274, 0.27487680315971375, 0.06773549318313599, -0.2965429127216339, -0.2697451710700989, -0.0018263261299580336, 0.03434530273079872, 0.048961296677589417, 0.23942561447620392, 0.03809291869401932, 0.15444959700107574, -0.11881858110427856, 0.3743894100189209, 0.1375553458929062, 0.11255523562431335, -0.415035605430603, 0.04882087931036949, 0.1012139767408371, -0.18504217267036438, 0.09376505017280579, 0.2802618443965912, 0.1399862915277481, 0.03418750315904617, -0.08953166007995605]], "layers.0.attention.attn.in_proj_weight": [[-0.13132639229297638, 0.06035306304693222, 0.23197488486766815, 0.17494234442710876, 0.1488993912935257, 0.1983540803194046, 0.1638288050889969, -0.12323667854070663, -0.12804707884788513, -0.07140517234802246, 0.14213597774505615, -0.1958969086408615, 0.14479611814022064, 0.14109587669372559, -0.056930750608444214, -0.11065388470888138, -0.03242134302854538, 0.09859801828861237, -0.11091046035289764, 0.12511806190013885, 0.22639472782611847, 0.026105813682079315, 0.020339295268058777, 0.14740875363349915, 0.21633997559547424, -0.024182153865695, 0.0577862486243248, 0.08135001361370087, -0.162743479013443, -0.23132598400115967, 0.23525086045265198, -0.1334700882434845], [0.1556125432252884, -0.08854714781045914, -0.12565088272094727, 0.196305513381958, 0.008932027034461498, 0.102057546377182, -0.21508879959583282, -0.06661304086446762, -0.11690332740545273, -0.2241838276386261, 0.11390352249145508, 0.10873784124851227, -0.02369382418692112, -0.016117462888360023, 0.002289404161274433, -0.0574214830994606, 0.1555357277393341, -0.13091494143009186, -0.04879153147339821, 0.11331450939178467, 0.09025916457176208, 0.1657738983631134, 0.13538333773612976, -0.041777510195970535, 0.037892598658800125, 0.1353989690542221, 0.038512222468853, -0.051598191261291504, 0.11574529111385345, -0.04137042909860611, -0.12582163512706757, 0.13751420378684998], [-0.10235487669706345, -0.12749522924423218, 0.10329373925924301, 0.1413823813199997, 0.04174153879284859, -0.0071280524134635925, 0.10912039130926132, 0.04193464666604996, -0.15229320526123047, 0.133453369140625, -0.13564017415046692, -0.022473372519016266, 0.1449185460805893, 0.0972023606300354, -0.025259168818593025, 0.09985894709825516, -0.036865949630737305, 0.15213719010353088, 0.1478964388370514, 0.059713371098041534, -0.1706380397081375, -0.16413654386997223, 0.12387484312057495, -0.06509153544902802, -0.20882120728492737, 0.02167390286922455, -0.16355951130390167, 0.13289488852024078, 0.10053051263093948, 0.03984707593917847, 0.01512303575873375, -0.05707366392016411], [0.21708956360816956, 0.0860164538025856, 0.20247647166252136, 0.2051728367805481, 0.17016497254371643, -0.09314285218715668, 0.14351707696914673, 0.018424123525619507, -0.14014115929603577, -0.19205744564533234, 0.008288507349789143, 0.0906929224729538, -0.1651511788368225, 0.16918665170669556, -0.051575977355241776, 0.10416027158498764, 0.14617714285850525, -0.13876314461231232, -0.05290663242340088, 0.13972005248069763, -0.020319854840636253, 0.1642296314239502, 0.19384288787841797, 0.04147672280669212, 0.033768430352211, -0.027899522334337234, 0.003469055751338601, 0.08310538530349731, 0.09987987577915192, -0.09324848651885986, 0.11978277564048767, 0.08015866577625275], [-0.14080330729484558, 0.14972960948944092, -0.22841283679008484, -0.04871117323637009, 0.11456836760044098, -0.14000363647937775, 0.16218671202659607, 0.1608465164899826, -0.10816337913274765, 0.09070432186126709, -0.1081046387553215, -0.1496509462594986, 0.0702352225780487, 0.01937687397003174, -0.22085241973400116, -0.08001352101564407, 0.07844532281160355, 0.04048825800418854, 0.043749600648880005, -0.10457998514175415, -0.14494502544403076, -0.05505036935210228, 0.01105236355215311, 0.19376452267169952, -0.14490701258182526, -0.02791300043463707, 0.19408246874809265, -0.0895080417394638, 0.12592123448848724, 0.22155264019966125, 0.013557173311710358, 0.002884714864194393], [0.00020947586745023727, -0.17587652802467346, 0.13742747902870178, 0.08879576623439789, -0.2209256887435913, 0.06734819710254669, 0.2170068919658661, -0.2227202206850052, -0.004532268270850182, 0.012645740993320942, -0.004001713823527098, 0.22882355749607086, 0.19899038970470428, -0.2030124068260193, 0.13910284638404846, -0.10234922915697098, 0.06431769579648972, 0.08195136487483978, -0.18167568743228912, -0.1692388504743576, 0.12053119391202927, 0.062498971819877625, -0.05524015426635742, 0.10908634215593338, 0.03930574283003807, -0.05685076862573624, 0.008555462583899498, -0.030490878969430923, 0.08928439021110535, -0.148950457572937, -0.1725880652666092, -0.04902057722210884], [-0.08197519183158875, 0.06001649424433708, 0.16377682983875275, 0.05569952726364136, 0.16339479386806488, -0.1135997325181961, -0.06611939519643784, 0.112608402967453, 0.016795577481389046, 0.06631416082382202, 0.04669420048594475, -0.04445808380842209, -0.09900504350662231, -0.0960187315940857, 0.21089817583560944, 0.17246286571025848, 0.051571596413850784, -0.1232314482331276, -0.18430790305137634, 0.04969552904367447, 0.11423233151435852, 0.02588069438934326, 0.06495847553014755, 0.20726561546325684, 0.06134781241416931, 0.04909632354974747, -0.1007380485534668, -0.00974167138338089, -0.17641475796699524, 0.16304361820220947, -0.2035646140575409, 0.18651051819324493], [-0.0995282530784607, -0.12168008089065552, -0.11244053393602371, 0.12715847790241241, -0.23174874484539032, -0.15995042026042938, -0.12039114534854889, -0.1654050648212433, -0.14290085434913635, -0.132765993475914, 0.031210938468575478, -0.0721796452999115, 0.06205165758728981, 0.14928045868873596, -0.1583997905254364, -0.04447897523641586, 0.11939093470573425, -0.108775295317173, -0.08076358586549759, -0.014444194734096527, -0.1436152458190918, 0.17601755261421204, 0.05080524459481239, 0.02393878437578678, -0.10405905544757843, -0.16968896985054016, 0.02860308438539505, -0.09030774235725403, -0.18276441097259521, 0.16602839529514313, -0.22455839812755585, 0.15285834670066833], [-0.16140694916248322, -0.04765979200601578, -0.19916662573814392, -0.15491807460784912, -0.04594971239566803, 0.07213335484266281, 0.20036745071411133, -0.20809167623519897, -0.08507809042930603, 0.03837405890226364, 0.1231420710682869, 0.2178085297346115, -0.19024112820625305, -0.08913706243038177, 0.008741470985114574, -0.16175001859664917, 0.16223552823066711, -0.15082833170890808, 0.08805075287818909, 0.07058900594711304, 0.11019323766231537, -0.033951286226511, 0.07740338146686554, 0.14672933518886566, 0.08542811870574951, -0.008200554177165031, -0.10044936835765839, 0.13769811391830444, 0.16916076838970184, 0.02612861432135105, -0.007158954627811909, -0.034876078367233276], [-0.12140950560569763, 0.1346277892589569, -0.12801212072372437, 0.18736033141613007, -0.028549592941999435, -0.15917083621025085, -0.0315142385661602, -0.21536271274089813, 0.19475708901882172, 0.14589694142341614, -0.1594640016555786, -0.19394902884960175, 0.061569150537252426, 0.03264447674155235, -0.18734006583690643, 0.07273223251104355, -0.04619806259870529, -0.15142600238323212, 0.15352696180343628, 0.0006050057709217072, 0.0643685981631279, 0.16253231465816498, -0.03294872120022774, 0.1292770951986313, 0.0582793727517128, -0.06188175082206726, 0.10058438032865524, -0.1423448920249939, 0.0956358015537262, 0.14201603829860687, 0.19447065889835358, 0.040434353053569794], [0.1464812010526657, 0.17768721282482147, 0.19506989419460297, -0.18809004127979279, -0.11857979744672775, -0.03172486647963524, 0.016734855249524117, -0.046085938811302185, -0.11375246942043304, -0.07052894681692123, -0.20437099039554596, 0.15912283957004547, 0.12101021409034729, 0.1112942174077034, -0.0933525338768959, -0.14275847375392914, 0.05401556193828583, -0.20772305130958557, 0.06651350855827332, -0.028665121644735336, -0.052595481276512146, 0.07479509711265564, -0.19304043054580688, -0.023276016116142273, 0.22575674951076508, 0.09607379138469696, -0.019288325682282448, 0.19221879541873932, -0.048376403748989105, -0.051009539514780045, -0.055708616971969604, -0.22594943642616272], [-0.18209059536457062, -0.0819263756275177, -0.06291499733924866, 0.05572238191962242, -0.16268283128738403, 0.019356681033968925, -0.17711526155471802, 0.10197120904922485, 0.20230677723884583, 0.0847478061914444, 0.1387202888727188, 0.08931845426559448, -0.1252700537443161, -0.18587680160999298, 0.12856334447860718, -0.1967599093914032, 0.07864450663328171, -0.1183147057890892, 0.043927863240242004, 0.1500772386789322, -0.20926138758659363, -0.0024436567910015583, 0.18719486892223358, -0.07212845236063004, 0.016874978318810463, 0.013426498509943485, 0.1461508423089981, -0.15741181373596191, 0.0049135200679302216, 0.16460029780864716, -0.08582617342472076, -0.03167872130870819], [0.20364095270633698, -0.07147900015115738, -0.027413643896579742, -0.07443780452013016, 0.1821833848953247, 0.22047221660614014, -0.018435325473546982, -0.11063303798437119, -0.17188923060894012, 0.05182855576276779, 0.039322055876255035, -0.00691109336912632, -0.013212268240749836, 0.01732700690627098, -0.07647821307182312, -0.01997784711420536, 0.11838629096746445, -0.08416320383548737, 0.07444902509450912, 0.11520653963088989, 0.07316731661558151, -0.18690578639507294, -0.17459240555763245, -0.12001598626375198, 0.14997020363807678, -0.17582321166992188, 0.034242771565914154, 0.1428275853395462, 0.061933182179927826, -0.1451532542705536, -0.19618098437786102, 0.06942754983901978], [-0.0491475984454155, -0.06268595159053802, -0.21712416410446167, -0.17625238001346588, -0.03193183243274689, 0.018436148762702942, -0.16903714835643768, -0.021792564541101456, -0.17889656126499176, 0.14580830931663513, -0.196393221616745, -0.06473454087972641, -0.03253621235489845, -0.03233815357089043, -0.043622855097055435, -0.058921437710523605, 0.04799627885222435, 0.20956721901893616, -0.18692246079444885, -0.024145133793354034, 0.016602374613285065, 0.06423940509557724, -0.21629291772842407, -0.1869109869003296, 0.197012260556221, 0.028191745281219482, 0.09299813210964203, -0.02626846544444561, -0.03703664243221283, 0.11113733798265457, 0.15215596556663513, 0.08341976255178452], [-0.18852485716342926, 0.14212259650230408, -0.15576724708080292, 0.052042074501514435, 0.17746110260486603, 0.06539714336395264, -0.1575702577829361, 0.11820545047521591, 0.14826564490795135, 0.17149920761585236, -0.04096951335668564, -0.04936155676841736, 0.1116442158818245, -0.033182427287101746, -0.029433175921440125, 0.07613673806190491, -0.0815029889345169, 0.14681953191757202, 0.17506684362888336, 0.01242655236274004, 0.197701096534729, -0.11669319868087769, 0.1262911558151245, -0.051255837082862854, 0.1697782278060913, -0.09719670563936234, -0.08787355571985245, -0.12881430983543396, -0.19896839559078217, -0.11907988786697388, 0.13251033425331116, 0.020937474444508553], [0.14731493592262268, -0.2287542074918747, 0.04524185508489609, -0.17649930715560913, 0.010074623860418797, 0.01614389196038246, 0.049154169857501984, 0.13264933228492737, 0.012767328880727291, 0.20437440276145935, -0.12179690599441528, 0.026718750596046448, -0.1411411017179489, -0.200765460729599, -0.12827084958553314, 0.10708367824554443, -0.17420314252376556, 0.16001462936401367, -0.0948781818151474, 0.040295910090208054, -0.2145887017250061, -0.15613415837287903, 0.015495630912482738, 0.04031200706958771, 0.10588601231575012, 0.12045417726039886, -0.026377875357866287, -0.139423668384552, -0.08298560231924057, -0.18847087025642395, 0.18954132497310638, -0.1969630867242813], [0.06675554066896439, -0.016625963151454926, 0.09538538008928299, -0.16490903496742249, 0.12275927513837814, -0.03276609629392624, -0.10715305805206299, -0.20496730506420135, 0.04811635985970497, -0.031061328947544098, -0.16786497831344604, -0.09253409504890442, -0.002088441513478756, 0.06049386411905289, -0.10013596713542938, 0.018258806318044662, -0.12688006460666656, 0.08779606968164444, -0.20489266514778137, 0.1184265986084938, -0.12688979506492615, -0.045105792582035065, -0.20248395204544067, -0.037271466106176376, 0.16252678632736206, -0.15751253068447113, 0.15995407104492188, -0.05710427463054657, 0.1843600571155548, -0.14307966828346252, 0.15760047733783722, 0.03467531502246857], [0.07657121121883392, -0.1729801893234253, -0.1919030398130417, -0.22606706619262695, -0.0637616217136383, 0.14055214822292328, -0.12925602495670319, 0.15349064767360687, 0.12739956378936768, 0.0658881813287735, -0.1287125051021576, -0.18976490199565887, -0.10541480779647827, 0.03906475752592087, -0.07080881297588348, -0.11178746819496155, 0.04549921303987503, 0.21167078614234924, 0.11614054441452026, -0.1421661078929901, 0.19799496233463287, -0.11596933752298355, -0.0068023717030882835, -0.09652198106050491, 0.18357986211776733, 0.048309240490198135, 0.004639009013772011, -0.02562756836414337, 0.14976462721824646, -0.08607625961303711, -0.06427101790904999, -0.1213870421051979], [0.0008420851081609726, 0.2159021645784378, 0.2261713296175003, 0.15143133699893951, -0.19719529151916504, 0.07287455350160599, -0.16869162023067474, 0.025285974144935608, -0.0925428569316864, -0.06806489825248718, -0.08904578536748886, -0.0862165242433548, 0.05088287219405174, -0.2265905886888504, 0.20263108611106873, 0.11286555230617523, 0.2012670934200287, -0.08890457451343536, 0.17925527691841125, -0.11062067747116089, -0.0885978639125824, 0.07766138017177582, 0.11584928631782532, 0.04810043424367905, -0.05004344508051872, -0.13959501683712006, 0.2131088823080063, -0.13019676506519318, 0.16856229305267334, 0.14345312118530273, -0.15850509703159332, 0.09470317512750626], [0.04256664589047432, 0.1856590062379837, 0.08704423904418945, 0.1786048710346222, 0.1059468537569046, 0.1910599172115326, -0.12095308303833008, -0.2112937867641449, 0.16956117749214172, 0.11143487691879272, -0.08333055675029755, 0.14106188714504242, -0.029546698555350304, -0.19416439533233643, -0.001459362916648388, 0.19507458806037903, 0.19765174388885498, 0.07260110974311829, -0.1021304652094841, -0.07801388949155807, 0.005750679410994053, 0.07298999279737473, 0.126151442527771, -0.23416441679000854, 0.11821262538433075, -0.2078765332698822, 0.027326753363013268, -0.1759624481201172, -0.05494103580713272, 0.1426117718219757, 0.09406427294015884, -0.1960814744234085], [0.07898665219545364, -0.02756587788462639, 0.15682920813560486, 0.1097078025341034, 0.18391136825084686, -0.1099337637424469, -0.21573059260845184, 0.1525813639163971, -0.04615231603384018, -0.1259317547082901, -0.03428186476230621, 0.12133625894784927, 0.04049868509173393, 0.17803101241588593, 0.19542765617370605, -0.0011963080614805222, -0.12451588362455368, -0.20268163084983826, 0.13353925943374634, 0.07817701995372772, 0.16296645998954773, -0.003948073834180832, 0.20300163328647614, -0.18987959623336792, -0.0951475128531456, -0.04743340611457825, -0.19120675325393677, 0.08621209114789963, 0.08154817670583725, -0.13977019488811493, 0.22912029922008514, -0.2061225324869156], [-0.18728040158748627, 0.13854387402534485, -0.11491546779870987, -0.19315190613269806, 0.04779508337378502, 0.04040025547146797, -0.18619005382061005, -0.010900003835558891, -0.17741291224956512, -0.10590830445289612, -0.04946664348244667, -0.20284084975719452, 0.20365209877490997, 0.058290548622608185, 0.1859750598669052, -0.0829278752207756, -0.04625944420695305, 0.05272507667541504, 0.0020826123654842377, -0.1610957682132721, 0.16525569558143616, -0.09274023026227951, -0.08384321630001068, -0.0056399693712592125, 0.1570860594511032, 0.1831766664981842, 0.21298767626285553, -0.04306071251630783, 0.029883364215493202, -0.08088342100381851, 0.05946807563304901, 0.06562483310699463], [-0.17896854877471924, -0.026143550872802734, -0.14281319081783295, 0.06256021559238434, 0.155039444565773, 0.08506248891353607, 0.1835392862558365, -0.074384905397892, 0.060860421508550644, -0.05192007124423981, 0.08660417795181274, 0.22409950196743011, 0.1745959371328354, 0.0005156465340405703, 0.11171649396419525, 0.10512195527553558, 0.019670385867357254, 0.07056640833616257, -0.08609970659017563, 0.06310232728719711, 0.08159404993057251, -0.02042766846716404, -0.005915402434766293, -0.11543698608875275, 0.12147126346826553, -0.08465983718633652, 0.1073131263256073, -0.024704135954380035, 0.007173557765781879, 0.027066566050052643, -0.048368413001298904, -0.042277462780475616], [0.1312866061925888, -0.07258034497499466, 0.15666936337947845, 0.11139427870512009, -0.18744832277297974, 0.17831683158874512, 0.006497331894934177, 0.04359906166791916, 0.029998786747455597, 0.024088464677333832, 0.08101838827133179, -0.16750115156173706, 0.10176277905702591, 0.06437541544437408, -0.043093688786029816, 0.08692324906587601, -0.13401062786579132, 0.2204660028219223, -0.18396712839603424, 0.09603846818208694, 0.11104584485292435, -0.19609665870666504, 0.012284601107239723, -0.0817902535200119, -0.19932499527931213, -0.1531868875026703, 0.10558942705392838, 0.1686454564332962, -0.06686118245124817, -0.15106353163719177, 0.18050701916217804, -0.16533219814300537], [0.09853345900774002, 0.14957983791828156, -0.17924150824546814, -0.1420566439628601, -0.1845705211162567, -0.021722251549363136, 0.11446067690849304, 0.024854231625795364, -0.20931799709796906, 0.08735597133636475, -0.05727308243513107, 0.18792106211185455, 0.07764937728643417, 0.11968551576137543, 0.08025161176919937, -0.054366063326597214, 0.06154180318117142, -0.07754828035831451, 0.06848606467247009, -0.016081515699625015, -0.06969182938337326, 0.2126656472682953, 0.03006633371114731, 0.029860608279705048, 0.11114872992038727, -0.08360011875629425, -0.05288919806480408, 0.17264814674854279, 0.054276227951049805, 0.17644286155700684, 0.07396076619625092, 0.2101680189371109], [0.03816070780158043, -0.09610896557569504, 0.07975490391254425, -0.19597171247005463, 0.22568297386169434, -0.10756076127290726, 0.21812260150909424, -0.16018180549144745, -0.0379769392311573, -0.03740225359797478, 0.08868858218193054, -0.10533220320940018, -0.10279720276594162, 0.1904556304216385, -0.16823840141296387, 0.057162754237651825, -0.20725281536579132, -0.19073066115379333, 0.17623957991600037, -0.012439274229109287, -0.06361451745033264, -0.13806170225143433, -0.11059503257274628, -0.02698473632335663, 0.1424597054719925, -0.08866208046674728, -0.22328788042068481, 0.021211598068475723, -0.046562422066926956, -0.05586783587932587, -0.2148502767086029, -0.08245594054460526], [-0.0033326884731650352, -0.12671110033988953, -0.01223582774400711, 0.14990739524364471, 0.16540765762329102, 0.12283161282539368, 0.11078550666570663, -0.08642376959323883, -0.006194609217345715, -0.08507679402828217, 0.048955660313367844, -0.022776886820793152, -0.17474159598350525, 0.05445612221956253, -0.12708087265491486, 0.09692146629095078, -0.09215901792049408, 0.14918237924575806, 0.1002921611070633, -0.19854827225208282, -0.1624862104654312, 0.03229732811450958, -0.0003796834498643875, -0.2286306917667389, -0.1810705065727234, 0.1972525268793106, -0.12422338873147964, -0.1995588093996048, -0.17690038681030273, -0.08457986265420914, 0.2236294001340866, 0.02221653424203396], [-0.06469684839248657, 0.1356731653213501, 0.1704532653093338, 0.15889610350131989, 0.14326731860637665, 0.15322715044021606, -0.22579440474510193, -0.17676736414432526, -0.16787293553352356, 0.073670394718647, 0.17490029335021973, 0.003863841062411666, -0.00307708652690053, 0.1374894231557846, 0.13292093575000763, 0.1639559417963028, 0.004746327176690102, -0.19487439095973969, -0.15133635699748993, 0.08144239336252213, -0.07883378863334656, 0.09390848129987717, 0.08402390778064728, 0.044946979731321335, 0.03255651891231537, 0.1562151312828064, 0.20584972202777863, 0.03649085760116577, -0.0880206897854805, 0.17586609721183777, 0.05317312851548195, 0.043037619441747665], [0.09751085937023163, -0.15120862424373627, -0.20909471809864044, -0.16851374506950378, -0.015854105353355408, -0.1508922427892685, 0.18205972015857697, 0.0498732253909111, -0.1409105658531189, -0.19009904563426971, 0.09163878113031387, -0.06426598876714706, 0.1125233918428421, -0.10411209613084793, 0.08043256402015686, -0.06764565408229828, 0.06778865307569504, -0.09347403049468994, 0.07453370094299316, 0.08093654364347458, 0.21649472415447235, 0.15767772495746613, 0.1213526725769043, -0.008685970678925514, -0.0967654436826706, 0.19819119572639465, -0.017119508236646652, 0.01934276521205902, 0.038153357803821564, -0.19331951439380646, -0.10934355109930038, 0.116823211312294], [-0.15616653859615326, 0.2170167714357376, -0.19665633141994476, 0.007920725271105766, 0.16845735907554626, -0.04191276803612709, 0.10770571976900101, 0.060709431767463684, 0.15345115959644318, -0.02228914387524128, 0.08773014694452286, 0.10411235690116882, 0.016679059714078903, 0.06723737716674805, -0.16185997426509857, -0.1811959147453308, 0.21335192024707794, -0.19806532561779022, -0.008266682736575603, -0.18231415748596191, -0.04538588225841522, 0.12495625019073486, -0.12811198830604553, -0.009026402607560158, -0.1726359874010086, 0.06612361967563629, 0.06294509768486023, -0.14665518701076508, -0.13738763332366943, -0.12040300667285919, -0.1290142983198166, 0.1801363080739975], [0.0009761699475347996, 0.14042417705059052, -0.008037575520575047, 0.07699694484472275, 0.06082051619887352, 0.040016770362854004, -0.17990757524967194, -0.12277322262525558, -0.17591702938079834, 0.0947783887386322, -0.11557615548372269, -0.1565382182598114, -0.1041315495967865, 0.2296387255191803, 0.1396072655916214, -0.060351692140102386, 0.19545617699623108, 0.022249653935432434, 0.17711296677589417, 0.022290784865617752, -0.06310664117336273, 0.0061555290594697, 0.07001982629299164, -0.12444004416465759, 0.06507498025894165, -0.08069783449172974, 0.1941656768321991, 0.1808674931526184, -0.018617738038301468, 0.03670993447303772, -0.04974646121263504, -0.17779166996479034], [-0.1950005739927292, 0.014078992418944836, -0.1132214292883873, 0.19923314452171326, -0.009574269875884056, 0.036044590175151825, -0.00369481323286891, 0.01871093176305294, -0.09255306422710419, -0.1518355906009674, -0.19381248950958252, -0.17075373232364655, 0.18954262137413025, 0.19682544469833374, 0.1965256631374359, -0.15757037699222565, -0.13022379577159882, 0.12988311052322388, 0.13080096244812012, -0.22821970283985138, 0.07840952277183533, -0.00390169071033597, 0.15401200950145721, -0.007077078800648451, 0.1993710845708847, 0.1954769492149353, 0.18149897456169128, 0.04236253723502159, 0.07324441522359848, -0.0008250628598034382, -0.13576006889343262, 0.19735199213027954], [-0.06656757742166519, -0.08472965657711029, 0.2295249104499817, 0.13898740708827972, 0.029236391186714172, -0.08703725785017014, -0.22977468371391296, 0.19662463665008545, 0.10698442906141281, -0.06924967467784882, -0.03487000614404678, -0.02628394588828087, 0.13224749267101288, 0.1941279023885727, 0.15284055471420288, -0.1097792461514473, 0.15795403718948364, -0.15702666342258453, -0.21790041029453278, 0.15819238126277924, -0.0031576165929436684, -0.06891337782144547, 0.17639146745204926, 0.04381107538938522, -0.16893328726291656, 0.09392254799604416, -0.07881263643503189, -0.14752031862735748, -0.053564004600048065, -0.027462881058454514, -0.12456566095352173, -0.17572858929634094], [-0.0972638875246048, 0.20089010894298553, -0.21354255080223083, 0.2274141162633896, -0.17955446243286133, -0.09747885912656784, -0.06665132939815521, 0.12288413941860199, -0.11509563028812408, 0.07961750030517578, 0.19774942100048065, -0.17445579171180725, -0.12812620401382446, 0.04182109609246254, -0.08602417260408401, -0.13411349058151245, 0.021598484367132187, 0.209370955824852, 0.12157618254423141, -0.13498979806900024, 0.1403045505285263, -0.18638856709003448, -0.08979088068008423, -0.11174287647008896, 0.22823724150657654, 0.1305418610572815, -0.028152775019407272, 0.05760109797120094, -0.15997235476970673, 0.014491957612335682, -0.06489989906549454, 0.0869416669011116], [0.042673058807849884, -0.1491093933582306, 0.05162239819765091, 0.07808561623096466, 0.1930602490901947, -0.1030602976679802, -0.18522676825523376, 0.05292279273271561, 0.19233523309230804, 0.2204582691192627, -0.04987165704369545, 0.12434159964323044, 0.17711295187473297, -0.027602802962064743, 0.1471121460199356, 0.003046994097530842, 0.03430347517132759, -0.23045943677425385, 0.10148543119430542, -0.195862278342247, 0.15202930569648743, 0.13130226731300354, -0.1707870066165924, -0.05447380617260933, -0.042437177151441574, 0.16321535408496857, 0.005608242936432362, -0.007463728077709675, -0.07016126811504364, -0.11280985921621323, -0.10887493193149567, 0.021073486655950546], [-0.019847357645630836, 0.1539657711982727, -0.014126650989055634, 0.22535458207130432, -0.14974819123744965, 0.0906153991818428, 0.223892942070961, 0.14768071472644806, -0.08991682529449463, -0.12165077030658722, -0.0017768694087862968, -0.03746100142598152, 0.21896237134933472, 0.03582090884447098, -0.04419967904686928, -0.10453232377767563, -0.07825598120689392, -0.19997018575668335, -0.09368349611759186, -0.025193916633725166, 0.08691753447055817, 0.13797177374362946, -0.13571882247924805, 0.06645693629980087, -0.1626897007226944, 0.11565472930669785, 0.23028899729251862, -0.03468252345919609, -0.14768661558628082, 0.08420007675886154, -0.1653929203748703, 0.09731999039649963], [0.07366102933883667, -0.11873555928468704, -0.01435939222574234, -0.10378184169530869, -0.003332645632326603, -0.07034311443567276, -0.07565337419509888, 0.008404764346778393, 0.06364370882511139, -0.03687916696071625, 0.06714564561843872, -0.11662064492702484, -0.16416792571544647, -0.13365060091018677, 0.1680513620376587, 0.12686298787593842, 0.020573455840349197, -0.012715756893157959, -0.20838521420955658, -0.2119261473417282, 0.02861071564257145, 0.08568640798330307, 0.15562492609024048, -0.2290230393409729, -0.1548755168914795, -0.10622556507587433, 0.11849672347307205, 0.19234518706798553, 0.07879356294870377, -0.08081084489822388, 0.1731407195329666, -0.09609141945838928], [0.05412549152970314, 0.173246368765831, -0.17118702828884125, -0.1842965930700302, -0.12264519184827805, -0.0989530012011528, 0.19452419877052307, -0.09339733421802521, -0.04834195226430893, 0.14296184480190277, 0.18564710021018982, 0.027427444234490395, -0.12737511098384857, 0.13718946278095245, 0.0758441910147667, -0.06364421546459198, 0.1315787434577942, 0.054876115173101425, -0.20277667045593262, -0.18156340718269348, -0.027371380478143692, -0.19535239040851593, 0.19988714158535004, -0.08347422629594803, -0.13800987601280212, -0.0039519756101071835, 0.18059971928596497, 0.15431462228298187, -0.11318753659725189, -0.17274968326091766, -0.1361617147922516, 0.13783685863018036], [0.05420907959342003, 0.022591441869735718, -0.1042175143957138, 0.15031197667121887, 0.1161603331565857, 0.089810810983181, -0.04773743450641632, -0.12260214984416962, 0.1840561032295227, 0.05701616778969765, 0.1866864413022995, 0.11926760524511337, 0.03502809628844261, 0.2097863405942917, -0.10213515907526016, -0.0874028280377388, -0.15516193211078644, 0.07276561856269836, -0.015003705397248268, 0.11454609781503677, 0.07684352993965149, 0.029762985184788704, 0.15808822214603424, -0.09819041192531586, -0.1735583394765854, 0.03643352538347244, -0.13038156926631927, 0.05411408841609955, -0.029391296207904816, 0.12212952226400375, -0.04821277782320976, 0.06919515877962112], [0.028543265536427498, 0.12773005664348602, -0.2012837529182434, 0.18315726518630981, -0.12474853545427322, -0.15637412667274475, 0.16531170904636383, -0.08767377585172653, 0.030244767665863037, -0.08144184201955795, -0.14642998576164246, -0.09292667359113693, 0.0743509978055954, -0.06318800896406174, 0.12458253651857376, -0.03289936110377312, 0.17742674052715302, -0.12731683254241943, 0.04922274500131607, -0.10457328706979752, -0.10695736855268478, 0.08071894198656082, -0.13711030781269073, -0.20154380798339844, 0.1152842715382576, 0.10689124464988708, -0.09731616824865341, 0.1858299821615219, 0.09888279438018799, -0.026460915803909302, 0.001652195118367672, -0.014429064467549324], [-0.16630145907402039, 0.031519997864961624, 0.10234863311052322, -0.010230188257992268, -0.12765933573246002, -0.20078250765800476, 0.10524290800094604, -0.1740237921476364, 0.06898173689842224, 0.16354724764823914, -0.16068828105926514, -0.1881011724472046, 0.20160864293575287, 0.09813185781240463, 0.23484840989112854, -0.18462218344211578, 0.16484223306179047, 0.0451703742146492, -0.13869114220142365, 0.1351374238729477, 0.05737018585205078, 0.11072911322116852, -0.11335450410842896, 0.0969475731253624, -0.18521001935005188, 0.13838770985603333, -0.0005359593778848648, 0.016583558171987534, 0.016397476196289062, -0.11559431999921799, -0.018287569284439087, -0.12457180768251419], [0.06879360973834991, -0.13911879062652588, 0.10104162991046906, 0.09880579262971878, -0.09764313697814941, 0.006155483424663544, -0.022670218721032143, -0.08788653463125229, -0.08716143667697906, 0.022448211908340454, 0.19042861461639404, -0.01242160890251398, 0.17992433905601501, -0.09046618640422821, -0.007210904732346535, 0.09330789744853973, -0.11989904195070267, -0.1699787974357605, 0.09257914870977402, -0.15294580161571503, 0.20625098049640656, -0.14099909365177155, -0.027406342327594757, -0.06155935674905777, -0.12681451439857483, 0.18569903075695038, 0.017381854355335236, -0.09718631207942963, 0.09330138564109802, -0.022707689553499222, -0.12211314588785172, 0.15952222049236298], [0.10769826173782349, 0.17309370636940002, 0.1050734892487526, 0.17501896619796753, -0.0035490607842803, 0.04264514148235321, -0.1362258791923523, -0.22802917659282684, 0.026925021782517433, 0.14500881731510162, -0.11714787781238556, 0.015073828399181366, -0.19119508564472198, 0.11991573870182037, 0.1115388423204422, -0.0786515399813652, -0.18346017599105835, 0.09165339171886444, 0.042430490255355835, 0.12194161117076874, 0.09908132255077362, 0.029675981029868126, -0.13710594177246094, -0.1300901174545288, 0.14271506667137146, 0.008835543878376484, -0.07617734372615814, 0.0175423976033926, -0.17498549818992615, -0.13399118185043335, -0.06314871460199356, 0.0734310895204544], [-0.22831957042217255, -0.00983591377735138, -0.10106968134641647, 0.14617176353931427, -0.17187929153442383, 0.0853484570980072, 0.18486596643924713, -0.14844673871994019, 0.01232074573636055, -0.06909950822591782, -0.085533507168293, 0.11202037334442139, -0.11272607743740082, 0.19965557754039764, 0.050545964390039444, 0.19755274057388306, 0.14162424206733704, 0.10673461109399796, 0.06320121884346008, 0.051773007959127426, 0.13672755658626556, 0.08650074154138565, 0.19788147509098053, 0.14544677734375, 0.16535751521587372, 0.16800150275230408, -0.016465403139591217, -0.15073609352111816, 0.1918969452381134, -0.0540943443775177, -0.02726549282670021, -0.17246609926223755], [0.029164530336856842, 0.22558169066905975, 0.20459185540676117, 0.08541352301836014, 0.16966842114925385, -0.10973816365003586, 0.16192549467086792, 0.0736575573682785, -0.040596265345811844, -0.036387987434864044, 0.08067803084850311, 0.1977146565914154, -0.16163533926010132, -0.21525628864765167, -0.19998550415039062, -0.11617802083492279, -0.045187026262283325, -0.14471159875392914, 0.02426338940858841, -0.038020431995391846, 0.18469499051570892, -0.1743856966495514, 0.06313718855381012, -0.05245998874306679, -0.07646000385284424, -0.2284352332353592, 0.016298264265060425, 0.038969188928604126, -0.03906511515378952, 0.0865558609366417, 0.015920748934149742, 0.1117849200963974], [0.12389803677797318, -0.13598963618278503, 0.11894309520721436, -0.09643004834651947, -0.08618249744176865, -0.13875427842140198, -0.06281561404466629, -0.12182927131652832, -0.12165293097496033, 0.02086275815963745, 0.13109895586967468, 0.18085570633411407, -0.10212428122758865, -0.06817688792943954, 0.08989880234003067, -0.02905813418328762, -0.08297710865736008, 0.08915812522172928, 0.046556632965803146, 0.1935003250837326, -0.0009566366206854582, 0.2132580429315567, 0.11544720828533173, -0.0716615691781044, 0.051892105489969254, 0.02769339084625244, 0.16002985835075378, -0.1284409612417221, -0.06100926920771599, 0.05982927978038788, -0.14084075391292572, 0.18563878536224365], [-0.06855298578739166, -0.1944245994091034, -0.08037593960762024, 0.052477020770311356, 0.19225063920021057, -0.14465616643428802, 0.1836993396282196, 0.04628807678818703, 0.17928096652030945, -0.007822268642485142, 0.11786988377571106, 0.06801658123731613, -0.04673934727907181, -0.03032858669757843, 0.025293579325079918, -0.15179049968719482, 0.1245475560426712, -0.005336805712431669, 0.01138804666697979, -0.0952966958284378, 0.1297508329153061, -0.09460568428039551, -0.010585218667984009, -0.11343947798013687, 0.19014351069927216, 0.1917044222354889, 0.1321154236793518, 0.1256333440542221, 0.20117351412773132, 0.13124045729637146, 0.07174605876207352, 0.10035986453294754], [0.09651739150285721, -0.07935163378715515, 0.017065707594156265, 0.10426575690507889, -0.011905266903340816, 0.09988263994455338, -0.2044084072113037, -0.09561420977115631, -0.14898689091205597, 0.036578621715307236, 0.2209375500679016, 0.056021638214588165, 0.12262913584709167, 0.009250475093722343, 0.08881832659244537, -0.04381647706031799, -0.20318111777305603, 0.07637670636177063, -0.00446634367108345, -0.09061698615550995, -0.1353587806224823, 0.14747294783592224, -0.07686817646026611, 0.16612385213375092, -0.08187127113342285, 0.1675119698047638, 0.2327261120080948, 0.1550859808921814, -0.018500810489058495, 0.20627346634864807, -0.12937013804912567, -0.05893354117870331], [0.02652357891201973, 0.20005905628204346, -0.12234950065612793, -0.044118478894233704, -0.03620828688144684, -0.18082067370414734, 0.03743334487080574, -0.0318150594830513, 0.003101017791777849, 0.20495571196079254, 0.042251747101545334, 0.10742746293544769, 0.13696230947971344, 0.21532772481441498, -0.12814033031463623, 0.054839346557855606, 0.08066296577453613, 0.19077357649803162, 0.2158764898777008, 0.08687389642000198, 0.05908050015568733, -0.027784425765275955, -0.18206827342510223, 0.012291628867387772, 0.10392988473176956, 0.017934713512659073, 0.019115395843982697, 0.09516464173793793, -0.1457514464855194, -0.10640940070152283, -0.020344087854027748, -0.07926341146230698], [0.017937973141670227, 0.018916811794042587, -0.16615553200244904, -0.041840046644210815, -0.1549033522605896, 0.20794938504695892, 0.09248554706573486, -0.1722809225320816, 0.17677536606788635, 0.13304011523723602, -0.10744854062795639, 0.17807842791080475, -0.03694422170519829, -0.07533866912126541, 0.070684053003788, -0.01950952410697937, -0.20230266451835632, 0.18031366169452667, -0.06795631349086761, 0.147772416472435, -0.07066481560468674, -0.106126569211483, -0.1713356226682663, -0.05821149796247482, -0.056069646030664444, 0.10390295088291168, -0.03877491503953934, -0.04880748689174652, 0.09053004533052444, -0.031738895922899246, 0.1753900945186615, 0.07035224884748459], [0.08936760574579239, -0.2097044587135315, 0.2117099016904831, 0.04712948575615883, -0.15882745385169983, 0.03427903354167938, 0.15683233737945557, -0.080568328499794, -0.0005562797887250781, 0.21926528215408325, 0.1972666084766388, 0.014196527190506458, -0.19155648350715637, 0.0998808816075325, -0.21289972960948944, -0.1987837553024292, -0.13771869242191315, -0.057818543165922165, 0.18377307057380676, 0.09352010488510132, 0.12425535172224045, 0.1132669597864151, -0.15675973892211914, -0.028986316174268723, -0.0779823586344719, 0.04088667407631874, -0.10131167620420456, 0.11902406811714172, -0.12675751745700836, 0.009747659787535667, 0.12846854329109192, 0.17035485804080963], [0.1445266157388687, -0.16923648118972778, -0.03281274065375328, 0.1450192928314209, -0.13167399168014526, -0.0531419962644577, 0.13176721334457397, -0.07922259718179703, -0.1034429594874382, 0.018155522644519806, -0.14555040001869202, 0.005621061660349369, 0.1437891721725464, 0.18246816098690033, -0.13245725631713867, -0.024361109361052513, -0.2023162990808487, 0.05184141919016838, 0.18253187835216522, -0.006792156957089901, 0.08960863202810287, -0.07977496832609177, 0.16033320128917694, 0.2170451283454895, -0.08228015154600143, 0.003063962794840336, -0.1627936065196991, -0.18943904340267181, -0.17640487849712372, -0.08763648569583893, -0.08548685163259506, 0.0533268079161644], [-0.08323018252849579, 0.02559380792081356, 0.15198907256126404, 0.19310422241687775, 0.1481284648180008, 0.13111567497253418, 0.19486023485660553, -0.07487599551677704, 0.06056542322039604, 0.08425465226173401, 0.04830327257514, 0.13683950901031494, 0.14115208387374878, 0.04693523049354553, 0.11650126427412033, 0.190738707780838, -0.226699560880661, -0.19453249871730804, -0.0929584726691246, -0.12802129983901978, 0.16205747425556183, 0.028489552438259125, -0.010397699661552906, -0.002685570390895009, -0.14034856855869293, 0.024448992684483528, 0.2002239227294922, -0.18500472605228424, -0.09127067029476166, 0.11744668334722519, 0.1576155573129654, 0.2190973311662674], [0.06261909008026123, -0.13841328024864197, 0.04422768950462341, 0.1721436232328415, 0.07368596643209457, 0.1708163619041443, 0.12617215514183044, 0.17840981483459473, -0.1780846118927002, 0.1494394838809967, 0.15763568878173828, -0.017684396356344223, 0.15983064472675323, 0.12241534888744354, 0.0470876470208168, 0.02229461260139942, -0.15382561087608337, 0.08715648204088211, 0.1779516488313675, 0.1269966959953308, 0.035382725298404694, 0.23253871500492096, 0.09226507693529129, -0.1651298552751541, 0.053396355360746384, -0.17766276001930237, -0.0960867628455162, 0.08222462981939316, -0.17656466364860535, -0.16864824295043945, -0.03851797804236412, 0.1498982459306717], [-0.12020759284496307, 0.003925480879843235, 0.20006409287452698, -0.1618720442056656, 0.10251792520284653, -0.10509883612394333, -0.05025654658675194, -0.17587892711162567, -0.08748051524162292, 0.0696299821138382, -0.13809478282928467, 0.10246746242046356, -0.1633254736661911, -0.07543987780809402, 0.2160443514585495, 0.07314886897802353, -0.06755927205085754, -0.18394918739795685, -0.04090116173028946, -0.23045694828033447, 0.12959837913513184, 0.19527950882911682, 0.09150268137454987, 0.05291924625635147, -0.09027793258428574, 0.22385156154632568, -0.11936251819133759, -0.11970363557338715, 0.10954011976718903, 0.07954780757427216, -0.1058555468916893, 0.22664110362529755], [-0.15208204090595245, 0.04471767693758011, -0.057568684220314026, 0.010141324251890182, 0.15389138460159302, 0.07954027503728867, -0.1717519909143448, -0.1410994529724121, -0.006199956871569157, 0.030945757403969765, -0.030355507507920265, -0.19884419441223145, 0.10901585221290588, 0.16905537247657776, -0.039412952959537506, -0.12140470743179321, -0.10788709670305252, -0.06717035174369812, 0.025672318413853645, -0.10033415257930756, -0.03477903828024864, -0.14936387538909912, -0.12290249019861221, 0.10040457546710968, -0.05724036693572998, -0.040651835501194, 0.07815549522638321, 0.01464345958083868, 0.23363733291625977, -0.12917450070381165, -0.10679253190755844, -0.0629872977733612], [0.10391274839639664, 0.15191535651683807, 0.023436419665813446, -0.12929941713809967, 0.013304747641086578, 0.06893280893564224, -0.22120852768421173, -0.16974103450775146, -0.19010967016220093, 0.010181684046983719, 0.17917469143867493, -0.14535275101661682, 0.15993571281433105, -0.0821622759103775, -0.07454313337802887, -0.1359397917985916, 0.1564309149980545, -0.003927723038941622, 0.13169898092746735, -0.09499737620353699, -0.06911492347717285, 0.031582385301589966, 0.007149423472583294, 0.15638068318367004, -0.11633816361427307, 0.05575759708881378, 0.1884261518716812, 0.14118428528308868, -0.12488022446632385, -0.1991192102432251, -0.133710116147995, 0.18554694950580597], [-0.1984332948923111, 0.2043016403913498, 0.06922212243080139, 0.08045104891061783, -0.1764114797115326, 0.018047606572508812, 0.16128017008304596, -0.0559413842856884, -0.15062637627124786, -0.05346907302737236, -0.13738442957401276, -0.16935457289218903, -0.0308823324739933, 0.08293657749891281, 0.05219841003417969, -0.07373363524675369, -0.18497619032859802, 0.08765323460102081, -0.028245016932487488, -0.0388011671602726, 0.21914231777191162, -0.004770907573401928, -0.10204795747995377, -0.07371781766414642, -0.1501549482345581, -0.05742601677775383, -0.21377867460250854, 0.050612322986125946, -0.10019264370203018, 0.13763278722763062, -0.0023438548669219017, 0.13169194757938385], [0.19583013653755188, -0.19386614859104156, -0.03195412456989288, 0.08516933023929596, 0.17626379430294037, -0.14177632331848145, 0.03292082995176315, 0.11808039993047714, -0.16505104303359985, -0.07835076749324799, 0.05039817839860916, -0.08135347813367844, 0.12494706362485886, -0.1178915873169899, 0.16218030452728271, -0.14330272376537323, 0.05995655059814453, 0.07369405031204224, -0.20555973052978516, -0.1849551945924759, 0.10623278468847275, 0.22098052501678467, -0.015597635880112648, -0.15983013808727264, -0.2236832082271576, -0.18203866481781006, 0.09687323868274689, -0.13913215696811676, 0.19742733240127563, 0.09539560973644257, -0.06558908522129059, -0.1347423940896988], [-0.13670241832733154, -0.19102869927883148, -0.020757609978318214, -0.17970019578933716, 0.12448013573884964, 0.17476865649223328, -0.025897856801748276, 0.08176281303167343, 0.031538233160972595, -0.023257866501808167, -0.08451008796691895, 0.11728589236736298, 0.08671105653047562, 0.09636375308036804, 0.007516404613852501, 0.13707853853702545, 0.16193976998329163, 0.011754394508898258, 0.10060179233551025, 0.2347560077905655, 0.0945374146103859, -0.07368715852499008, 0.051521215587854385, -0.17336338758468628, -0.022942304611206055, -0.18159951269626617, -0.059956472367048264, 0.05454818531870842, 0.04017334058880806, -0.15785087645053864, 0.14394427835941315, -0.07163943350315094], [-0.07656989246606827, -0.05554867908358574, -0.13673484325408936, 0.04960685223340988, -0.10318776220083237, 0.117966428399086, -0.18152326345443726, 0.13826628029346466, -0.0930408239364624, 0.05184231698513031, 0.11380283534526825, 0.2328042834997177, 0.1868101954460144, -0.09675075113773346, 0.07193250954151154, 0.08211497962474823, 0.04928125813603401, 0.11525101959705353, 0.22432929277420044, 0.22728897631168365, -0.004487143829464912, 0.040375564247369766, 0.15549367666244507, 0.11478149890899658, 0.0890084058046341, 0.23231717944145203, 0.14585396647453308, 0.10834712535142899, 0.05477706342935562, 0.19439451396465302, 0.16335052251815796, -0.08375542610883713], [0.09836364537477493, 0.10822132229804993, 0.1934177279472351, -0.18693067133426666, 0.14801079034805298, -0.012278104200959206, -0.060810163617134094, 0.11351977288722992, -0.060539133846759796, 0.04169938713312149, -0.20015211403369904, 0.1842813789844513, -0.05687866732478142, -0.17606358230113983, 0.14967845380306244, 0.041787922382354736, -0.14049884676933289, -0.016598429530858994, -0.17990389466285706, 0.06964057683944702, 0.019074149429798126, 0.051767151802778244, -0.10147763043642044, 0.1636626422405243, -0.101006880402565, 0.059104349464178085, 0.029426340013742447, -0.06470973044633865, -0.11617909371852875, 0.12478005141019821, 0.06356598436832428, -0.029127079993486404], [-0.033125437796115875, 0.16264593601226807, 0.1614392101764679, -0.1094735860824585, 0.06963378190994263, 0.07743658870458603, 0.22181446850299835, 0.07128604501485825, 0.13018997013568878, 0.06739667057991028, -0.1557113528251648, -0.03880269080400467, -0.058776918798685074, -0.03438461571931839, 0.1749124526977539, -0.02409309893846512, 0.09997277706861496, -0.11556914448738098, -0.14352144300937653, -0.16415725648403168, 0.09598484635353088, 0.16960705816745758, -0.07603317499160767, -0.08935481309890747, -0.11107752472162247, -0.022916976362466812, -0.06799397617578506, 0.1321939378976822, 0.08308954536914825, 0.11655481904745102, 0.0138913718983531, 0.0995030552148819], [-0.09828086197376251, -0.17159906029701233, -0.04358202964067459, -0.04357914626598358, -0.22186051309108734, 0.15163730084896088, 0.12339983135461807, 0.15784938633441925, -0.1645933985710144, 0.08287731558084488, -0.12738454341888428, -0.10496867448091507, -0.20467577874660492, 0.18197228014469147, -0.08750968426465988, 0.19466792047023773, -0.07629310339689255, 0.16794249415397644, -0.056062690913677216, 0.1449608951807022, 0.17265041172504425, -0.06340277940034866, -0.07047144323587418, -0.07084208726882935, 0.17751437425613403, -0.1610209047794342, 0.19643272459506989, 0.1752789318561554, 0.13134880363941193, 0.08336424082517624, -0.0360710546374321, -0.07369236648082733], [0.16338396072387695, 0.16048884391784668, -0.180789515376091, -0.04539996013045311, -0.166602224111557, -0.024319613352417946, 0.037498839199543, -0.1291746199131012, 0.12530921399593353, 0.04560746252536774, -0.14664864540100098, -0.09093376994132996, -0.042170654982328415, 0.08163795620203018, 0.048254892230033875, 0.10211720317602158, -0.13927248120307922, -0.20148126780986786, 0.174785315990448, -0.10304166376590729, -0.1497945338487625, -0.18260392546653748, 0.010016445070505142, 0.09963174909353256, -0.08056299388408661, -0.11530996859073639, 0.20110273361206055, -0.02567916177213192, 0.06301089376211166, -0.11452382057905197, -0.08198133111000061, 0.16259336471557617], [0.07592964917421341, -0.0035129257012158632, -0.12835709750652313, 0.09344927221536636, 0.13484519720077515, -0.16225335001945496, -0.023682286962866783, 0.062409061938524246, 0.1803928017616272, 0.22703352570533752, -0.1288410872220993, 0.07049744576215744, -0.09362083673477173, -0.05000494047999382, 0.16742287576198578, -0.010061833076179028, 0.11190837621688843, -0.1426633596420288, 0.07812471687793732, 0.10078560560941696, -0.20210331678390503, 0.20585013926029205, -0.04252444952726364, -0.15900462865829468, -0.17011937499046326, 0.06740697473287582, -0.02931653894484043, 0.22153663635253906, 0.1593642681837082, -0.028238246217370033, 0.17015068233013153, 0.07105492055416107], [-0.118557870388031, -0.05842927470803261, -0.21387693285942078, 0.18767423927783966, 0.003251843387261033, -0.11155559867620468, -0.08487308770418167, -0.10390375554561615, -0.0665125846862793, -0.12271053344011307, -0.13821245729923248, -0.06672046333551407, -0.19237999618053436, -0.15425056219100952, -0.21924422681331635, 0.12096685916185379, -0.04296914488077164, -0.11850427836179733, -0.03685309737920761, -0.19974304735660553, 0.047155946493148804, -0.13726334273815155, 0.05088888853788376, 0.008408725261688232, -0.0027392765041440725, 0.12114628404378891, -0.150697723031044, 0.11081071197986603, -0.15704813599586487, -0.1286841630935669, 0.16218410432338715, -0.18730691075325012], [0.056455858051776886, -0.0847877785563469, -0.19622443616390228, 0.05039926618337631, -0.045642100274562836, 0.08931723237037659, -0.1544761210680008, 0.04805983603000641, -0.14707711338996887, 0.014945169910788536, 0.17484065890312195, -0.14610977470874786, -0.019419606775045395, -0.16308414936065674, 0.040070973336696625, 0.16508103907108307, -0.036083195358514786, -0.07677585631608963, -0.03809480741620064, 0.20279981195926666, -0.22315621376037598, -0.09739842265844345, 0.08226504921913147, 0.030166786164045334, 0.1430201381444931, 0.001999527681618929, 0.13532261550426483, 0.046372026205062866, 0.07226850092411041, 0.030532971024513245, -0.11580771952867508, -0.08711929619312286], [0.1426754593849182, 0.12026984989643097, 0.10011789202690125, 0.10550456494092941, 0.09839179366827011, 0.01024297159165144, -0.13763466477394104, -0.16806776821613312, 0.2061011791229248, -0.06145181506872177, -0.09716815501451492, -0.21036005020141602, -0.09030168503522873, 0.13102376461029053, -0.06522059440612793, 0.17507578432559967, 0.09984140843153, -0.1721978485584259, -0.03858230262994766, -0.08406482636928558, 0.19430990517139435, 0.12730859220027924, -0.12853212654590607, -0.16709139943122864, -0.16541001200675964, -0.013130806386470795, 0.18514834344387054, -0.051856063306331635, -0.08608601987361908, 0.05212321877479553, -0.1728752851486206, -0.05087432637810707], [0.13333608210086823, 0.09417320042848587, -0.11389975249767303, 0.19697092473506927, -0.06306254118680954, 0.09044848382472992, 0.02581491507589817, 0.15380263328552246, 0.04098965972661972, 0.16024576127529144, -0.0014150440692901611, 0.020691365003585815, -0.021161306649446487, 0.18076691031455994, -0.17355281114578247, 0.13847926259040833, -0.08729151636362076, 0.09044821560382843, 0.1742733120918274, 0.045902252197265625, -0.19480076432228088, 0.039738789200782776, 0.04417048767209053, 0.18454812467098236, 0.10477808862924576, -0.16012254357337952, 0.056847430765628815, 0.15830421447753906, 0.19516539573669434, 0.04057423025369644, -0.011983810923993587, -0.18392932415008545], [-0.05331888794898987, -0.09163489937782288, -0.1321820318698883, 0.021958306431770325, 0.033326223492622375, -0.07608348876237869, -0.08885221183300018, 0.05121052637696266, -0.12328127771615982, -0.05094629526138306, -0.03557164594531059, -0.03009767271578312, 0.11703108996152878, -0.19575531780719757, -0.21028701961040497, -0.014233345165848732, -0.1510172188282013, -0.09164923429489136, -0.1916199028491974, -0.11111007630825043, -0.04562974348664284, 0.179368793964386, -0.1945342868566513, 0.026445316150784492, 0.036370523273944855, 0.11798572540283203, -0.17904336750507355, 0.10482322424650192, -0.15817523002624512, 0.011899672448635101, 0.18351754546165466, 0.02596176229417324], [-0.22920465469360352, -0.1626325100660324, 0.13435553014278412, -0.06690182536840439, 0.17151610553264618, 0.12247221171855927, -0.18133249878883362, 0.05087853968143463, 0.19063562154769897, 0.1074884906411171, 0.1542515605688095, -0.0799856185913086, -0.057441260665655136, -0.18988706171512604, 0.02358466200530529, -0.09220072627067566, 0.16146214306354523, 0.18465138971805573, 0.07711511105298996, 0.20580771565437317, 0.05212874710559845, -0.12492992728948593, -0.04727865010499954, -0.1791079193353653, 0.14866602420806885, -0.1989709436893463, -0.04443856328725815, 0.02598130702972412, -0.0770382285118103, 0.19290278851985931, -0.05220918729901314, 0.17911119759082794], [0.068894162774086, -0.19589754939079285, -0.056931428611278534, -0.2070697695016861, -0.09390268474817276, -0.20518960058689117, 0.19112452864646912, 0.07615921646356583, 0.18770655989646912, -0.10616396367549896, 0.12693527340888977, 0.16588181257247925, 0.14084704220294952, 0.022178569808602333, 0.14869146049022675, -0.11752964556217194, 0.10387612134218216, 0.06483665853738785, 0.09276696294546127, -0.19952020049095154, 0.07429806888103485, 0.020706549286842346, -0.20691131055355072, -0.11614177376031876, 0.044439446181058884, 0.2177114337682724, -0.07503854483366013, -0.013103378005325794, -0.14418625831604004, -0.01016970258206129, -0.06322034448385239, -0.04415632411837578], [0.14827775955200195, 0.0016179755330085754, 0.20108000934123993, -0.21517595648765564, 0.20297768712043762, 0.07112840563058853, 0.05746518820524216, 0.16262847185134888, -0.16741755604743958, 0.12935595214366913, -0.12176863104104996, -0.16902682185173035, -0.04632337763905525, 0.12464132905006409, -0.19957058131694794, -0.015916120260953903, -0.09808103740215302, -0.012351284734904766, 0.09665791690349579, 0.1637226790189743, 0.163344606757164, 0.07972721755504608, 0.1545436531305313, 0.1614667922258377, -0.0075575984083116055, 0.056583065539598465, 0.008331689983606339, -0.03708996623754501, -0.1402493268251419, -0.070513516664505, 0.02141442894935608, -0.11622312664985657], [0.012438789941370487, -0.13171347975730896, 0.1653006374835968, 0.02460094727575779, 0.020970705896615982, -0.19795235991477966, -0.1090254858136177, 0.036771513521671295, -0.07700872421264648, 0.005918476730585098, -0.03685687109827995, -0.16769321262836456, 0.17037424445152283, -0.18889547884464264, 0.10991798341274261, 0.042045220732688904, 0.015566251240670681, -0.11399276554584503, 0.1658979058265686, 0.10103586316108704, 0.016625678166747093, -0.045678190886974335, -0.06817955523729324, -0.03316042572259903, -0.10067807883024216, -0.04985552281141281, -0.005526022054255009, -0.15964779257774353, 0.13190633058547974, 0.004927277565002441, 0.03703676164150238, -0.005884864833205938], [0.1919366866350174, 0.2158208191394806, -0.01213530171662569, 0.06832908093929291, 0.1769264191389084, 0.22446298599243164, 0.013361566700041294, 0.0686458945274353, -0.14025190472602844, -0.026459772139787674, 0.10654271394014359, -0.2177840620279312, 0.16283974051475525, 0.049077510833740234, 0.2252630591392517, -0.02638699859380722, -0.01127387210726738, -0.03263877332210541, -0.16552972793579102, 0.19022206962108612, -0.18731915950775146, 0.06013035774230957, 0.11329235136508942, 0.06229594722390175, -0.08236442506313324, -0.22914624214172363, 0.18383388221263885, 0.0887654721736908, 0.04992057755589485, -0.18916714191436768, -0.17669762670993805, 0.0732145607471466], [0.18000763654708862, -0.16630347073078156, -0.12032954394817352, -0.15934564173221588, -0.1022997573018074, 0.08904372155666351, -0.13100339472293854, 0.18231113255023956, -0.20254164934158325, -0.030735477805137634, -0.23405419290065765, -0.1502152383327484, -0.05676659569144249, -0.014301626943051815, 0.15415164828300476, 0.05558214336633682, -0.004699190147221088, 0.1287420094013214, -0.017808696255087852, 0.1695387363433838, 0.17941612005233765, -0.10461214929819107, -0.027905909344553947, 0.01624799706041813, 0.09460967779159546, 0.1532556414604187, 0.10600700974464417, 0.1180885061621666, -0.03565242514014244, -0.0006494885310530663, 0.07596731185913086, -0.19148746132850647], [0.1799752116203308, -0.09836628288030624, 0.14458973705768585, -0.17721834778785706, -0.14754746854305267, -0.16098226606845856, -0.1729220151901245, -0.02821904793381691, 0.058199480175971985, -0.15621009469032288, 0.1918647438287735, 0.12012408673763275, -0.2208043932914734, -0.1379445195198059, 0.17967432737350464, 0.07981400936841965, -0.011355133727192879, 0.09930114448070526, 0.11005572974681854, -0.06921625882387161, -0.2268887460231781, 0.11935947090387344, 0.17395146191120148, 0.18768560886383057, -0.05881233140826225, 0.1455571949481964, 0.1630687713623047, -0.018919413909316063, 0.18188314139842987, -0.04297776147723198, -0.13319236040115356, -0.07735438644886017], [0.1839088648557663, -0.11225810647010803, -0.19002442061901093, -0.01478294376283884, 0.017334556207060814, 0.1389780342578888, 0.11477134376764297, 0.024802202358841896, 0.1487618386745453, 0.04254664108157158, 0.19106365740299225, 0.07708956301212311, -0.039451632648706436, 0.07989565283060074, -0.18472498655319214, -0.09279890358448029, 0.10404006391763687, 0.12354930490255356, -0.07011619955301285, -0.1211070865392685, 0.10039234906435013, 0.13408724963665009, 0.07206439226865768, 0.06690454483032227, -0.14177177846431732, -0.0017518256790935993, -0.00022842595353722572, -0.15915268659591675, 0.08471056073904037, 0.11502525210380554, 0.09183865785598755, -0.018046798184514046], [0.12735559046268463, -0.05387458950281143, 0.06468486785888672, -0.18658305704593658, 0.02923722192645073, 0.09258269518613815, 0.14116817712783813, -0.08069594204425812, 0.026977909728884697, 0.12104935944080353, -0.08050312101840973, 0.17884398996829987, 0.012103598564863205, 0.07154528051614761, -0.006754053756594658, -0.02668679691851139, -0.1734069287776947, 0.06979863345623016, 0.13142220675945282, 0.002995520830154419, -0.06330648809671402, 0.007380751892924309, -0.11868303269147873, -0.21550831198692322, 0.04451320692896843, 0.07665441185235977, -0.028779299929738045, -0.22473493218421936, 0.03800692781805992, -0.12596642971038818, -0.03996856510639191, -0.01351301372051239], [-0.032988205552101135, -0.12154539674520493, -0.06608107686042786, 0.010899494402110577, 0.06375236064195633, 0.19019946455955505, -0.06874290108680725, 0.21716177463531494, -0.0356314554810524, -0.006549195386469364, 0.19554264843463898, -0.18639077246189117, 0.05434063449501991, 0.059963516891002655, 0.1321525275707245, -0.10978551208972931, -0.12105090171098709, 0.18953555822372437, -0.17317861318588257, 0.12576934695243835, 0.09382247924804688, -0.1929747462272644, 0.09278939664363861, 0.14590206742286682, 0.16235099732875824, 0.21090146899223328, 0.10435234755277634, 0.16904489696025848, 0.13595989346504211, -0.1105964258313179, 0.06931906938552856, -0.13805429637432098], [0.033976610749959946, -0.02729134075343609, -0.13433204591274261, 0.12142298370599747, -0.03893806412816048, 0.2078045904636383, -0.19978134334087372, 0.07195155322551727, -0.03705138713121414, 0.03900229558348656, 0.06876537948846817, 0.1751893162727356, -0.18053466081619263, 0.17449577152729034, -0.12350279092788696, 0.2281905710697174, -0.17873463034629822, 0.15424880385398865, 0.051157139241695404, -0.16481508314609528, 0.06841714680194855, -0.1926255226135254, -0.11797987669706345, -0.1952732801437378, -0.0004889257252216339, 0.11319991946220398, -0.17360970377922058, -0.03863693028688431, -0.12991084158420563, 0.17084091901779175, 0.0015175738371908665, -0.016819629818201065], [0.02528088539838791, -0.1224568709731102, -0.19134622812271118, 0.015420520678162575, 0.05412463843822479, 0.06754257529973984, -0.021263521164655685, -0.17128710448741913, -0.13155989348888397, 0.11290986090898514, -0.19259858131408691, 0.046733953058719635, -0.08139103651046753, 0.15399552881717682, -0.0975852981209755, 0.04054195061326027, -0.17273873090744019, -0.09900126606225967, -0.08631259948015213, 0.13912445306777954, -0.16441603004932404, -0.16714885830879211, 0.11077923327684402, 0.15297831594944, 0.12306547909975052, -0.08403284847736359, -0.13975760340690613, 0.08612212538719177, 0.014148475602269173, 0.09553627669811249, 0.008305542171001434, -0.08792123943567276], [0.10342655330896378, 0.062476303428411484, -0.0647323802113533, -0.1719013899564743, 0.18097445368766785, 0.12013335525989532, -0.002392238937318325, -0.11315485090017319, 0.13952940702438354, 0.1656482219696045, 0.151528462767601, 0.1396845132112503, 0.07087045907974243, 0.0491812638938427, -0.03765762969851494, 0.0099888164550066, 0.1329643726348877, -0.0076206149533391, 0.08436111360788345, -0.22060364484786987, 0.19172890484333038, 0.14666181802749634, 0.15448427200317383, 0.15330912172794342, 0.01599537953734398, 0.06228259950876236, 0.16104252636432648, -0.1551634967327118, 0.04261017590761185, 0.04147107154130936, -0.13045082986354828, 0.0663023442029953], [0.16743655502796173, 0.09977354109287262, 0.07514680922031403, -0.12262219935655594, 0.12730146944522858, -0.14347761869430542, 0.03629618138074875, -0.10594882816076279, 0.1479354351758957, -0.05091230943799019, -0.010826379992067814, 0.06344124674797058, -0.19294816255569458, 0.20820464193820953, 0.04694396257400513, -0.14181040227413177, 0.08665306866168976, 0.12334030866622925, 0.010197566822171211, -0.1981809139251709, -0.14499714970588684, 0.16092677414417267, 0.08155172318220139, 0.04213182255625725, 0.029681546613574028, -0.13325251638889313, 0.14276491105556488, -0.1605585217475891, 0.02022884041070938, 0.05036868900060654, -0.2021200954914093, 0.05741189420223236], [0.02333974838256836, -0.01924990490078926, -0.10511721670627594, 0.22193315625190735, -0.13661526143550873, -0.09759791940450668, -0.2009434998035431, -0.02408989891409874, -0.1616298258304596, 0.1934119164943695, -0.0873817726969719, 0.1385905146598816, 0.0858326405286789, 0.08899261057376862, -0.04790857434272766, 0.15622681379318237, -0.1795298457145691, 0.1825510561466217, 0.005490826442837715, 0.005877538584172726, 0.10104115307331085, -0.12971165776252747, 0.030001403763890266, -0.1961541473865509, -0.07854263484477997, 0.0015121297910809517, 0.21847638487815857, -0.06568427383899689, -0.04439626634120941, 0.0822233259677887, 0.2323262244462967, -0.0005366075783967972], [0.007400112226605415, -0.07039167732000351, -0.023243069648742676, -0.01334434375166893, -0.06839247047901154, 0.002948424778878689, -0.18807309865951538, -0.15002183616161346, 0.04378677159547806, 0.1619018018245697, -0.11488401889801025, 0.16608011722564697, 0.21130041778087616, 0.18145373463630676, 0.203783318400383, 0.014869383536279202, -0.027563191950321198, 0.07320205122232437, 0.11189228296279907, -0.1381901204586029, -0.15499630570411682, 0.1966678947210312, 0.021461110562086105, -0.20076243579387665, 0.19356787204742432, 0.030351784080266953, -0.18737849593162537, -0.19981686770915985, -0.009079115465283394, -0.1971055120229721, -0.011701895855367184, -0.09352660179138184], [0.008918366394937038, 0.18886227905750275, 0.0481274239718914, -0.08464576303958893, -0.20852242410182953, -0.18636062741279602, 0.15983590483665466, 0.13514941930770874, 0.08206038177013397, 0.13764441013336182, -0.17641381919384003, 0.2083824872970581, 0.06729482114315033, -0.1945006400346756, 0.17790327966213226, 0.10214770585298538, 0.18519434332847595, 0.11816398799419403, 0.18800751864910126, 0.09723477065563202, -0.007945731282234192, -0.06045905873179436, 0.1982768028974533, 0.09679068624973297, -0.05118352547287941, -0.16378474235534668, -0.05091755837202072, 0.08502340316772461, 0.002255552913993597, -0.10852024704217911, 0.027812987565994263, -0.04624311998486519], [-0.0809297114610672, -0.16546835005283356, 0.15776236355304718, 0.11616457998752594, -0.13352888822555542, -0.05147537589073181, 0.19670547544956207, 0.0055398521944880486, 0.1155829206109047, -0.0026073120534420013, -0.050378210842609406, 0.10973997414112091, -0.0920730009675026, 0.17830920219421387, 0.15255044400691986, 0.05076182633638382, 0.15556952357292175, 0.07770566642284393, -0.03284751996397972, 0.07736619561910629, 0.06273559480905533, -0.1187654584646225, 0.005941770039498806, 0.03136998042464256, 0.18476134538650513, 0.0532984659075737, -0.1638694703578949, -0.11473168432712555, -0.051058314740657806, -0.09807302057743073, 0.08299456536769867, -0.03762724995613098], [0.16916145384311676, -0.1644245982170105, 0.02325357124209404, 0.09101597219705582, -0.14132222533226013, 0.09596388787031174, 0.03377487137913704, 0.14170202612876892, 0.08334114402532578, 0.07286451011896133, 0.0522109791636467, 0.05515224486589432, -0.01560964249074459, -0.11305439472198486, 0.20121845602989197, -0.10445868968963623, -0.0001064072857843712, 0.006336000747978687, 0.14992369711399078, -0.21921980381011963, -0.12208516895771027, 0.15230007469654083, 0.006264428608119488, 0.08674103766679764, -0.12521928548812866, 0.03119622729718685, 0.12864914536476135, -0.10479177534580231, 0.04735016077756882, -0.08796043694019318, 0.16359512507915497, 0.18465951085090637], [-0.013182481750845909, -0.10964899510145187, 0.047616634517908096, 0.1813931167125702, 0.07271958887577057, -0.01961558498442173, -0.03742608428001404, -0.2065115123987198, 0.15727189183235168, 0.05733674392104149, -0.07868800312280655, -0.10068939626216888, 0.010346809402108192, 0.012468986213207245, -0.07660150527954102, -0.15985235571861267, -0.16592076420783997, -0.10976924002170563, -0.137789785861969, -0.14946800470352173, 0.20088890194892883, 0.06796586513519287, -0.18657919764518738, 0.010039066895842552, -0.025099508464336395, 0.15511155128479004, 0.03232293948531151, -0.22240453958511353, -0.1118067130446434, 0.14291706681251526, 0.04088835045695305, 0.10755597054958344], [-0.14092811942100525, -0.2071124166250229, -0.011498753912746906, -0.22878749668598175, 0.007364981807768345, -0.14568214118480682, 0.013011472299695015, -0.09609998017549515, -0.12325169891119003, 0.09493102133274078, -0.19535307586193085, 0.010539486072957516, -0.22795812785625458, -0.11785412579774857, 0.1878931224346161, 0.0924413874745369, -0.09215240180492401, -0.1932552605867386, 0.10160171240568161, -0.10170529782772064, -0.1781100183725357, 0.12900425493717194, -0.07720072567462921, -0.12689027190208435, -0.21251368522644043, 0.0416448712348938, -0.22990399599075317, -0.029797937721014023, -0.07274329662322998, 0.1116006001830101, -0.1618497222661972, 0.1285189539194107], [-0.010180488228797913, 0.18521326780319214, -0.05172673985362053, 0.04751097783446312, -0.2075560986995697, 0.02684158831834793, 0.2331467866897583, 0.031850818544626236, -0.03320906683802605, -0.16340062022209167, 0.03426003083586693, 0.041025325655937195, 0.049639586359262466, 0.1176203191280365, -0.042920421808958054, 0.21048229932785034, 0.14180143177509308, -0.1982094794511795, -0.026856370270252228, 0.02072492614388466, 0.05036631599068642, -0.18788185715675354, 0.08388633280992508, 0.024738287553191185, -0.17385467886924744, -0.06495001912117004, -0.0872025191783905, -0.13982707262039185, 0.187754288315773, 0.009800858795642853, -0.21574044227600098, -0.022042181342840195], [0.14571313560009003, -0.10219249874353409, -0.024741441011428833, 0.042828842997550964, -0.1605931669473648, 0.07411880046129227, 0.16033156216144562, -0.1420004665851593, -0.03992582857608795, 0.13823054730892181, 0.06255257874727249, 0.0937134400010109, -0.138913094997406, 0.11816810071468353, -0.12827567756175995, 0.19669631123542786, -0.21142783761024475, -0.10072594881057739, 0.03487275540828705, -0.1478537768125534, -0.20018801093101501, 0.22275112569332123, -0.19721513986587524, -0.12973488867282867, 0.07269511371850967, -0.14913822710514069, -0.06372136622667313, -0.010618707165122032, 0.17037439346313477, 0.04211367294192314, -0.08171948045492172, -0.048664841800928116], [0.014198068529367447, -0.10963836312294006, -0.11662042140960693, -0.05716761574149132, -0.03571853041648865, 0.016427984461188316, 0.02794845774769783, 0.04501552879810333, 0.1504489630460739, -0.08136270940303802, -0.03840985149145126, -0.10392242670059204, 0.017194800078868866, 0.03687634691596031, 0.11855366080999374, -0.12023593485355377, 0.021874453872442245, -0.23008164763450623, 0.00730202067643404, -0.16989663243293762, 0.1596497893333435, -0.19569437205791473, -0.1778903305530548, -0.20581066608428955, 0.14717301726341248, -0.11962732672691345, -0.011162463575601578, 0.15147824585437775, 0.018238980323076248, 0.19822490215301514, 0.09011616557836533, -0.08125098049640656], [0.05040551722049713, 0.10928823053836823, -0.010068986564874649, -0.09181991219520569, 0.2219400852918625, -0.0866929441690445, 0.0786079466342926, -0.231988325715065, 0.08050345629453659, 0.07176394760608673, -0.13455983996391296, 0.15716156363487244, -0.17648638784885406, -0.19172440469264984, -0.13708500564098358, -0.021340452134609222, -0.07900602370500565, -0.1502552479505539, 0.060584552586078644, 0.2046370506286621, 0.156255304813385, -0.09002330899238586, 0.07630003988742828, 0.1785552054643631, 0.1945822536945343, 0.17485547065734863, 0.13637037575244904, 0.197761669754982, -0.020369350910186768, -0.09045615792274475, 0.15660519897937775, -0.0859176442027092]], "layers.0.attention.attn.in_proj_bias": [-0.01916787028312683, -0.01906658336520195, 0.015450977720320225, -0.015118371695280075, 0.013222450390458107, 0.014773068949580193, 0.0052727400325238705, 0.009010488167405128, 0.006213705986738205, 0.014821563847362995, -0.014210594817996025, 0.008068590424954891, -0.011336952447891235, 0.013005075044929981, 0.012831275351345539, -0.009967979043722153, 0.017589453607797623, 0.01755625382065773, -0.019961973652243614, -0.018007993698120117, -0.019656013697385788, -0.015566382557153702, 0.016107352450489998, 0.01761343516409397, 0.01985473558306694, 0.013463901355862617, -0.01743125542998314, -0.013345534913241863, -0.01584925316274166, -0.003460163250565529, 0.018545255064964294, -0.015296503901481628, -0.004030612297356129, 0.0010948472190648317, 0.003790619783103466, 8.35187966004014e-05, 0.00034301012055948377, -0.0059045907109975815, -0.0007371695246547461, -0.0004123253747820854, -8.35187966004014e-05, 0.00019383957260288298, -0.0023685931228101254, -0.002562832087278366, -0.0005016241339035332, 0.0008662219624966383, -0.0034714960493147373, 0.0012658784398809075, -0.003008357947692275, -0.007089694961905479, -0.005833505652844906, -0.0065427073277533054, -0.006221313029527664, -0.005337148904800415, -0.0030541475862264633, -0.004916621837764978, 0.001759686041623354, 0.0036849055904895067, 0.0054470025934278965, 0.005365890450775623, 0.0016520216595381498, -0.001487536123022437, -0.0071090757846832275, -0.0009075955604203045, -0.0033987085334956646, 0.010987390764057636, 0.012979116290807724, 0.014665370807051659, -0.0041409945115447044, 0.019766630604863167, 0.017013993114233017, 0.010861450806260109, 0.016556251794099808, -0.003577440045773983, 0.013317223638296127, -0.020010944455862045, 0.018220433965325356, 0.01713796705007553, 0.015478214249014854, -0.009476881474256516, 0.019631564617156982, 0.01752118393778801, 0.01990053430199623, -0.008769501000642776, 0.005820209160447121, -0.019880764186382294, -0.019041772931814194, 0.014446983113884926, 0.018315095454454422, -0.009043117053806782, -0.019223103299736977, 0.013687142170965672, 0.017260121181607246, 0.009633325040340424, -0.01614375412464142, 0.01971611939370632], "layers.0.attention.attn.out_proj.weight": [[-0.0834478959441185, -0.06392830610275269, -0.014270416460931301, 0.20119518041610718, 0.23032572865486145, -0.01101855468004942, 0.09156239032745361, 0.19544784724712372, -0.0020279046148061752, -0.04359082505106926, 0.20153607428073883, 0.3202468454837799, -0.19272269308567047, 0.13976748287677765, -0.006557186134159565, -0.231086865067482, 0.04726868122816086, 0.055884454399347305, -0.16751356422901154, -0.1100749596953392, 0.28657230734825134, 0.13985255360603333, -0.021602705121040344, -0.13598568737506866, 0.02480543777346611, 0.2938292622566223, -0.25717201828956604, -0.05035225301980972, -0.21199347078800201, -0.1489589363336563, 0.21321897208690643, 0.07888013869524002], [0.16934210062026978, 0.14824379980564117, -0.1655048131942749, 0.11529867351055145, -0.13519082963466644, -0.31574520468711853, 0.12948909401893616, 0.22729617357254028, -0.18833905458450317, -0.052538637071847916, -0.03417756035923958, -0.13842852413654327, -0.1475406289100647, 0.25585633516311646, 0.2860564589500427, 0.09198477864265442, -0.24035315215587616, -0.1953565776348114, -0.19107694923877716, -0.017713705077767372, 0.24768270552158356, 0.13572654128074646, -0.2585604786872864, 0.14899514615535736, 0.16256164014339447, 0.17137712240219116, -0.195730522274971, 0.11146631091833115, 0.1568729281425476, -0.06893287599086761, 0.22850896418094635, 0.04240542650222778], [-0.10326514393091202, -0.033833764493465424, -0.10871711373329163, 0.0908985584974289, 0.07264150679111481, -0.08069134503602982, 0.22706390917301178, 0.10783883184194565, 0.13326843082904816, -0.1985826939344406, 0.17819246649742126, -0.09354321658611298, 0.13257014751434326, -0.021787162870168686, 0.15960559248924255, 0.25676390528678894, -0.21696513891220093, 0.13776803016662598, 0.12333327531814575, 0.23537886142730713, -0.12581083178520203, 0.15086184442043304, 0.12105627357959747, -0.2243417650461197, -0.2890453338623047, -0.013799862936139107, -0.24178078770637512, 0.08778618276119232, -0.1356617659330368, 0.19188420474529266, 0.15937447547912598, 0.021444598212838173], [0.17566396296024323, 0.041234035044908524, -0.2384379506111145, -0.2500288486480713, 0.08956824988126755, 0.1592138260602951, -0.30957937240600586, -0.014199907891452312, -0.12156336009502411, -0.29613956809043884, -0.24898841977119446, -0.17166876792907715, -0.06144712120294571, -0.16906589269638062, 0.04134153947234154, -0.007334263529628515, -0.10253942757844925, 0.09870552271604538, -0.31408923864364624, -0.08442504703998566, -0.07515248656272888, 0.14441655576229095, 0.15130463242530823, -0.27380484342575073, 0.03874308615922928, -0.01522236131131649, -0.2008516639471054, -0.24577847123146057, -0.19570785760879517, -0.06107355281710625, 0.22557228803634644, -0.26500993967056274], [0.06850884109735489, 0.06407769024372101, 0.2613567113876343, 0.009874303825199604, -0.137166827917099, 0.19130773842334747, -0.2558425962924957, -0.050587113946676254, 0.19428220391273499, -0.10488994419574738, -0.025029515847563744, 0.055564481765031815, 0.23132067918777466, -0.02236737497150898, -0.30495160818099976, 0.0270924624055624, 0.1560652107000351, 0.07534489035606384, -0.1379310041666031, -0.14637795090675354, 0.25571122765541077, 0.23349174857139587, -0.08452827483415604, -0.14248645305633545, 0.06828944385051727, -0.13565394282341003, 0.049090396612882614, 0.11012450605630875, -0.20778276026248932, -0.13586664199829102, 0.037776365876197815, -0.06682122498750687], [0.10787241160869598, -0.07468140870332718, 0.20054106414318085, -0.2698618471622467, -0.13927190005779266, 0.16631007194519043, 0.3012358844280243, -0.08568491786718369, 0.14360825717449188, 0.06275507807731628, -0.08551854640245438, -0.2928367257118225, 0.08979548513889313, 0.2636943757534027, -0.046031031757593155, 0.05676945298910141, 0.022780586034059525, 0.026196397840976715, -0.1241096779704094, 0.2846490740776062, 0.12420763820409775, -0.028852000832557678, 0.048476822674274445, -0.09868218004703522, 0.09771191328763962, 0.13742467761039734, 0.006010615266859531, -0.02132106013596058, -0.15192954242229462, -0.06797731667757034, 0.028104569762945175, 0.22306111454963684], [0.2769392728805542, -0.034193314611911774, -0.04382073134183884, 0.09896920621395111, 0.25007548928260803, -0.22847366333007812, -0.30586594343185425, -0.07298097014427185, 0.15576283633708954, -0.06268874555826187, -0.08517484366893768, -0.29791343212127686, 0.14372611045837402, -0.2208339273929596, -0.020523428916931152, 0.14999909698963165, 0.06887064129114151, -0.05895266309380531, 0.2127234786748886, 0.24967755377292633, -0.27199506759643555, -0.20588678121566772, -0.03205994516611099, 0.07015231251716614, 0.018160894513130188, -0.055271293967962265, -0.31490084528923035, -0.08969692140817642, -0.20629757642745972, -0.14411002397537231, 0.22085729241371155, -0.26723533868789673], [0.03758466616272926, -0.28744685649871826, -0.08762884885072708, -0.03291380777955055, 0.017790287733078003, 0.13334544003009796, 0.2726156413555145, -0.21407876908779144, -0.07818260043859482, 0.02244875207543373, -0.2317398637533188, -0.23880620300769806, -0.27900516986846924, 0.18384069204330444, -0.07305802404880524, -0.05182569473981857, 0.30126774311065674, -0.286821573972702, 0.2309393286705017, -0.2638510465621948, 0.14415760338306427, 0.2913525104522705, -0.16469798982143402, -0.2078782469034195, 0.09969143569469452, -0.035565365105867386, -0.05809243395924568, -0.24342958629131317, -0.2434440702199936, -0.08047444373369217, -0.20070144534111023, 0.04146923869848251], [0.02814965322613716, 0.14224299788475037, 0.20290794968605042, -0.050707582384347916, -0.03901190683245659, -0.00391268078237772, -0.14394260942935944, -0.10604110360145569, -0.2538130283355713, 0.04017011821269989, -0.171378493309021, -0.2855032682418823, -0.22365827858448029, -0.09256170690059662, 0.21878767013549805, 0.051941342651844025, -0.2695687711238861, 0.1551838517189026, -0.09750544279813766, -0.15212997794151306, 0.22432175278663635, 0.26409536600112915, 0.12420294433832169, -0.08280550688505173, -0.29038113355636597, 0.11904298514127731, 0.16577228903770447, 0.19400963187217712, 0.10936113446950912, 0.09002663195133209, 0.21236836910247803, 0.014968153089284897], [0.057300765067338943, -0.16005682945251465, 0.20929409563541412, -0.20643971860408783, 0.04272163286805153, -0.030577801167964935, -0.2391204982995987, 0.12898342311382294, -0.2164924591779709, 0.2180410623550415, -0.1993606686592102, 0.05450158938765526, -0.0727037712931633, -0.12044689059257507, 0.07605215162038803, -0.10211742669343948, -0.03531140834093094, -0.14155885577201843, -0.15936309099197388, 0.20220060646533966, 0.12153911590576172, -0.18311288952827454, -0.24520647525787354, -0.13858328759670258, -0.18876022100448608, -0.05769556760787964, 0.18204012513160706, -0.18420405685901642, -0.22930973768234253, -0.17845940589904785, 0.06433368474245071, 0.07361818850040436], [0.12680281698703766, 0.2419041097164154, 0.13017244637012482, 0.23064634203910828, -0.12437509000301361, -0.006702675484120846, 0.04047325253486633, -0.1213119849562645, -0.2174498736858368, -0.0348498597741127, 0.2734668254852295, -0.014853550121188164, -0.18664896488189697, 0.1620834767818451, -0.15352702140808105, -0.04527778923511505, -0.3151725232601166, -0.1987227201461792, -0.20065928995609283, 0.2302665114402771, -0.29957228899002075, 0.07820633798837662, 0.21773922443389893, 0.010589666664600372, 0.16697534918785095, -0.1910533308982849, -0.199241042137146, 0.2681739032268524, 0.23552146553993225, -0.15104791522026062, -0.2636180520057678, -0.07350495457649231], [0.06711544096469879, -0.16103379428386688, 0.10518687218427658, -0.06145872548222542, -0.05126702040433884, -0.0784299299120903, 0.16522100567817688, -0.25285765528678894, 0.08274262398481369, 0.03252366930246353, -0.0843866765499115, 0.18094417452812195, -0.1738767921924591, 0.13868454098701477, 0.2437523603439331, 0.179853618144989, -0.21579502522945404, -0.20981056988239288, -0.13999758660793304, 0.18052536249160767, 0.10434292256832123, -0.015569034963846207, 0.22818028926849365, -0.05115899071097374, -0.147504523396492, 0.015376798808574677, 0.015673696994781494, 0.0021694316528737545, -0.24586671590805054, 0.05646590143442154, -0.03514077141880989, -0.09612897783517838], [0.06643486022949219, -0.004444672726094723, -0.01998075470328331, 0.2792479991912842, 0.24771234393119812, -0.1796955019235611, -0.030461857095360756, 0.20989570021629333, 0.09659668803215027, -0.2063141018152237, -0.15326230227947235, -0.13754115998744965, -0.2996770143508911, -0.26149308681488037, 0.14727665483951569, -0.23063714802265167, 0.154171884059906, 0.20175541937351227, -0.14590930938720703, 0.2818290591239929, 0.026050321757793427, -0.2812928855419159, -0.04477231577038765, -0.183742493391037, 0.1198297068476677, -0.2207782119512558, -0.042616378515958786, -0.10990381985902786, 0.27715766429901123, 0.21195337176322937, -0.20033130049705505, -0.1527620553970337], [0.2879967987537384, 0.2655668258666992, 0.15280646085739136, 0.25949734449386597, -0.23231729865074158, -0.22734427452087402, 0.22523361444473267, -0.16372789442539215, 0.10912986099720001, 0.13014815747737885, 0.1453757882118225, 0.2175491452217102, -0.2665049433708191, 0.07980768382549286, -0.07732584327459335, -0.1719178706407547, 0.10976700484752655, -0.006740069482475519, -0.10798414796590805, -0.02061815932393074, -0.11349590122699738, -0.2489006370306015, -0.07465387135744095, -0.22454418241977692, 0.12396297603845596, 0.06809134036302567, -0.1508997678756714, -0.032809626311063766, -0.15574149787425995, 0.11962877213954926, 0.30721089243888855, 0.27266114950180054], [-0.15384945273399353, -0.26252904534339905, -0.10133791714906693, -0.09011209011077881, -0.27227845788002014, -0.21697326004505157, -0.007428721524775028, 0.029816465452313423, 0.11198901385068893, -0.2284124791622162, -0.013259806670248508, 0.19675827026367188, 0.039107806980609894, 0.059546731412410736, 0.19376786053180695, 0.05331750959157944, -0.07765407115221024, -0.2782031297683716, 0.09559507668018341, -0.21656900644302368, -0.2042689323425293, 0.2612755000591278, -0.0007272111251950264, 0.2147572636604309, 0.2088216245174408, -0.06666988134384155, 0.014735039323568344, 0.20784106850624084, -0.18638640642166138, 0.15627649426460266, -0.1912384331226349, 0.2554701864719391], [-0.04127562791109085, -0.17904601991176605, -0.2615043818950653, -0.12605717778205872, -0.258601576089859, -0.05466403067111969, -0.2576102912425995, -0.0013873856514692307, 0.10059939324855804, -0.17264792323112488, -0.2142489105463028, -0.2129906713962555, -0.28274035453796387, 0.08750660717487335, -0.034304410219192505, 0.009845700114965439, 0.09892386198043823, -0.10695803910493851, -0.11779239773750305, 0.28825315833091736, 0.16741302609443665, 0.27592816948890686, 0.2774389386177063, 0.2290298193693161, -0.08731245249509811, 0.2514213025569916, 0.22460024058818817, -0.007431832142174244, -0.1146240383386612, 0.1446603536605835, 0.15538547933101654, 