{"embedding.embedding.weight": [[0.061271265149116516, 0.2758389711380005, 0.31388965249061584, 0.0730322077870369, 0.03304022178053856, 0.18275867402553558, 0.16416504979133606, 0.008657737635076046, -0.06012975051999092, -0.06206822395324707, 0.3471318185329437, 0.01893995702266693, -0.06743083149194717, -0.10211218893527985, 0.012890509329736233, -0.3270711600780487, -0.039548277854919434, -0.1788620799779892, -0.054224371910095215, 0.20175477862358093, -0.24905839562416077, 0.23778147995471954, -0.11418455839157104, -0.13915054500102997, -0.08216948807239532, -0.2163960486650467, 0.18756651878356934, 0.05538677051663399, 0.25821784138679504, -0.1627189666032791, 0.01236175186932087, -0.2946809232234955], [0.0609232522547245, -0.33938392996788025, -0.2581152319908142, 0.058125030249357224, -0.06628739833831787, 0.0843721404671669, -0.04473287984728813, 0.05516045168042183, -0.13384020328521729, -0.058805566281080246, -0.027749720960855484, 0.058915719389915466, 0.14830945432186127, -0.21794992685317993, -0.15735407173633575, 0.21973714232444763, 0.24647967517375946, -0.0127096651121974, 0.18970225751399994, 0.2336382120847702, 0.13159066438674927, -0.09734518080949783, 0.07821547985076904, -0.0529954768717289, -0.09232036769390106, -0.14097604155540466, -0.07380770891904831, 0.2255365401506424, -0.3581385314464569, -0.20384372770786285, -0.021655647084116936, 0.17028392851352692], [0.055016644299030304, -0.153982475399971, -0.29605722427368164, -0.08458083122968674, -0.08130716532468796, -0.10295689105987549, -0.1655436009168625, 0.40066322684288025, 0.23583856225013733, 0.10611453652381897, -0.0849262923002243, 0.12175251543521881, 0.08816566318273544, 0.19623681902885437, 0.03275253251194954, -0.18891362845897675, -0.3386610448360443, 0.18795588612556458, 0.20245987176895142, -0.12993869185447693, 0.10413506627082825, 0.012795304879546165, 0.07709889113903046, 0.1390935629606247, 0.07333710789680481, -0.05356798693537712, -0.08562155067920685, -0.057718515396118164, -0.17885074019432068, 0.031923145055770874, 0.04574929177761078, -0.11299365013837814], [0.18046893179416656, 0.23415574431419373, -0.012838480062782764, -0.006291365250945091, -0.02508065104484558, -0.2495015561580658, -0.26796755194664, 0.07204663008451462, -0.08949893712997437, 0.27939727902412415, -0.3489188551902771, 0.08934011310338974, -0.02811238542199135, 0.1911698877811432, -0.08828983455896378, -0.22787725925445557, 0.15555013716220856, -0.011129746213555336, 0.26912713050842285, 0.03711048513650894, 0.24413444101810455, -0.06812914460897446, 0.3132021725177765, -0.12595021724700928, 0.15938952565193176, -0.02789936400949955, -0.008732136338949203, 0.05807261914014816, -0.1932893842458725, -0.03871983662247658, -0.026681028306484222, -0.048341065645217896], [0.010609799064695835, -0.41024577617645264, -0.32462364435195923, -0.07718591392040253, -0.2928427755832672, -0.10826705396175385, 0.3218446671962738, -0.014859969727694988, 0.19469942152500153, 0.1225019320845604, 0.09181060642004013, 0.09188402444124222, 0.1430031657218933, -0.022006046026945114, -0.16297510266304016, 0.04332089424133301, -0.11777669936418533, -0.1067100390791893, 0.13142286241054535, -0.18835362792015076, -0.1494271159172058, -0.02841792441904545, 0.1401359885931015, -0.0013461122289299965, -0.1471567451953888, 0.060103610157966614, 0.42015743255615234, -0.11487328261137009, -0.046787478029727936, 0.042684346437454224, -0.12163221836090088, -0.011220289394259453], [-0.032827362418174744, -0.009110999293625355, -0.029112085700035095, -0.07797123491764069, 0.05996821075677872, 0.13978272676467896, 0.14202742278575897, -0.022101590409874916, 0.16394829750061035, 0.14231939613819122, -0.08199843764305115, 0.004631051793694496, 0.0792040005326271, -0.15223917365074158, -0.1507135033607483, 0.19380953907966614, 0.16885627806186676, -0.21165969967842102, 0.2252313196659088, 0.05493743717670441, 0.0922999158501625, 0.2037709653377533, 0.4266905188560486, 0.3090686798095703, -0.1670605093240738, 0.06581968069076538, -0.19990013539791107, 0.18731144070625305, 0.1593565195798874, 0.1419859230518341, 0.04867391660809517, 0.03571971133351326], [-0.19637642800807953, 0.027931619435548782, -0.20207396149635315, 0.08233574777841568, -0.05894654244184494, 0.20883767306804657, 0.2892022132873535, 0.22698217630386353, -0.23535090684890747, 0.13398665189743042, -0.2263207733631134, -0.2013809233903885, 0.08007211983203888, 0.16189265251159668, -0.16559231281280518, 0.027974680066108704, -0.4022437334060669, -0.11802998185157776, 0.06442862749099731, 0.1752476543188095, -0.2734140157699585, 0.1738736629486084, 0.0677507296204567, 0.04034010320901871, 0.051066264510154724, -0.037567105144262314, 0.3064790368080139, -0.1364690214395523, 0.08167313039302826, 0.3965630829334259, -0.15353430807590485, 0.06506240367889404], [-0.03918951749801636, 0.1561729907989502, -0.16406269371509552, -0.02547285705804825, -0.10574913024902344, -0.1308046132326126, 0.03784170746803284, 0.09933511912822723, -0.025438908487558365, 0.08561459183692932, -0.042922042310237885, -0.014571787789463997, 0.12453807145357132, -0.029745198786258698, -0.01337329763919115, -0.12417661398649216, -0.11668317764997482, -0.13158561289310455, 0.06936878710985184, 0.014687903225421906, 0.30733513832092285, 0.10872611403465271, -0.12635590136051178, -0.33453741669654846, -0.102648064494133, 0.11963827908039093, 0.18772707879543304, 0.01770136132836342, 0.2911616265773773, 0.07168671488761902, 0.08811447024345398, -0.054710470139980316], [-0.2740446925163269, 0.15066424012184143, -0.3159581124782562, -0.011725138872861862, 0.1630304902791977, 0.44483205676078796, -0.22281622886657715, -0.03952817991375923, -0.04149444401264191, 0.6327475309371948, 0.27449601888656616, 0.0369412824511528, -0.2313021421432495, 0.03185337036848068, -0.028664348646998405, 0.2205520123243332, 0.131673663854599, -0.06564225256443024, -0.2625776529312134, -0.4284271001815796, -0.6138259172439575, 0.28731822967529297, 0.03232806175947189, 0.22664426267147064, -0.22038787603378296, -0.02852974832057953, -0.10767893493175507, 0.00801072083413601, -0.3998411297798157, -0.2535409927368164, -0.17652495205402374, -0.06509004533290863], [0.2542150020599365, 0.16500447690486908, -0.11139941960573196, 0.09218734502792358, 0.06747081130743027, 0.03354422748088837, 0.35594525933265686, 0.2703835368156433, 0.1718064844608307, 0.017032010480761528, 0.1466665416955948, 0.054237645119428635, -0.09029428660869598, -0.15705056488513947, -0.03713361918926239, 0.05333065614104271, 0.08708880841732025, -0.11921357363462448, -0.10502392053604126, -0.09680144488811493, 0.02337822876870632, 0.19924703240394592, 0.009804817847907543, -0.02094695344567299, -0.0992736741900444, 0.2350766956806183, -0.04697973653674126, 0.10108103603124619, -0.022344330325722694, -0.1088729128241539, 0.13516563177108765, 0.0536804161965847], [-0.05951292812824249, -0.29319000244140625, -0.12090177088975906, -0.3341091275215149, -0.3914848268032074, -0.11794423311948776, 0.012959594838321209, -0.6256893277168274, 0.09382795542478561, -0.06345690786838531, 0.08589576184749603, 0.0735984519124031, -0.23537777364253998, -0.13453510403633118, 0.07035204023122787, -0.147202268242836, 0.007658472750335932, 0.05363231524825096, 0.08818545937538147, -0.17631471157073975, -0.09912870079278946, 0.07055967301130295, -0.07688161730766296, -0.07359643280506134, 0.05728201940655708, 0.25509408116340637, -0.1373700648546219, 0.15990568697452545, 0.09845562279224396, -0.05234931781888008, -0.20207466185092926, 0.38349467515945435], [-0.08693403005599976, 0.18342697620391846, 0.1488134115934372, -0.5318445563316345, -0.03148796036839485, -0.09188424795866013, -0.07560534030199051, -0.08379087597131729, -0.10537321120500565, 0.2304997444152832, -0.15108883380889893, 0.15561549365520477, 0.26843687891960144, -0.12305101007223129, 0.0034620503429323435, -0.13439765572547913, -0.20265565812587738, -0.05425135791301727, -0.16093389689922333, 0.04635335132479668, 0.17066295444965363, 0.037096742540597916, -0.0017118760151788592, -0.1874794363975525, 0.32472196221351624, 0.07590606063604355, 0.1744597852230072, 0.20664279162883759, 0.028650186955928802, 0.19398929178714752, -0.01406935229897499, 0.08425771445035934], [0.3078322112560272, 0.07565805315971375, -0.08378659188747406, 0.22409947216510773, 0.014020873233675957, -0.18242047727108002, -0.08131323009729385, 0.06952600181102753, 0.057048503309488297, -0.041200023144483566, -0.4364953339099884, -0.332313597202301, -0.1046975627541542, -0.013006393797695637, 0.006130265071988106, 0.28481271862983704, 0.05388854444026947, 0.14904339611530304, -0.3669225871562958, 0.2333367019891739, -0.12975743412971497, -0.00403749942779541, 0.11666737496852875, 0.029771655797958374, -0.04906126484274864, -0.21524569392204285, 0.2980780601501465, 0.21890442073345184, 0.1136934831738472, -0.35311073064804077, 0.011656723916530609, 0.3980550467967987], [0.3289017081260681, 0.07150965929031372, -0.39367052912712097, 0.13494007289409637, -0.15815502405166626, 0.24124765396118164, 0.2109536975622177, -0.1975879818201065, -0.21185176074504852, 0.06135713309049606, 0.0347074456512928, -0.28592365980148315, -0.017701026052236557, -0.16605545580387115, -0.016821734607219696, 0.24237160384655, 0.28505197167396545, -0.009542143903672695, 0.049388278275728226, -0.05190318822860718, 0.5582134127616882, 0.21319986879825592, 0.04377755895256996, -0.08652804046869278, 0.06865145266056061, -0.172322079539299, 0.14900289475917816, 0.2966187298297882, -0.15734708309173584, 0.00488360645249486, -0.2930828332901001, -0.1072569191455841], [-0.0536569319665432, -0.08229266107082367, 0.263387531042099, -0.213087797164917, 0.04724331200122833, 0.12986880540847778, 0.28577613830566406, 0.04336737096309662, 0.14033184945583344, 0.08203691244125366, 0.32858070731163025, -0.016258353367447853, 0.4058373272418976, 0.16877180337905884, 0.040860433131456375, -0.028222722932696342, 0.32382532954216003, -0.3252512216567993, -0.20424552261829376, -0.15396422147750854, 0.04459616541862488, -0.042480334639549255, -0.09954016655683517, -0.2911838889122009, -0.25066816806793213, -0.02047712728381157, 0.1303064376115799, 0.21738559007644653, 0.3445855379104614, 0.07714103907346725, 0.13922223448753357, -0.0055136955343186855], [0.04058095067739487, -0.2776015102863312, -0.10331634432077408, -0.043781209737062454, 0.03516510874032974, 0.2355174869298935, 0.0189509317278862, -0.2868751883506775, -0.24056075513362885, -0.07960924506187439, 0.10222028195858002, -0.002846703864634037, -0.06181918457150459, -0.11953280866146088, 0.09113612025976181, -0.04251594841480255, 0.11879824101924896, -0.044903066009283066, -0.06742178648710251, -0.1530689299106598, 0.02058016136288643, -0.044576246291399, 0.20251251757144928, -0.014396699145436287, 0.26519307494163513, 0.1820518970489502, 0.10580655187368393, -0.2646406292915344, 0.09265489131212234, 0.2741665840148926, -0.28342193365097046, -0.06641388684511185], [-0.23098354041576385, -0.1623142957687378, -0.2894379794597626, -0.14743581414222717, -0.06916917115449905, 0.04667748510837555, -0.05662090331315994, 0.13093215227127075, 0.48710930347442627, -0.022118110209703445, 0.0009197909384965897, 0.19777469336986542, 0.030394457280635834, 0.07796284556388855, -0.10161788761615753, 0.009326423518359661, 0.2215600162744522, -0.2301027923822403, 0.16574710607528687, 0.21226374804973602, 0.0544251874089241, 0.10026507079601288, 0.07533349096775055, -0.06148557364940643, 0.2921202778816223, 0.11110398173332214, 0.06128166243433952, -0.12248475104570389, -0.05594916269183159, -0.36860108375549316, 0.20502696931362152, -0.2098197638988495], [-0.26424744725227356, 0.18629170954227448, -0.017809996381402016, 0.12369253486394882, 0.46074944734573364, -0.04914775490760803, -0.003892048727720976, 0.05435264855623245, -0.03750515356659889, 0.129124715924263, 0.197599858045578, -0.315987229347229, 0.10050305724143982, -0.052889347076416016, 0.11454810947179794, 0.1549033522605896, -0.013988060876727104, -0.21434004604816437, 0.2731761932373047, 0.23035629093647003, -0.02953614667057991, -0.03930944576859474, -0.09078836441040039, 0.3513987362384796, -0.1430559605360031, -0.19744724035263062, 0.29423579573631287, -0.08493346720933914, -0.04937666654586792, -0.22693681716918945, 0.16692222654819489, -0.18177412450313568], [-0.08760151267051697, -0.22060459852218628, -0.23962266743183136, 0.04430998116731644, 0.12912476062774658, 0.007740418426692486, 0.079464390873909, 0.15641812980175018, -0.10945826768875122, 0.060923900455236435, -0.23721499741077423, 0.1874706745147705, 0.19165053963661194, 0.1098574697971344, 0.28244733810424805, 0.21945294737815857, -0.03532818332314491, -0.048181429505348206, -0.1374208629131317, -0.10703012347221375, -0.05437324196100235, 0.05757288262248039, 0.0647638738155365, 0.08990492671728134, 0.11248859018087387, 0.24616628885269165, -0.03970468044281006, -0.08232616633176804, -0.038334161043167114, -0.07472952455282211, 0.11800993233919144, 0.0210881344974041], [-0.3458130955696106, -0.08209965378046036, -0.11450721323490143, -0.026930177584290504, 0.023899324238300323, 0.08979412168264389, 0.0004916070029139519, -0.13514739274978638, -0.2269347906112671, 0.040581949055194855, -0.16748152673244476, -0.18316251039505005, 0.2073364406824112, 0.2851657271385193, 0.28755754232406616, 0.13464109599590302, -0.03381049633026123, 0.31238022446632385, 0.16823343932628632, 0.30642345547676086, 0.23925530910491943, 0.07326053082942963, 0.06605653464794159, 0.021812066435813904, 0.2119293361902237, 0.0020367102697491646, 0.11636099964380264, 0.1175629198551178, -0.20873284339904785, 0.10075657814741135, -0.05698990076780319, -0.1804637461900711], [0.2454248070716858, 0.026809995993971825, 0.2560156583786011, 0.2075996845960617, 0.004770520143210888, 0.02215120755136013, 0.17503301799297333, -0.10993020236492157, -0.1640220433473587, 0.42593997716903687, 0.16511820256710052, -0.31250494718551636, -0.16993458569049835, 0.44168731570243835, -0.21261341869831085, -0.20550766587257385, 0.02606000378727913, -0.024524778127670288, 0.1762511432170868, 0.29551026225090027, -0.2780531942844391, 0.11616118252277374, -0.00781376101076603, 0.18351426720619202, -0.0004796590656042099, -0.1222391426563263, -0.21622462570667267, 0.1639343500137329, 0.1199980080127716, -0.04154569283127785, 0.13344800472259521, 0.17976590991020203], [-0.20185789465904236, 0.019120965152978897, -0.2134644240140915, -0.02196674421429634, -0.28889158368110657, -0.07128779590129852, -0.10235927999019623, -0.28175488114356995, -0.23123155534267426, -0.17040272057056427, 0.08882783353328705, 0.03884363919496536, -0.16868917644023895, 0.24497175216674805, -0.19571734964847565, 0.3309425711631775, 0.11483047157526016, 0.24831004440784454, -0.18926534056663513, 0.2154526263475418, -0.17699642479419708, -0.2929738759994507, 0.25554442405700684, 0.18794648349285126, 0.24526388943195343, -0.1598355770111084, -0.05236775800585747, -0.12648163735866547, -0.01935684308409691, 0.2272990643978119, -0.19692179560661316, -0.038828156888484955], [0.23851245641708374, 0.28045982122421265, -0.30822768807411194, -0.38730350136756897, 0.28456994891166687, 0.025671005249023438, -0.28482571244239807, 0.0963982418179512, -0.1775672435760498, -0.1938631236553192, -0.007176562212407589, -0.19919271767139435, 0.18723440170288086, 0.05789812654256821, -0.3842851519584656, 0.4044613242149353, 0.28194761276245117, -0.305194616317749, -0.1109384149312973, -0.3429229259490967, 0.2312917411327362, -0.12590846419334412, -0.25649377703666687, -0.22938846051692963, 0.3673538565635681, -0.13044947385787964, -0.13639801740646362, -0.18968525528907776, -0.0033242860808968544, -0.24248424172401428, -0.20881520211696625, 0.2280384600162506], [-0.06787670403718948, 0.03222265467047691, 0.2535368800163269, 0.11041353642940521, -0.03470552712678909, 0.10294434428215027, -0.27076441049575806, -0.42361319065093994, 0.013675241731107235, 0.011541896499693394, -0.11819995194673538, 0.19911052286624908, -0.1309652030467987, 0.03248002752661705, -0.2909831404685974, 0.1860361099243164, -0.13547246158123016, -0.029412245377898216, -0.13688687980175018, 0.4072800874710083, 0.16298022866249084, 0.06459148228168488, -0.1360088288784027, -0.0007075630128383636, -0.06603451818227768, -0.13877199590206146, 0.28530821204185486, 0.321163535118103, 0.03277887403964996, 0.08076455444097519, 0.34289881587028503, 0.062206342816352844], [-0.05885070189833641, -0.21383503079414368, -0.02059202641248703, 0.1735771894454956, -0.01709575578570366, -0.121927410364151, -0.05842294171452522, 0.05552123114466667, 0.09547143429517746, 0.30145344138145447, 0.004636730998754501, 0.02444886788725853, -0.03858720138669014, -0.19909191131591797, 0.16884811222553253, 0.1747613400220871, 0.047313131392002106, -0.18970517814159393, 0.07597801834344864, 0.09778906404972076, 0.06690535694360733, -0.03758809342980385, -0.09254956990480423, -0.2475692331790924, -0.0992874726653099, 0.08309678733348846, 0.029658179730176926, 0.2492179125547409, -0.08995524048805237, 0.0022012614645063877, -0.08498277515172958, -0.05659586191177368], [0.1344960480928421, -0.11229528486728668, -0.06196758151054382, 0.005913075525313616, 0.09451667219400406, -0.02881980687379837, -0.22787025570869446, -0.08709477633237839, 0.04929203540086746, 0.07107942551374435, -0.49369296431541443, 0.023121941834688187, -0.039084840565919876, 0.16459672152996063, 0.2509552240371704, -0.0531330369412899, -0.1309557408094406, 0.03944016993045807, -0.22965872287750244, -0.18728671967983246, 0.012611767277121544, -0.12730146944522858, -0.3197326362133026, -0.27803248167037964, 0.23372086882591248, 0.21976080536842346, -0.3148735463619232, -0.37602078914642334, 0.0781790167093277, -0.17155902087688446, -0.15796290338039398, 0.2271895706653595], [0.1721150130033493, 0.2704450488090515, -0.34821292757987976, -0.14993128180503845, 0.09324242174625397, -0.06267359107732773, -0.22975961863994598, 0.028932245448231697, 0.06906621158123016, -0.07141437381505966, -0.09448748826980591, -0.10260079056024551, -0.2949221134185791, 0.38998568058013916, 0.08781033009290695, 0.02072330191731453, -0.0017310711555182934, -0.13082115352153778, 0.6687853932380676, 0.021412158384919167, 0.011265735141932964, 0.08397795259952545, 0.3468009829521179, -0.09141187369823456, -0.07224574685096741, 0.04769260436296463, 0.07665470242500305, -0.020354174077510834, -0.1813639998435974, 0.3862212896347046, 0.08996491134166718, 0.09120067954063416], [-0.17161615192890167, -0.03550121560692787, 0.13897067308425903, -0.19900807738304138, 0.2082192748785019, 0.059179920703172684, -0.26023921370506287, 0.25304147601127625, -0.04731861501932144, -0.09020636975765228, 0.08562561869621277, 0.14215175807476044, -0.2151629626750946, 0.009779463522136211, 0.04936734214425087, -0.29479748010635376, -0.01337001658976078, -0.05397850647568703, 0.3271535634994507, -0.12464821338653564, -0.2482895702123642, 0.18398259580135345, -0.030574841424822807, -0.34050223231315613, 0.2839806377887726, 0.05955420061945915, -0.007624993100762367, -0.01083230972290039, -0.13169018924236298, 0.33406347036361694, -0.08931412547826767, -0.06508812308311462], [-0.10261853039264679, -0.19258995354175568, -0.5307378768920898, -0.1585598587989807, -0.12421175837516785, -0.06604782491922379, -0.38733774423599243, 0.13818420469760895, -0.1885223388671875, 0.15767785906791687, -0.006426201201975346, 0.2323029339313507, 0.39514464139938354, -0.06274442374706268, 0.1418280005455017, 0.2819480299949646, 0.06509070843458176, -0.3068482577800751, -0.1607738435268402, -0.02954205870628357, 0.23128598928451538, 0.0140465022996068, 0.16770684719085693, 0.029696952551603317, 0.11966634541749954, 0.04929684102535248, 0.04146513715386391, -0.0044420878402888775, -0.024974728003144264, 0.18499760329723358, -0.03230972960591316, 0.10435127466917038], [0.2600584328174591, -0.10337656736373901, 0.04724229499697685, -0.07630136609077454, -0.13140887022018433, 0.09458008408546448, 0.07096276432275772, 0.12606680393218994, 0.07366472482681274, 0.27487680315971375, 0.06773549318313599, -0.2965429127216339, -0.2697451710700989, -0.0018263261299580336, 0.03434530273079872, 0.048961296677589417, 0.23942561447620392, 0.03809291869401932, 0.15444959700107574, -0.11881858110427856, 0.3743894100189209, 0.1375553458929062, 0.11255523562431335, -0.415035605430603, 0.04882087931036949, 0.1012139767408371, -0.18504217267036438, 0.09376505017280579, 0.2802618443965912, 0.1399862915277481, 0.03418750315904617, -0.08953166007995605]], "layers.0.attention.attn.in_proj_weight": [[-0.12142258137464523, 0.0503762885928154, 0.22203320264816284, 0.17176002264022827, 0.13904571533203125, 0.188352569937706, 0.173841193318367, -0.13317379355430603, -0.1181156113743782, -0.06465938687324524, 0.15077711641788483, -0.1864270269870758, 0.14980977773666382, 0.15043988823890686, -0.0646100714802742, -0.10186456143856049, -0.039375677704811096, 0.10807134211063385, -0.11470808833837509, 0.13082540035247803, 0.2195698767900467, 0.034709855914115906, 0.012749040499329567, 0.1531246304512024, 0.21096056699752808, -0.014554854482412338, 0.05157386511564255, 0.08880630880594254, -0.16942818462848663, -0.22243651747703552, 0.22573550045490265, -0.12370345741510391], [0.1460484117269516, -0.09837035834789276, -0.13552464544773102, 0.1863432377576828, 0.01870344951748848, 0.09221944212913513, -0.20521040260791779, -0.07132076472043991, -0.10778621584177017, -0.21659524738788605, 0.1171104684472084, 0.1179671660065651, -0.023764044046401978, -0.006678952369838953, -0.006198348477482796, -0.04888686537742615, 0.14671005308628082, -0.12136541306972504, -0.057294249534606934, 0.1222354993224144, 0.08269832283258438, 0.17469903826713562, 0.12685692310333252, -0.03561808168888092, 0.03082369640469551, 0.14470447599887848, 0.04288523271679878, -0.0427229069173336, 0.10830366611480713, -0.0316113606095314, -0.13487006723880768, 0.1469411998987198], [-0.10276979953050613, -0.12204276025295258, 0.11165611445903778, 0.1502101868391037, 0.04776982590556145, 0.0022523747757077217, 0.09997676312923431, 0.05184417963027954, -0.1621866673231125, 0.13186737895011902, -0.134489506483078, -0.029128266498446465, 0.14849883317947388, 0.09180357307195663, -0.021203123033046722, 0.09447073191404343, -0.032787155359983444, 0.14563946425914764, 0.1534564197063446, 0.05431605130434036, -0.16803674399852753, -0.1693688929080963, 0.1267658919095993, -0.06906155496835709, -0.20764338970184326, 0.015202376991510391, -0.15830865502357483, 0.12767046689987183, 0.10311128944158554, 0.032750535756349564, 0.020672202110290527, -0.06284653395414352], [0.2208857387304306, 0.08149713277816772, 0.19335603713989258, 0.1966533660888672, 0.1606450378894806, -0.10255583375692368, 0.1527199149131775, 0.008411331102252007, -0.13012932240962982, -0.19521018862724304, 0.013898259960114956, 0.0979170873761177, -0.16192375123500824, 0.17312906682491302, -0.055479999631643295, 0.10890282690525055, 0.1453608125448227, -0.1317933201789856, -0.05584233999252319, 0.14443223178386688, -0.016995007172226906, 0.16930268704891205, 0.19476240873336792, 0.04127877578139305, 0.036900170147418976, -0.02141597494482994, 0.0013962844386696815, 0.08869817107915878, 0.10005459189414978, -0.08597683161497116, 0.11439992487430573, 0.08630123734474182], [-0.14878876507282257, 0.15346260368824005, -0.2195214480161667, -0.04147658869624138, 0.12328086048364639, -0.1304493248462677, 0.15266162157058716, 0.1706629991531372, -0.11795473098754883, 0.09301575273275375, -0.11224791407585144, -0.15438172221183777, 0.06755821406841278, 0.0171775221824646, -0.21877114474773407, -0.08227990567684174, 0.0788383036851883, 0.03610352426767349, 0.04415670037269592, -0.10658498108386993, -0.14664122462272644, -0.05804237350821495, 0.010273695923388004, 0.1941322237253189, -0.1472722589969635, -0.03324727341532707, 0.19552357494831085, -0.091770239174366, 0.12479990720748901, 0.21571238338947296, 0.01796579174697399, -0.0017088335007429123], [-0.009757960215210915, -0.17408199608325958, 0.14541275799274445, 0.09326046705245972, -0.21099664270877838, 0.0759824886918068, 0.20849567651748657, -0.21274542808532715, -0.014540936797857285, 0.012063956819474697, -0.0026415749453008175, 0.22353745996952057, 0.20097701251506805, -0.2060195654630661, 0.14407463371753693, -0.10625308007001877, 0.06699160486459732, 0.07710891962051392, -0.17992714047431946, -0.1726929247379303, 0.12162114679813385, 0.05763733386993408, -0.053883146494627, 0.10603205859661102, 0.04075297713279724, -0.063175730407238, 0.013881548307836056, -0.03393426537513733, 0.09146242588758469, -0.15486383438110352, -0.16645488142967224, -0.05477755516767502], [-0.09163540601730347, 0.05683035030961037, 0.16626383364200592, 0.04697786271572113, 0.17283818125724792, -0.10461767017841339, -0.07607877254486084, 0.12189584970474243, 0.00764548359438777, 0.07216620445251465, 0.039949461817741394, -0.03938861936330795, -0.10476037114858627, -0.090798020362854, 0.20516638457775116, 0.17732439935207367, 0.045828927308321, -0.1181919127702713, -0.18988849222660065, 0.055492740124464035, 0.10899526625871658, 0.030488215386867523, 0.05939498543739319, 0.21205465495586395, 0.05533318966627121, 0.05240779370069504, -0.10433278977870941, -0.004142017103731632, -0.1819526106119156, 0.16748112440109253, -0.20736479759216309, 0.1906394213438034], [-0.10943928360939026, -0.12789584696292877, -0.10713017731904984, 0.12548530101776123, -0.22202591598033905, -0.15231110155582428, -0.12694239616394043, -0.1557559370994568, -0.15228517353534698, -0.12882092595100403, 0.028690386563539505, -0.07144235074520111, 0.06107855588197708, 0.15242384374141693, -0.15917529165744781, -0.042897697538137436, 0.11625076830387115, -0.10731466114521027, -0.08320588618516922, -0.012201240286231041, -0.1470891386270523, 0.17657004296779633, 0.047347914427518845, 0.025478536263108253, -0.10757239162921906, -0.1713874638080597, 0.031445734202861786, -0.08807883411645889, -0.18578389286994934, 0.1648280769586563, -0.22309710085391998, 0.15284980833530426], [-0.17140722274780273, -0.05636490136384964, -0.1967223584651947, -0.156288743019104, -0.03648066148161888, 0.07191938161849976, 0.2064044177532196, -0.19939075410366058, -0.09217220544815063, 0.044349391013383865, 0.12283877283334732, 0.2207588106393814, -0.19091646373271942, -0.0828581228852272, 0.00732563529163599, -0.1577085703611374, 0.15711745619773865, -0.14625567197799683, 0.08362133055925369, 0.07444056868553162, 0.10409707576036453, -0.0308169387280941, 0.07180462777614594, 0.15083034336566925, 0.08047810941934586, -0.006882150657474995, -0.09803645312786102, 0.14168061316013336, 0.16435936093330383, 0.02717871218919754, -0.00820700079202652, -0.031804464757442474], [-0.11828271299600601, 0.14122064411640167, -0.12203028798103333, 0.19498181343078613, -0.020253492519259453, -0.15096326172351837, -0.04035022109746933, -0.20535510778427124, 0.18475905060768127, 0.14194278419017792, -0.16167545318603516, -0.19901244342327118, 0.06452234089374542, 0.027424905449151993, -0.18344180285930634, 0.06821780651807785, -0.041840631514787674, -0.15643370151519775, 0.1585642546415329, -0.003160773776471615, 0.06956788897514343, 0.15771493315696716, -0.029561495408415794, 0.12478773295879364, 0.06185906007885933, -0.06703746318817139, 0.10364382714033127, -0.14664676785469055, 0.09908750653266907, 0.13613997399806976, 0.199354350566864, 0.03571217507123947], [0.15532664954662323, 0.17406268417835236, 0.18706278502941132, -0.1950528770685196, -0.12828141450881958, -0.04052504897117615, 0.025727855041623116, -0.05609937384724617, -0.10374506562948227, -0.07091449201107025, -0.2016689032316208, 0.1645585596561432, 0.12225528061389923, 0.11415461450815201, -0.09787682443857193, -0.1395452618598938, 0.0518416091799736, -0.20293737947940826, 0.06496308743953705, -0.025633905082941055, -0.05232815816998482, 0.07918457686901093, -0.19338782131671906, -0.022298663854599, 0.22492578625679016, 0.10157310962677002, -0.020346954464912415, 0.1961389183998108, -0.04913494363427162, -0.044951003044843674, -0.06067798659205437, -0.2209307700395584], [-0.19168148934841156, -0.08911909908056259, -0.059609003365039825, 0.05485916882753372, -0.15280096232891083, 0.023162901401519775, -0.17766059935092926, 0.11174122244119644, 0.19250115752220154, 0.08922537416219711, 0.13671039044857025, 0.09081047773361206, -0.1259249746799469, -0.18175390362739563, 0.12777602672576904, -0.19449593126773834, 0.07485353201627731, -0.11612825095653534, 0.04107321798801422, 0.15253637731075287, -0.21348416805267334, -0.0012076552957296371, 0.18281570076942444, -0.06993905454874039, 0.01309701707214117, 0.013377590104937553, 0.1476718783378601, -0.15507297217845917, 0.0017318502068519592, 0.16410012543201447, -0.08561983704566956, -0.030228707939386368], [0.20534513890743256, -0.07524235546588898, -0.033736106008291245, -0.08133959025144577, 0.1732819825410843, 0.2108221799135208, -0.009356857277452946, -0.11979219317436218, -0.1630159318447113, 0.04955805093050003, 0.04204080253839493, -0.003955152817070484, -0.013200199231505394, 0.01902359537780285, -0.07643512636423111, -0.018858863040804863, 0.11755387485027313, -0.08045431971549988, 0.0730990320444107, 0.1173345074057579, 0.07365373522043228, -0.18563024699687958, -0.1723652184009552, -0.11929403245449066, 0.1522909551858902, -0.17337685823440552, 0.03464917838573456, 0.143996462225914, 0.06253507733345032, -0.14046508073806763, -0.19757960736751556, 0.0701434463262558], [-0.04517025500535965, -0.05640639364719391, -0.2087792158126831, -0.16926051676273346, -0.023191068321466446, 0.0276955533772707, -0.17868126928806305, -0.011875328607857227, -0.1888228952884674, 0.1457899659872055, -0.2042623907327652, -0.06899666786193848, -0.03757980465888977, -0.034969672560691833, -0.042091187089681625, -0.060840874910354614, 0.047603901475667953, 0.20582778751850128, -0.18618395924568176, -0.023985719308257103, 0.017637982964515686, 0.06091857701539993, -0.21738368272781372, -0.18647722899913788, 0.19632790982723236, 0.02407136559486389, 0.08979456126689911, -0.02880968153476715, -0.037458550184965134, 0.10586763918399811, 0.15573526918888092, 0.07949785143136978], [-0.19588515162467957, 0.1428442746400833, -0.14827744662761688, 0.05858972668647766, 0.18704083561897278, 0.07411666214466095, -0.16634714603424072, 0.12817397713661194, 0.13830815255641937, 0.1728934645652771, -0.04410994052886963, -0.0532713308930397, 0.11083447188138962, -0.0347369909286499, -0.026942608878016472, 0.07418973743915558, -0.0812050849199295, 0.1433430314064026, 0.17610369622707367, 0.010873573832213879, 0.1967368721961975, -0.11978960782289505, 0.12552429735660553, -0.05167575925588608, 0.16872070729732513, -0.10178893059492111, -0.08562528342008591, -0.13100376725196838, -0.19949236512184143, -0.12421084195375443, 0.1364937275648117, 0.017239270731806755], [0.15507322549819946, -0.21920722723007202, 0.036885276436805725, -0.18415124714374542, 0.000757790170609951, 0.007296722382307053, 0.05688262730836868, 0.12263763695955276, 0.022778457030653954, 0.1968986839056015, -0.11781759560108185, 0.029476065188646317, -0.13811472058296204, -0.20610520243644714, -0.1283370554447174, 0.1058620885014534, -0.16786421835422516, 0.1614896059036255, -0.0916670560836792, 0.03867078199982643, -0.20631243288516998, -0.15527907013893127, 0.02111527882516384, 0.035075075924396515, 0.11262183636426926, 0.12529069185256958, -0.032636500895023346, -0.1398230791091919, -0.0767659842967987, -0.1837151050567627, 0.18596459925174713, -0.1940552294254303], [0.06754215061664581, -0.008466029539704323, 0.10301540791988373, -0.15587235987186432, 0.11277081817388535, -0.027248160913586617, -0.11384301632642746, -0.2110399305820465, 0.0505065880715847, -0.039372317492961884, -0.15804138779640198, -0.10055764019489288, 0.006982357241213322, 0.05267670378088951, -0.09168393909931183, 0.009996738284826279, -0.11907442659139633, 0.07993052154779434, -0.19663873314857483, 0.11101967096328735, -0.11868119239807129, -0.05244132876396179, -0.1950318068265915, -0.04556899145245552, 0.17029643058776855, -0.16478011012077332, 0.16717630624771118, -0.06472673267126083, 0.19295375049114227, -0.15056602656841278, 0.16518622636795044, 0.026943402364850044], [0.08578500896692276, -0.16405601799488068, -0.18814092874526978, -0.21847409009933472, -0.07294569909572601, 0.14672201871871948, -0.13734184205532074, 0.14884179830551147, 0.1337570995092392, 0.05699317157268524, -0.11965048313140869, -0.1919180154800415, -0.09706129133701324, 0.031295135617256165, -0.06342527270317078, -0.11765687167644501, 0.054433438926935196, 0.20467859506607056, 0.12201583385467529, -0.15106269717216492, 0.20626099407672882, -0.12391475588083267, 0.001467389054596424, -0.10428068041801453, 0.19290600717067719, 0.041866447776556015, 0.008381783030927181, -0.03408600389957428, 0.1564982831478119, -0.0944509357213974, -0.056451380252838135, -0.12766189873218536], [-0.00328877754509449, 0.20624203979969025, 0.21616481244564056, 0.14197847247123718, -0.20376546680927277, 0.06330586969852448, -0.16159477829933167, 0.03375653922557831, -0.0835367813706398, -0.058101505041122437, -0.09688012301921844, -0.07620318233966827, 0.04087039828300476, -0.2166547030210495, 0.19262412190437317, 0.12286370247602463, 0.19130460917949677, -0.07890461385250092, 0.16925965249538422, -0.10065831989049911, -0.09848155081272125, 0.08746027201414108, 0.10583577305078506, 0.05808021128177643, -0.059969834983348846, -0.12962555885314941, 0.20323492586612701, -0.12024255841970444, 0.15855525434017181, 0.15318873524665833, -0.1684519648551941, 0.10470730811357498], [0.03849650174379349, 0.17995816469192505, 0.08272704482078552, 0.16876162588596344, 0.10911713540554047, 0.198866605758667, -0.12978826463222504, -0.20266249775886536, 0.1663828194141388, 0.11981338262557983, -0.09066397696733475, 0.15017886459827423, -0.0383855476975441, -0.1861792951822281, -0.010725202970206738, 0.203836590051651, 0.19221077859401703, 0.08073042333126068, -0.11068717390298843, -0.07223232090473175, -0.0025225533172488213, 0.08037696033716202, 0.11829674988985062, -0.22573378682136536, 0.11003483086824417, -0.19972413778305054, 0.019285034388303757, -0.16807466745376587, -0.06392818689346313, 0.1459043174982071, 0.08636154234409332, -0.1880827099084854], [0.0694827288389206, -0.03598296642303467, 0.1468994915485382, 0.10008532553911209, 0.19147074222564697, -0.1198868602514267, -0.20577123761177063, 0.15201443433761597, -0.03688811510801315, -0.11662794649600983, -0.03520210087299347, 0.1308484971523285, 0.03365389257669449, 0.18761053681373596, 0.1860712617635727, 0.007940145209431648, -0.13431432843208313, -0.19319039583206177, 0.12403377890586853, 0.0880330353975296, 0.15366725623607635, 0.005889631807804108, 0.1933080554008484, -0.18114128708839417, -0.10477866232395172, -0.03777465596795082, -0.19892434775829315, 0.09596212953329086, 0.07324978709220886, -0.12982097268104553, 0.2198069840669632, -0.19643262028694153], [-0.18681739270687103, 0.1300162672996521, -0.11494777351617813, -0.20159520208835602, 0.057731132954359055, 0.04022226855158806, -0.1811116486787796, -0.008210118860006332, -0.17702513933181763, -0.09808745235204697, -0.050394270569086075, -0.19777163863182068, 0.19535477459430695, 0.06491734087467194, 0.17884373664855957, -0.07694309204816818, -0.05153655260801315, 0.05935414135456085, -0.0032485798001289368, -0.1565919816493988, 0.15784431993961334, -0.08717209845781326, -0.08782289922237396, 0.0016332324594259262, 0.15134172141551971, 0.18757575750350952, 0.2092418372631073, -0.037365254014730453, 0.021782133728265762, -0.07628365606069565, 0.0533355176448822, 0.07057518512010574], [-0.1858261227607727, -0.02113199234008789, -0.1350196748971939, 0.06135527789592743, 0.16434630751609802, 0.07696730643510818, 0.193489208817482, -0.06520918011665344, 0.05092311277985573, -0.059293609112501144, 0.07661540061235428, 0.2143411934375763, 0.18230774998664856, -0.0018316786736249924, 0.1212298572063446, 0.09576945006847382, 0.010131084360182285, 0.06173597276210785, -0.07922399789094925, 0.06980253756046295, 0.08730140328407288, -0.024555038660764694, -0.005211211740970612, -0.12175708264112473, 0.12589643895626068, -0.09274427592754364, 0.11438699811697006, -0.03159509599208832, 0.01674051582813263, 0.036960627883672714, -0.04716946929693222, -0.052062176167964935], [0.13708919286727905, -0.07208140194416046, 0.15330852568149567, 0.12129166722297668, -0.19170987606048584, 0.1694614589214325, 0.016104117035865784, 0.03555408865213394, 0.03644601255655289, 0.017528053373098373, 0.088941790163517, -0.17666105926036835, 0.1097496747970581, 0.057049497961997986, -0.03487876057624817, 0.07846037298440933, -0.1274132877588272, 0.21341262757778168, -0.17518077790737152, 0.09089237451553345, 0.118756502866745, -0.20301078259944916, 0.020422212779521942, -0.089701347053051, -0.1916053295135498, -0.16138175129890442, 0.11383693665266037, 0.1623985916376114, -0.058958299458026886, -0.15589511394500732, 0.1875624805688858, -0.17291799187660217], [0.10842247307300568, 0.1575285941362381, -0.16949038207530975, -0.1324784755706787, -0.19458355009555817, -0.027109213173389435, 0.11506863683462143, 0.015085214748978615, -0.20004580914974213, 0.07756027579307556, -0.047846872359514236, 0.17793740332126617, 0.0874655470252037, 0.10996359586715698, 0.09024856239557266, -0.06428913027048111, 0.0713198259472847, -0.08729016035795212, 0.0783669650554657, -0.025931503623723984, -0.059864483773708344, 0.20288725197315216, 0.0398973673582077, 0.02004641480743885, 0.12112709879875183, -0.09343621134757996, -0.04341620206832886, 0.16270151734352112, 0.06405853480100632, 0.16656574606895447, 0.08371094614267349, 0.2003386914730072], [0.046606577932834625, -0.09609029442071915, 0.07452396303415298, -0.18617336452007294, 0.2157154530286789, -0.10201519727706909, 0.2081446349620819, -0.16946396231651306, -0.029557332396507263, -0.03908378258347511, 0.09386695921421051, -0.10488707572221756, -0.10122693330049515, 0.1848112940788269, -0.16599233448505402, 0.05665260925889015, -0.2002817988395691, -0.19084098935127258, 0.18125556409358978, -0.015589147806167603, -0.06005477160215378, -0.14193734526634216, -0.10558617860078812, -0.030520852655172348, 0.1474640667438507, -0.09336629509925842, -0.21886590123176575, 0.022185904905200005, -0.05049760639667511, -0.06288767606019974, -0.21053746342658997, -0.08358827233314514], [-0.01292028184980154, -0.13249042630195618, -0.016385212540626526, 0.14022645354270935, 0.17540578544139862, 0.11457949876785278, 0.11991890519857407, -0.07699413597583771, -0.014947909861803055, -0.0778684914112091, 0.041354816406965256, -0.015733767300844193, -0.18154452741146088, 0.06228752061724663, -0.13440604507923126, 0.10418543219566345, -0.1002315878868103, 0.1554146111011505, 0.09189271926879883, -0.19180439412593842, -0.17025606334209442, 0.039722658693790436, -0.008292694576084614, -0.2211371213197708, -0.18904107809066772, 0.20484119653701782, -0.13181132078170776, -0.19292065501213074, -0.18161380290985107, -0.07644729316234589, 0.21631938219070435, 0.029351571574807167], [-0.07348263263702393, 0.12683603167533875, 0.17864197492599487, 0.15341313183307648, 0.15250110626220703, 0.15947601199150085, -0.2196401059627533, -0.16697528958320618, -0.17787891626358032, 0.08077982068061829, 0.16984489560127258, 0.0005103256553411484, -0.009644802659749985, 0.14341597259044647, 0.1286449134349823, 0.1650957614183426, -0.002005642279982567, -0.19030599296092987, -0.15235283970832825, 0.08706729114055634, -0.08570075035095215, 0.09828923642635345, 0.08240296691656113, 0.05103081464767456, 0.028191260993480682, 0.15693503618240356, 0.20477543771266937, 0.03970467299222946, -0.09194502234458923, 0.1820768564939499, 0.048117440193891525, 0.044026173651218414], [0.09576161205768585, -0.15939661860466003, -0.20199358463287354, -0.17765989899635315, -0.005882864352315664, -0.14814156293869019, 0.18400046229362488, 0.039912447333335876, -0.13231457769870758, -0.18225114047527313, 0.1009613573551178, -0.05643394589424133, 0.10385236144065857, -0.09741237014532089, 0.07202735543251038, -0.060614198446273804, 0.06539333611726761, -0.08578221499919891, 0.0687870979309082, 0.08534768968820572, 0.2095271795988083, 0.1632368564605713, 0.11808960884809494, -0.0015480732545256615, -0.10229894518852234, 0.2029108852148056, -0.021433845162391663, 0.026032056659460068, 0.029223568737506866, -0.19177794456481934, -0.11459878087043762, 0.12278908491134644], [-0.14736613631248474, 0.20856879651546478, -0.19055791199207306, 0.006018785294145346, 0.17831994593143463, -0.04237307235598564, 0.11452348530292511, 0.05121973901987076, 0.15418587625026703, -0.028068270534276962, 0.09760266542434692, 0.09564284235239029, 0.02557695470750332, 0.06351977586746216, -0.15426626801490784, -0.18895816802978516, 0.2168731987476349, -0.20317073166370392, 3.357231616973877e-05, -0.1871412694454193, -0.038939181715250015, 0.119254931807518, -0.1201869323849678, -0.015945501625537872, -0.16448810696601868, 0.05901605635881424, 0.07252343744039536, -0.15327325463294983, -0.1289530247449875, -0.11950641870498657, -0.1240154579281807, 0.17291250824928284], [0.007963944226503372, 0.1449156403541565, 0.001091943122446537, 0.08700383454561234, 0.0664740651845932, 0.048529528081417084, -0.1824069321155548, -0.1292409747838974, -0.18495769798755646, 0.08633464574813843, -0.10828998684883118, -0.16614940762519836, -0.09559642523527145, 0.2213069200515747, 0.14900058507919312, -0.06945852935314178, 0.20151802897453308, 0.01363691408187151, 0.1860770732164383, 0.015359519049525261, -0.05512254312634468, -0.0017278799787163734, 0.07886336743831635, -0.13254031538963318, 0.07377353310585022, -0.08954232931137085, 0.2023809850215912, 0.17216558754444122, -0.009502816013991833, 0.031276922672986984, -0.04191485419869423, -0.18666279315948486], [-0.2001597285270691, 0.005031058564782143, -0.11035695672035217, 0.19164101779460907, 9.458418935537338e-05, 0.0375763438642025, 0.0016893986612558365, 0.028301091864705086, -0.09888552874326706, -0.14364859461784363, -0.19159814715385437, -0.16734041273593903, 0.18085990846157074, 0.2033928781747818, 0.1896551549434662, -0.15266214311122894, -0.1354851871728897, 0.13670136034488678, 0.12683692574501038, -0.22296683490276337, 0.07076965272426605, 0.001809641718864441, 0.15154051780700684, 0.0002880161628127098, 0.19331708550453186, 0.19882991909980774, 0.17857372760772705, 0.048453181982040405, 0.06521140038967133, 0.004477036185562611, -0.14179758727550507, 0.2014656960964203], [-0.058491114526987076, -0.09202271699905396, 0.22176429629325867, 0.13043859601020813, 0.034611545503139496, -0.09249204397201538, -0.22380124032497406, 0.19296081364154816, 0.11140061914920807, -0.07179122418165207, -0.03157806023955345, -0.01890377886593342, 0.13738028705120087, 0.20109960436820984, 0.15762251615524292, -0.11066271364688873, 0.15701384842395782, -0.15783952176570892, -0.21781045198440552, 0.15049311518669128, 0.004065751098096371, -0.07181748747825623, 0.1746993213891983, 0.03792652487754822, -0.16410528123378754, 0.10242974758148193, -0.07085851579904556, -0.15689091384410858, -0.048931632190942764, -0.017463669180870056, -0.1225389912724495, -0.17770569026470184], [-0.08864130824804306, 0.19100935757160187, -0.20365211367607117, 0.21768932044506073, -0.16961650550365448, -0.08746766299009323, -0.0766451358795166, 0.13289104402065277, -0.12510432302951813, 0.08962316066026688, 0.18775613605976105, -0.16492873430252075, -0.13813480734825134, 0.033078882843256, -0.09596796333789825, -0.12410595268011093, 0.011751367710530758, 0.2055782526731491, 0.11156339943408966, -0.12506698071956635, 0.13031382858753204, -0.19622308015823364, -0.0996839851140976, -0.10823709517717361, 0.21857503056526184, 0.12863510847091675, -0.03794722259044647, 0.05415866896510124, -0.1699410378932953, 0.023663341999053955, -0.07476106286048889, 0.09677761793136597], [0.03324271738529205, -0.15529677271842957, 0.044472623616456985, 0.07771281152963638, 0.18479129672050476, -0.11219094693660736, -0.17579559981822968, 0.04364273324608803, 0.20148822665214539, 0.2107570469379425, -0.04069839417934418, 0.1340944916009903, 0.18617796897888184, -0.018600910902023315, 0.15553511679172516, -0.006625965237617493, 0.04397374391555786, -0.22154958546161652, 0.10815154016017914, -0.20452797412872314, 0.1617758721113205, 0.1405898481607437, -0.16123591363430023, -0.06442124396562576, -0.03300832584500313, 0.17153671383857727, -0.0016673821955919266, 0.0014437101781368256, -0.06029395014047623, -0.10667957365512848, -0.09994876384735107, 0.024907492101192474], [-0.012687657959759235, 0.14450019598007202, -0.006927739828824997, 0.21550333499908447, -0.13990961015224457, 0.09960708022117615, 0.22053037583827972, 0.15765590965747833, -0.09953484684228897, -0.1123938336968422, -0.011781112290918827, -0.028070824220776558, 0.20958732068538666, 0.03939012810587883, -0.05393468588590622, -0.1112714409828186, -0.08775612711906433, -0.19265568256378174, -0.10367648303508759, -0.019679799675941467, 0.09629224240779877, 0.1283397376537323, -0.12830592691898346, 0.05694544315338135, -0.15879084169864655, 0.11631742119789124, 0.22429172694683075, -0.035961758345365524, -0.14141014218330383, 0.09374915063381195, -0.17522156238555908, 0.10732503235340118], [0.06718005985021591, -0.1131037250161171, -0.013370607048273087, -0.09430089592933655, -0.010797367431223392, -0.06947004050016403, -0.07900925725698471, 0.006603100337088108, 0.06433743983507156, -0.03632169961929321, 0.06852155178785324, -0.12655287981033325, -0.16591645777225494, -0.1374572217464447, 0.1680641919374466, 0.1285528838634491, 0.026042554527521133, -0.010829980485141277, -0.2041347473859787, -0.20875681936740875, 0.020711764693260193, 0.09192846715450287, 0.16139943897724152, -0.22104203701019287, -0.1566043496131897, -0.115101158618927, 0.11128996312618256, 0.20169124007225037, 0.0752921849489212, -0.09045785665512085, 0.1778722107410431, -0.09736156463623047], [0.059669896960258484, 0.17303776741027832, -0.17360638082027435, -0.1904008686542511, -0.11828164011240005, -0.10096632689237595, 0.19609792530536652, -0.09444249421358109, -0.04702157899737358, 0.14299987256526947, 0.1873498260974884, 0.021184127777814865, -0.124972864985466, 0.14195650815963745, 0.0786956250667572, -0.06087779626250267, 0.12973853945732117, 0.05076180398464203, -0.20499035716056824, -0.1839369684457779, -0.025545351207256317, -0.198246568441391, 0.19250479340553284, -0.08446456491947174, -0.13734941184520721, 0.0012728897854685783, 0.18720446527004242, 0.14703311026096344, -0.11403078585863113, -0.18132589757442474, -0.1320088803768158, 0.12913431227207184], [0.04600440710783005, 0.02014780417084694, -0.10398710519075394, 0.15315546095371246, 0.11031651496887207, 0.08685856312513351, -0.043737877160310745, -0.1269170641899109, 0.18775609135627747, 0.05167378485202789, 0.1907893568277359, 0.12709665298461914, 0.03774474933743477, 0.2126813530921936, -0.10050925612449646, -0.09434233605861664, -0.14813581109046936, 0.07884586602449417, -0.011562737636268139, 0.11137818545103073, 0.08041872829198837, 0.03694989159703255, 0.16640430688858032, -0.1034967377781868, -0.16922760009765625, 0.032497528940439224, -0.13730700314044952, 0.06269190460443497, -0.02264190837740898, 0.131997212767601, -0.0473068542778492, 0.07674657553434372], [0.01897410675883293, 0.1333605945110321, -0.19462016224861145, 0.18907175958156586, -0.13085559010505676, -0.15387026965618134, 0.1616155356168747, -0.0871439203619957, 0.029577068984508514, -0.08331149071455002, -0.1466904580593109, -0.08397477865219116, 0.07295169681310654, -0.06675862520933151, 0.12330915778875351, -0.037904396653175354, 0.1842144876718521, -0.12485571205615997, 0.04926770180463791, -0.09863530099391937, -0.10046982765197754, 0.08627590537071228, -0.13472796976566315, -0.20863352715969086, 0.1141682043671608, 0.1004527360200882, -0.10540308058261871, 0.19495491683483124, 0.09997452795505524, -0.03642917424440384, 0.005114234518259764, -0.012856408953666687], [-0.17372091114521027, 0.041529588401317596, 0.11213531345129013, -0.00025238748639822006, -0.13757137954235077, -0.19080257415771484, 0.09523271024227142, -0.16402815282344818, 0.059029437601566315, 0.17352762818336487, -0.17054399847984314, -0.1981140822172165, 0.1917015165090561, 0.08819808065891266, 0.2250419557094574, -0.17480352520942688, 0.15539322793483734, 0.035224102437496185, -0.14729921519756317, 0.14512158930301666, 0.04746033623814583, 0.11887609958648682, -0.1229986697435379, 0.10691306740045547, -0.19520926475524902, 0.12860064208507538, -0.010538811795413494, 0.02503066137433052, 0.006387380883097649, -0.1255977749824524, -0.02747991681098938, -0.13442185521125793], [0.07840108871459961, -0.1397891342639923, 0.1028868705034256, 0.10093597322702408, -0.08944208174943924, 0.010729909874498844, -0.02752666361629963, -0.08182430267333984, -0.09226147830486298, 0.03045770898461342, 0.18515236675739288, -0.022306222468614578, 0.1754644215106964, -0.09156801551580429, -0.009450082667171955, 0.10114219039678574, -0.12898623943328857, -0.17716412246227264, 0.08771596848964691, -0.1509210616350174, 0.1977694034576416, -0.14963170886039734, -0.03692823648452759, -0.053140390664339066, -0.13328461349010468, 0.18755708634853363, 0.02275899425148964, -0.10421062260866165, 0.08519220352172852, -0.032717376947402954, -0.1258164793252945, 0.15266284346580505], [0.1175340861082077, 0.16322582960128784, 0.10758408904075623, 0.1697031855583191, 0.004694593138992786, 0.052613869309425354, -0.14562906324863434, -0.2180200219154358, 0.016912484541535378, 0.15502087771892548, -0.1271473467350006, 0.023867810145020485, -0.20118117332458496, 0.10990802943706512, 0.10155237466096878, -0.06879505515098572, -0.19345085322856903, 0.08220511674880981, 0.037272099405527115, 0.12994107604026794, 0.08907582610845566, 0.020089391618967056, -0.13025939464569092, -0.12072276324033737, 0.13271066546440125, -0.00012568943202495575, -0.08231174945831299, 0.011150178499519825, -0.184646874666214, -0.12452655285596848, -0.07307787239551544, 0.08339988440275192], [-0.2196299433708191, -0.013258455321192741, -0.10619010776281357, 0.1410096436738968, -0.1682138741016388, 0.08194605261087418, 0.18731911480426788, -0.15066072344779968, 0.015127195045351982, -0.06885464489459991, -0.08328679949045181, 0.11013924330472946, -0.10939531028270721, 0.20550134778022766, 0.05459222197532654, 0.19988557696342468, 0.14153188467025757, 0.1037873700261116, 0.06296008080244064, 0.0474235936999321, 0.1409999281167984, 0.0846344605088234, 0.19209463894367218, 0.1444195657968521, 0.16701087355613708, 0.17406436800956726, -0.01030923705548048, -0.15765388309955597, 0.19201938807964325, -0.059870246797800064, -0.02114294283092022, -0.17930233478546143], [0.03874140605330467, 0.21781566739082336, 0.1964937299489975, 0.07816451787948608, 0.1769474744796753, -0.11417794227600098, 0.16826441884040833, 0.07331051677465439, -0.038914598524570465, -0.036153167486190796, 0.07982069253921509, 0.19691848754882812, -0.1570521891117096, -0.20870859920978546, -0.19676588475704193, -0.11297313868999481, -0.05294978246092796, -0.1426774561405182, 0.026279130950570107, -0.04556575044989586, 0.19444669783115387, -0.18162588775157928, 0.060712385922670364, -0.06244984269142151, -0.07166896760463715, -0.21880954504013062, 0.02499779500067234, 0.02923329919576645, -0.035087622702121735, 0.09632176905870438, 0.010683871805667877, 0.1199517548084259], [0.11772692203521729, -0.13464324176311493, 0.11772271245718002, -0.0876690074801445, -0.09360645711421967, -0.14109337329864502, -0.06063764914870262, -0.12588843703269958, -0.11861087381839752, 0.01574109122157097, 0.1349601298570633, 0.18126225471496582, -0.10005780309438705, -0.07357166707515717, 0.09106279909610748, -0.03404046595096588, -0.07751868665218353, 0.09395863115787506, 0.053142864257097244, 0.1945093423128128, -0.003028111532330513, 0.21957996487617493, 0.12294867634773254, -0.07154233008623123, 0.05408412963151932, 0.02150534838438034, 0.1548411250114441, -0.11919773370027542, -0.05740363523364067, 0.058478228747844696, -0.13954566419124603, 0.1848822832107544], [-0.05862676724791527, -0.20196415483951569, -0.0875234380364418, 0.045752301812171936, 0.19853846728801727, -0.14915591478347778, 0.18880914151668549, 0.043687984347343445, 0.18263666331768036, -0.007647410035133362, 0.1202603206038475, 0.05800338834524155, -0.04257858172059059, -0.024255037307739258, 0.029705235734581947, -0.15034984052181244, 0.11798488348722458, -0.003908820450305939, 0.01446120161563158, -0.1021343469619751, 0.12758097052574158, -0.09934359043836594, -0.01093841902911663, -0.1102333813905716, 0.19330398738384247, 0.19890134036540985, 0.13942715525627136, 0.11717772483825684, 0.20305092632770538, 0.14115041494369507, 0.07172811031341553, 0.09649855643510818], [0.0868166983127594, -0.07396121323108673, 0.021596748381853104, 0.10748965293169022, -0.018922150135040283, 0.09887059032917023, -0.20382283627986908, -0.09869382530450821, -0.14684465527534485, 0.03070223331451416, 0.22351890802383423, 0.06497420370578766, 0.12431696057319641, 0.008889584802091122, 0.08887305110692978, -0.049898918718099594, -0.19484035670757294, 0.08248018473386765, -0.0019448604434728622, -0.08661842346191406, -0.12718957662582397, 0.1541832983493805, -0.06959957629442215, 0.15818899869918823, -0.07757209986448288, 0.16310197114944458, 0.2262825220823288, 0.16340529918670654, -0.013017663732171059, 0.19777514040470123, -0.12540298700332642, -0.05364014208316803], [0.0281343013048172, 0.2063024640083313, -0.12651905417442322, -0.054086409509181976, -0.029577361419796944, -0.17287597060203552, 0.027421467006206512, -0.030461478978395462, -0.004182202275842428, 0.20587344467639923, 0.044926173985004425, 0.11729681491851807, 0.12728700041770935, 0.20669075846672058, -0.13581669330596924, 0.06479690223932266, 0.08706936240196228, 0.18790622055530548, 0.2061832696199417, 0.08585834503173828, 0.05262140929698944, -0.03774602338671684, -0.17686080932617188, 0.02049936354160309, 0.09392765909433365, 0.011098748072981834, 0.012125400826334953, 0.09887498617172241, -0.15414007008075714, -0.10960424691438675, -0.02725779451429844, -0.08797132968902588], [0.020736636593937874, 0.026889901608228683, -0.17350606620311737, -0.05182105302810669, -0.15173912048339844, 0.2145436704158783, 0.08337634056806564, -0.17089895904064178, 0.17055532336235046, 0.13174232840538025, -0.10877139121294022, 0.1878286600112915, -0.04622235894203186, -0.08484011888504028, 0.06068563088774681, -0.010068674571812153, -0.19551968574523926, 0.1735539436340332, -0.07760307192802429, 0.1553153395652771, -0.07158023864030838, -0.11546620726585388, -0.17788510024547577, -0.051009681075811386, -0.06602060049772263, 0.0939074158668518, -0.04821094870567322, -0.039992474019527435, 0.0835375189781189, -0.03914201259613037, 0.17109481990337372, 0.06709703058004379], [0.09292133152484894, -0.20122364163398743, 0.20171697437763214, 0.039815425872802734, -0.158416286110878, 0.03282610699534416, 0.1523769199848175, -0.08352946490049362, 0.00037849973887205124, 0.21454176306724548, 0.19848768413066864, 0.024176698178052902, -0.19552041590213776, 0.09093859791755676, -0.2197602391242981, -0.19356055557727814, -0.129032701253891, -0.06471946835517883, 0.17399072647094727, 0.09817329049110413, 0.13370749354362488, 0.10624171793460846, -0.14846473932266235, -0.032342180609703064, -0.08100956678390503, 0.047023702412843704, -0.11131319403648376, 0.12771198153495789, -0.1276945024728775, 0.0035209464840590954, 0.12832626700401306, 0.17208309471607208], [0.14828529953956604, -0.16072221100330353, -0.04276047646999359, 0.14511547982692719, -0.13628964126110077, -0.05287732556462288, 0.12514881789684296, -0.08228549361228943, -0.10348554700613022, 0.01254037395119667, -0.14519992470741272, 0.01547893974930048, 0.13850998878479004, 0.1728091835975647, -0.1412195861339569, -0.019412074238061905, -0.19433249533176422, 0.04538504406809807, 0.17334996163845062, 0.0016298629343509674, 0.09762953221797943, -0.08711564540863037, 0.16846612095832825, 0.21819329261779785, -0.09212633967399597, -0.0066532474011182785, -0.1728064864873886, -0.1801452934741974, -0.17893214523792267, -0.09492732584476471, -0.08546774089336395, 0.05232955142855644], [-0.07834126055240631, 0.03391503542661667, 0.14203715324401855, 0.18483299016952515, 0.15213194489479065, 0.1341000348329544, 0.18647083640098572, -0.07448951154947281, 0.05752904713153839, 0.08250626176595688, 0.04692114144563675, 0.14680443704128265, 0.13528631627559662, 0.03766719996929169, 0.1091034933924675, 0.19913138449192047, -0.2181050330400467, -0.20036914944648743, -0.10272645950317383, -0.12856099009513855, 0.16850312054157257, 0.01947006955742836, -0.005873161368072033, -0.000296824611723423, -0.14978903532028198, 0.030604425817728043, 0.19038446247577667, -0.17773157358169556, -0.09743954986333847, 0.11206834018230438, 0.1541443169116974, 0.22134500741958618], [0.06410577148199081, -0.13050974905490875, 0.036798927932977676, 0.16216765344142914, 0.08046576380729675, 0.16815413534641266, 0.12885048985481262, 0.17396163940429688, -0.17722868919372559, 0.1459394097328186, 0.163089781999588, -0.012882526032626629, 0.1572442501783371, 0.11261583864688873, 0.038182228803634644, 0.02976459637284279, -0.1460362672805786, 0.08175075054168701, 0.1679631620645523, 0.1253635287284851, 0.035884298384189606, 0.22491060197353363, 0.09286075830459595, -0.16131317615509033, 0.058287009596824646, -0.17493049800395966, -0.08646899461746216, 0.07983548194169998, -0.1776038557291031, -0.16588184237480164, -0.04087085276842117, 0.14220663905143738], [-0.12769712507724762, 0.012177938595414162, 0.2060360610485077, -0.1714765727519989, 0.11249973624944687, -0.1083761528134346, -0.04356566071510315, -0.18588265776634216, -0.08554167300462723, 0.06014937162399292, -0.1281362920999527, 0.09502102434635162, -0.16909447312355042, -0.08394651114940643, 0.21091651916503906, 0.06424455344676971, -0.0689440667629242, -0.19237357378005981, -0.04996674507856369, -0.22345060110092163, 0.12034624814987183, 0.20524518191814423, 0.08241487294435501, 0.0621676966547966, -0.0993502214550972, 0.2153252214193344, -0.1094244122505188, -0.11313699185848236, 0.1194486990571022, 0.0838838517665863, -0.09605478495359421, 0.21693390607833862], [-0.15160933136940002, 0.05249430984258652, -0.06742212921380997, 0.007184234447777271, 0.152057945728302, 0.08579342067241669, -0.18162234127521515, -0.13949666917324066, -0.011006725952029228, 0.028130434453487396, -0.03438064455986023, -0.18915778398513794, 0.09996658563613892, 0.16117238998413086, -0.049078814685344696, -0.11250177025794983, -0.09951622039079666, -0.07309920340776443, 0.01595272310078144, -0.0936344638466835, -0.025686152279376984, -0.15827356278896332, -0.12022609263658524, 0.09972156584262848, -0.06433650106191635, -0.05052896589040756, 0.06842407584190369, 0.022986631840467453, 0.22566229104995728, -0.1370791792869568, -0.10797552764415741, -0.05781726911664009], [0.09630334377288818, 0.14346428215503693, 0.03340534493327141, -0.12284471839666367, 0.008034702390432358, 0.06024543195962906, -0.2112848460674286, -0.1780773103237152, -0.18203851580619812, 0.004365331493318081, 0.18866410851478577, -0.15521155297756195, 0.16716186702251434, -0.07362072169780731, -0.06625186651945114, -0.14539505541324615, 0.1474420428276062, -0.0010029105469584465, 0.14018313586711884, -0.09079369157552719, -0.07817570865154266, 0.04122345894575119, 0.0005048653110861778, 0.15775153040885925, -0.10653386265039444, 0.04861990734934807, 0.19825224578380585, 0.13259010016918182, -0.11541961878538132, -0.19196516275405884, -0.1282515972852707, 0.17604032158851624], [-0.1907322257757187, 0.19442512094974518, 0.07695794850587845, 0.07232658565044403, -0.16746723651885986, 0.02598257176578045, 0.15617917478084564, -0.04734117537736893, -0.158590167760849, -0.044175438582897186, -0.14433929324150085, -0.17935948073863983, -0.037773679941892624, 0.09250900894403458, 0.04920603334903717, -0.06610085070133209, -0.194754496216774, 0.09666111320257187, -0.03697570785880089, -0.04875655472278595, 0.20931269228458405, -0.011093977838754654, -0.11169668287038803, -0.0643572211265564, -0.16015367209911346, -0.06035337597131729, -0.20404791831970215, 0.04068569466471672, -0.10809683799743652, 0.14741681516170502, -0.010785331949591637, 0.1339721381664276], [0.1980861872434616, -0.20159663259983063, -0.027321171015501022, 0.09504032135009766, 0.1759207397699356, -0.13582348823547363, 0.02604290097951889, 0.12520289421081543, -0.1697254627943039, -0.07179482281208038, 0.042956769466400146, -0.08274547010660172, 0.13478119671344757, -0.10979807376861572, 0.17015419900417328, -0.14713871479034424, 0.052317939698696136, 0.08034877479076385, -0.19591523706912994, -0.18970075249671936, 0.11607963591814041, 0.2217922955751419, -0.015383410267531872, -0.16894696652889252, -0.21780496835708618, -0.175106480717659, 0.08761899918317795, -0.1430586576461792, 0.19416895508766174, 0.09910724312067032, -0.06539378315210342, -0.12674489617347717], [-0.1322978436946869, -0.19963257014751434, -0.027749374508857727, -0.17775921523571014, 0.1343265026807785, 0.16503362357616425, -0.016089633107185364, 0.09060032665729523, 0.04120923578739166, -0.01596600003540516, -0.093587726354599, 0.12395692616701126, 0.0959833562374115, 0.10614253580570221, 0.016287125647068024, 0.12734845280647278, 0.15923085808753967, 0.02010997384786606, 0.10949116945266724, 0.2260768860578537, 0.10418472439050674, -0.08355838805437088, 0.06050383299589157, -0.18319568037986755, -0.013259048573672771, -0.1721893697977066, -0.06976596266031265, 0.045673634856939316, 0.04797384515404701, -0.1499200165271759, 0.15395388007164001, -0.06205400824546814], [-0.07713760435581207, -0.060839321464300156, -0.1280926764011383, 0.04897470027208328, -0.09842994809150696, 0.12290191650390625, -0.17496615648269653, 0.14141307771205902, -0.09789536148309708, 0.05750406160950661, 0.11710112541913986, 0.22387655079364777, 0.18036514520645142, -0.09285568445920944, 0.06732045114040375, 0.07751192152500153, 0.04105694591999054, 0.11533666402101517, 0.2150856852531433, 0.2229844033718109, -0.013692088425159454, 0.04989660903811455, 0.14548487961292267, 0.12332160025835037, 0.07900865375995636, 0.22266341745853424, 0.1555885374546051, 0.1010814905166626, 0.052314452826976776, 0.20116427540779114, 0.15830551087856293, -0.09197908639907837], [0.08835022896528244, 0.09916664659976959, 0.1991761177778244, -0.1774808168411255, 0.1390518844127655, -0.021251335740089417, -0.050850432366132736, 0.10437435656785965, -0.05211690813302994, 0.03275492414832115, -0.19030486047267914, 0.17513065040111542, -0.04937764257192612, -0.17016704380512238, 0.15380790829658508, 0.03192896395921707, -0.1494951844215393, -0.02581067755818367, -0.17003759741783142, 0.07815655320882797, 0.011023602448403835, 0.061746470630168915, -0.11123496294021606, 0.16680268943309784, -0.0986001044511795, 0.052911508828401566, 0.03930436819791794, -0.07449464499950409, -0.10618878901004791, 0.13111048936843872, 0.07090876996517181, -0.038986604660749435], [-0.03160575404763222, 0.17063435912132263, 0.15144525468349457, -0.11798129975795746, 0.07017259299755096, 0.08006132394075394, 0.21351124346256256, 0.0702400654554367, 0.12752069532871246, 0.06346961855888367, -0.1557130217552185, -0.028790999203920364, -0.06601979583501816, -0.04283449798822403, 0.1652040183544159, -0.015664100646972656, 0.10798003524541855, -0.12227296084165573, -0.15349474549293518, -0.15846548974514008, 0.10398118942975998, 0.16065071523189545, -0.07591710239648819, -0.08817937225103378, -0.12065059691667557, -0.03249095380306244, -0.0778929740190506, 0.1401553601026535, 0.07903321832418442, 0.10985894501209259, 0.012029848992824554, 0.0997748151421547], [-0.0956990122795105, -0.16197703778743744, -0.051975127309560776, -0.05319386348128319, -0.2127557396888733, 0.1501064896583557, 0.12372882664203644, 0.15596461296081543, -0.16528448462486267, 0.08459237217903137, -0.12409982830286026, -0.09627042710781097, -0.20822745561599731, 0.17577093839645386, -0.08863150328397751, 0.19771400094032288, -0.06628004461526871, 0.1585785150527954, -0.06574808806180954, 0.1350688338279724, 0.1826251894235611, -0.0682353600859642, -0.08046542853116989, -0.07766612619161606, 0.174367293715477, -0.15954865515232086, 0.18959935009479523, 0.1848852038383484, 0.13224640488624573, 0.09145859628915787, -0.03406110405921936, -0.07498474419116974], [0.1705421656370163, 0.16700072586536407, -0.17363491654396057, -0.0380326583981514, -0.1580929160118103, -0.016712548211216927, 0.029566161334514618, -0.11947328597307205, 0.11529859155416489, 0.03939497470855713, -0.14290812611579895, -0.0976492315530777, -0.03616509214043617, 0.07506947964429855, 0.054509781301021576, 0.09564507007598877, -0.1330757588148117, -0.2080429494380951, 0.1812998503446579, -0.10950112342834473, -0.14334304630756378, -0.1892813742160797, 0.01634790748357773, 0.09322178363800049, -0.07419143617153168, -0.12206616997718811, 0.20755240321159363, -0.03227589651942253, 0.06919614970684052, -0.12122317403554916, -0.07546111196279526, 0.1560114324092865], [0.07566379010677338, -0.005202462896704674, -0.12880954146385193, 0.0907321646809578, 0.1355123370885849, -0.16451027989387512, -0.018873192369937897, 0.052396487444639206, 0.19036079943180084, 0.22600305080413818, -0.12407516688108444, 0.06967445462942123, -0.09096930921077728, -0.05096860229969025, 0.16921177506446838, -0.01126618217676878, 0.11323808133602142, -0.14416740834712982, 0.07947196811437607, 0.09883768856525421, -0.2013504058122635, 0.20515020191669464, -0.04051343724131584, -0.16019220650196075, -0.16899409890174866, 0.06727300584316254, -0.026984810829162598, 0.21988831460475922, 0.16139590740203857, -0.02858917787671089, 0.17103008925914764, 0.06983689963817596], [-0.11576719582080841, -0.055581215769052505, -0.21293485164642334, 0.18999019265174866, 0.0014192182570695877, -0.11138364672660828, -0.08413015305995941, -0.11353348195552826, -0.0570344477891922, -0.12617844343185425, -0.13305681943893433, -0.0693691223859787, -0.18850573897361755, -0.1574845314025879, -0.21585193276405334, 0.11795156449079514, -0.03941263258457184, -0.12169232219457626, -0.03354330733418465, -0.20307983458042145, 0.05032062530517578, -0.14023354649543762, 0.05447088181972504, 0.005223318003118038, 0.00044260453432798386, 0.1185656487941742, -0.1473793238401413, 0.10764995217323303, -0.15350499749183655, -0.13144522905349731, 0.16507060825824738, -0.19024905562400818], [0.06213323026895523, -0.08046901971101761, -0.19084426760673523, 0.055875107645988464, -0.03832728788256645, 0.09421286731958389, -0.16084152460098267, 0.057893041521310806, -0.15708661079406738, 0.010042660869657993, 0.17795945703983307, -0.1508283019065857, -0.015474854037165642, -0.1675659567117691, 0.04520442336797714, 0.16053995490074158, -0.03181767836213112, -0.08103050291538239, -0.03356596827507019, 0.19883723556995392, -0.2183840572834015, -0.10241533070802689, 0.08604457974433899, 0.025694873183965683, 0.1478460133075714, -0.002975890412926674, 0.139318585395813, 0.041770774871110916, 0.07670523226261139, 0.025438301265239716, -0.11105121672153473, -0.09185954928398132], [0.14972646534442902, 0.12664355337619781, 0.10689548403024673, 0.11278218775987625, 0.10583856701850891, 0.018061334267258644, -0.1458735167980194, -0.15813098847866058, 0.1960929036140442, -0.06680838018655777, -0.09839768707752228, -0.21630264818668365, -0.08613023906946182, 0.12510623037815094, -0.06019100919365883, 0.16946204006671906, 0.10517239570617676, -0.17782525718212128, -0.032946791499853134, -0.08942990005016327, 0.20005008578300476, 0.12124759703874588, -0.12313538044691086, -0.17262104153633118, -0.1599350869655609, -0.019381050020456314, 0.19008736312389374, -0.057440921664237976, -0.08113183081150055, 0.046055905520915985, -0.16721606254577637, -0.056596770882606506], [0.1423577070236206, 0.1041867733001709, -0.10449419170618057, 0.20617662370204926, -0.06568939983844757, 0.0999714806675911, 0.035828448832035065, 0.14528486132621765, 0.05068939924240112, 0.15082494914531708, 0.008356363512575626, 0.010927358642220497, -0.011333162896335125, 0.17088405787944794, -0.16445361077785492, 0.12873724102973938, -0.07746311277151108, 0.08052598685026169, 0.18407636880874634, 0.03596602380275726, -0.1852250099182129, 0.030146919190883636, 0.05412330478429794, 0.17478618025779724, 0.11424010992050171, -0.16979128122329712, 0.06677639484405518, 0.14849624037742615, 0.20487602055072784, 0.031114161014556885, -0.002399878576397896, -0.1936374455690384], [-0.046437378972768784, -0.08480087667703629, -0.12516383826732635, 0.02911515161395073, 0.039855651557445526, -0.06944350898265839, -0.0954844281077385, 0.04335542768239975, -0.1153547540307045, -0.05800233036279678, -0.028424855321645737, -0.03711536526679993, 0.12413286417722702, -0.20273829996585846, -0.2032177597284317, -0.021288838237524033, -0.14398834109306335, -0.09862635284662247, -0.18459421396255493, -0.11815374344587326, -0.038583166897296906, 0.17238271236419678, -0.18749836087226868, 0.019385725259780884, 0.0434628427028656, 0.11098449677228928, -0.17204079031944275, 0.09780489653348923, -0.15110726654529572, 0.004902582615613937, 0.1905507892370224, 0.018964126706123352], [-0.22255726158618927, -0.15890994668006897, 0.13679200410842896, -0.059848491102457047, 0.1808183342218399, 0.12729421257972717, -0.18966318666934967, 0.060029733926057816, 0.18091252446174622, 0.10607881844043732, 0.14530612528324127, -0.08103024959564209, -0.06159472092986107, -0.1907273381948471, 0.024670183658599854, -0.09135178476572037, 0.16099387407302856, 0.18552224338054657, 0.07739651948213577, 0.20836064219474792, 0.05380551889538765, -0.1278614103794098, -0.05002211034297943, -0.17836806178092957, 0.1493159979581833, -0.20178206264972687, -0.04791272059082985, 0.026115253567695618, -0.07969769835472107, 0.18941950798034668, -0.051234856247901917, 0.1785481572151184], [0.07613672316074371, -0.18929678201675415, -0.05007794499397278, -0.19945451617240906, -0.08586134016513824, -0.19874045252799988, 0.18302485346794128, 0.0711321234703064, 0.18692459166049957, -0.11294320970773697, 0.1325727254152298, 0.15928533673286438, 0.1470242440700531, 0.015761855989694595, 0.1555372178554535, -0.1240106150507927, 0.1102745532989502, 0.05864865705370903, 0.09924425929784775, -0.20558519661426544, 0.08107355237007141, 0.013921737670898438, -0.20097297430038452, -0.12263575941324234, 0.05121404677629471, 0.21091696619987488, -0.06905719637870789, -0.019526533782482147, -0.13784605264663696, -0.01706337369978428, -0.05651475116610527, -0.05069205164909363], [0.1556425243616104, 0.008121127262711525, 0.20755447447299957, -0.20736810564994812, 0.20257329940795898, 0.07942120730876923, 0.04924406856298447, 0.17255057394504547, -0.1761714220046997, 0.12351097166538239, -0.12008555233478546, -0.17518731951713562, -0.04069841280579567, 0.11782350391149521, -0.19447897374629974, -0.02220304124057293, -0.09184074401855469, -0.01893133670091629, 0.1031617671251297, 0.15717612206935883, 0.16970603168010712, 0.07337090373039246, 0.16142715513706207, 0.15508930385112762, -0.0016422653570771217, 0.05019078776240349, 0.014179308898746967, -0.04330458492040634, -0.13426199555397034, -0.07662973552942276, 0.02740170620381832, -0.12231972068548203], [0.015544377267360687, -0.12881866097450256, 0.16703984141349792, 0.027438201010227203, 0.021770654246211052, -0.19721698760986328, -0.10936478525400162, 0.02697300910949707, -0.06729540228843689, 0.0021727047860622406, -0.03173141926527023, -0.1707955300807953, 0.1745212972164154, -0.192315012216568, 0.11376041918992996, 0.038737840950489044, 0.019339337944984436, -0.11743944138288498, 0.16949650645256042, 0.09747443348169327, 0.020144984126091003, -0.049036238342523575, -0.0644478127360344, -0.0366114117205143, -0.09711268544197083, -0.052803561091423035, -0.0019343271851539612, -0.1631712019443512, 0.1356716752052307, 0.001710379496216774, 0.04036543890833855, -0.009220954962074757], [0.1819242537021637, 0.20619745552539825, -0.02210872992873192, 0.058729976415634155, 0.16691456735134125, 0.21475128829479218, 0.02331489324569702, 0.058904990553855896, -0.13036717474460602, -0.016598699614405632, 0.11559364199638367, -0.20777076482772827, 0.1536797434091568, 0.05905929207801819, 0.21545210480690002, -0.016379939392209053, -0.021283455193042755, -0.022672953084111214, -0.1755407154560089, 0.20019720494747162, -0.1973268985748291, 0.07013992220163345, 0.10343059152364731, 0.07230588793754578, -0.09232710301876068, -0.2191348671913147, 0.17382138967514038, 0.09876596182584763, 0.03991679102182388, -0.17915917932987213, -0.18671059608459473, 0.08322813361883163], [0.18833957612514496, -0.1580411195755005, -0.11264272779226303, -0.15081198513507843, -0.1015765517950058, 0.09743661433458328, -0.1390109658241272, 0.19111299514770508, -0.20857861638069153, -0.03892333433032036, -0.22631192207336426, -0.15825515985488892, -0.04850471392273903, -0.022746022790670395, 0.16201463341712952, 0.047356657683849335, 0.0036672307178378105, 0.1203644871711731, -0.009447977878153324, 0.1611667275428772, 0.18767450749874115, -0.11275307834148407, -0.019299596548080444, 0.007957321591675282, 0.10268610715866089, 0.14520302414894104, 0.11415951699018478, 0.10991820693016052, -0.0273454412817955, -0.008647216483950615, 0.08403211086988449, -0.19960221648216248], [0.18636971712112427, -0.0910034030675888, 0.1508587747812271, -0.17045557498931885, -0.14549745619297028, -0.15419551730155945, -0.17775718867778778, -0.03642671927809715, 0.06757703423500061, -0.16323742270469666, 0.1997307986021042, 0.11310122162103653, -0.21323469281196594, -0.14527249336242676, 0.18656447529792786, 0.07264575362205505, -0.00394422234967351, 0.09186404943466187, 0.11732295900583267, -0.07680699974298477, -0.21983124315738678, 0.11241649091243744, 0.18160167336463928, 0.18043462932109833, -0.0517907477915287, 0.13866876065731049, 0.17057833075523376, -0.02616233006119728, 0.18917497992515564, -0.04985447973012924, -0.12618377804756165, -0.0844292864203453], [0.19022443890571594, -0.10858684033155441, -0.18273866176605225, -0.012783891521394253, 0.026753397658467293, 0.14531728625297546, 0.10696251690387726, 0.025950193405151367, 0.14608189463615417, 0.03724455460906029, 0.19524125754833221, 0.07135334610939026, -0.034861888736486435, 0.07504088431596756, -0.17861220240592957, -0.09827513992786407, 0.10874123126268387, 0.11859292536973953, -0.06510835886001587, -0.12593108415603638, 0.10574246942996979, 0.12829717993736267, 0.0762806385755539, 0.06167452037334442, -0.1361185610294342, -0.007620038464665413, 0.004765372723340988, -0.16461491584777832, 0.09001222997903824, 0.10910698026418686, 0.09754867851734161, -0.02375437319278717], [0.1275836080312729, -0.05238015204668045, 0.06646211445331573, -0.18505798280239105, 0.02923041209578514, 0.09636005014181137, 0.13818565011024475, -0.0708964467048645, 0.017056472599506378, 0.121324323117733, -0.082856684923172, 0.17803171277046204, 0.011837225407361984, 0.07092241942882538, -0.007454782724380493, -0.027201378718018532, -0.17345823347568512, 0.06898768246173859, 0.131781667470932, 0.0024241097271442413, -0.06309104710817337, 0.007111695595085621, -0.11831676214933395, -0.21593569219112396, 0.04443863406777382, 0.07591966539621353, -0.028150103986263275, -0.2250967025756836, 0.03796499967575073, -0.12633661925792694, -0.03958054259419441, -0.01393076777458191], [-0.023172013461589813, -0.11207234859466553, -0.05662180855870247, 0.02070530876517296, 0.06490892916917801, 0.19974280893802643, -0.0781010165810585, 0.20715630054473877, -0.039104312658309937, -0.016147522255778313, 0.2052314728498459, -0.19605618715286255, 0.06407898664474487, 0.05032527819275856, 0.1416478455066681, -0.1194680705666542, -0.11154668778181076, 0.17989100515842438, -0.16353052854537964, 0.11601778119802475, 0.1034121960401535, -0.20251688361167908, 0.10249007493257523, 0.1362326443195343, 0.1720108836889267, 0.20127390325069427, 0.1142207533121109, 0.1593862622976303, 0.1455896645784378, -0.12011735886335373, 0.07893672585487366, -0.14764241874217987], [0.0413396954536438, -0.019572582095861435, -0.12723809480667114, 0.12883371114730835, -0.047334689646959305, 0.21492718160152435, -0.206625297665596, 0.07493174821138382, -0.04000670835375786, 0.0313582569360733, 0.0772833600640297, 0.16770856082439423, -0.1727129966020584, 0.16689933836460114, -0.11596109718084335, 0.22056373953819275, -0.17109502851963043, 0.14666235446929932, 0.05874478071928024, -0.17247819900512695, 0.07599036395549774, -0.20006804168224335, -0.11024980992078781, -0.20288577675819397, 0.007067657075822353, 0.10578982532024384, -0.16592352092266083, -0.04620645195245743, -0.1221773773431778, 0.16348856687545776, 0.008994626812636852, -0.024318136274814606], [0.03509404510259628, -0.11247789114713669, -0.18165788054466248, 0.025153618305921555, 0.04623038321733475, 0.07719894498586655, -0.03088357299566269, -0.16958028078079224, -0.13674776256084442, 0.10294631868600845, -0.18288657069206238, 0.03687243163585663, -0.07141801714897156, 0.14404180645942688, -0.08766411244869232, 0.030649714171886444, -0.1627458930015564, -0.10897274315357208, -0.07639967650175095, 0.12919296324253082, -0.1545095145702362, -0.1770540326833725, 0.1207335963845253, 0.14306914806365967, 0.13292232155799866, -0.09388325363397598, -0.1298293024301529, 0.07620476186275482, 0.02411704882979393, 0.08563875406980515, 0.018189549446105957, -0.0978468805551529], [0.10493863373994827, 0.06313502788543701, -0.06204315274953842, -0.16814672946929932, 0.19079726934432983, 0.12070848792791367, -0.0070322295650839806, -0.11468716710805893, 0.13205209374427795, 0.16333036124706268, 0.1487281769514084, 0.13792875409126282, 0.07138670980930328, 0.04893837124109268, -0.035517215728759766, 0.009093507193028927, 0.13370680809020996, -0.007210526615381241, 0.08550217002630234, -0.22021588683128357, 0.19405251741409302, 0.14476990699768066, 0.1539210081100464, 0.15219324827194214, 0.018904581665992737, 0.05995485186576843, 0.16062051057815552, -0.155950665473938, 0.04296550154685974, 0.039108771830797195, -0.12844452261924744, 0.06532102078199387], [0.16276958584785461, 0.09890850633382797, 0.0718129500746727, -0.12738381326198578, 0.13727974891662598, -0.1473977267742157, 0.03885413706302643, -0.10902208089828491, 0.14434519410133362, -0.04719152674078941, -0.015363473445177078, 0.06767173111438751, -0.1978742927312851, 0.21230000257492065, 0.04284840077161789, -0.13738077878952026, 0.08295896649360657, 0.12747251987457275, 0.005816545337438583, -0.193477600812912, -0.14894944429397583, 0.1647944152355194, 0.07685565203428268, 0.0463782474398613, 0.02549966797232628, -0.12933118641376495, 0.13769982755184174, -0.1561671495437622, 0.016014758497476578, 0.053986649960279465, -0.20621585845947266, 0.061501648277044296], [0.013606575317680836, -0.02920321375131607, -0.11484862118959427, 0.2121044099330902, -0.13163121044635773, -0.10697505623102188, -0.19109901785850525, -0.021206166595220566, -0.1553826928138733, 0.2034023106098175, -0.09725034981966019, 0.14843864738941193, 0.07586534321308136, 0.09889598935842514, -0.05787764489650726, 0.16607102751731873, -0.1895250529050827, 0.1924431324005127, -0.00439849030226469, 0.01568973809480667, 0.09108785539865494, -0.119782954454422, 0.020155828446149826, -0.18625831604003906, -0.08845671266317368, 0.011383846402168274, 0.20871949195861816, -0.055806972086429596, -0.054329805076122284, 0.09216276556253433, 0.22241860628128052, 0.009365230798721313], [-0.0018498199060559273, -0.07882855832576752, -0.03236013650894165, -0.02268413081765175, -0.05897461250424385, -0.006162417121231556, -0.1789441555738449, -0.14227762818336487, 0.03597434610128403, 0.17086154222488403, -0.12348159402608871, 0.17518462240695953, 0.20225411653518677, 0.19040271639823914, 0.1947506219148636, 0.023953106254339218, -0.036404624581336975, 0.08211233466863632, 0.10285753011703491, -0.12913626432418823, -0.16402892768383026, 0.2056705802679062, 0.012455830350518227, -0.19171974062919617, 0.1844290941953659, 0.0394354946911335, -0.19648566842079163, -0.19077274203300476, -0.018025293946266174, -0.18811193108558655, -0.020766891539096832, -0.08452577143907547], [0.013667374849319458, 0.19408991932868958, 0.05278933793306351, -0.07989535480737686, -0.19917097687721252, -0.1829816848039627, 0.15485084056854248, 0.1254955232143402, 0.07691091299057007, 0.1325061023235321, -0.1713821142911911, 0.20388877391815186, 0.07154878973960876, -0.1988307237625122, 0.18264257907867432, 0.09792274236679077, 0.18977785110473633, 0.11393990367650986, 0.19244910776615143, 0.09340573102235794, -0.0032823351211845875, -0.06522394716739655, 0.2022039145231247, 0.09246432781219482, -0.046335868537425995, -0.16856995224952698, -0.04695424064993858, 0.08062700182199478, 0.006750435568392277, -0.11337517946958542, 0.03240654245018959, -0.050750717520713806], [-0.07231415808200836, -0.15778210759162903, 0.16613629460334778, 0.12474805861711502, -0.12436633557081223, -0.042857203632593155, 0.18821293115615845, 0.005663651041686535, 0.10569144785404205, -0.010747795924544334, -0.042908795177936554, 0.1013607606291771, -0.08387035876512527, 0.17005836963653564, 0.16075555980205536, 0.04242695868015289, 0.16367372870445251, 0.06947698444128036, -0.024516073986887932, 0.06900002062320709, 0.07101355493068695, -0.1270310878753662, 0.014228243380784988, 0.023065678775310516, 0.19312715530395508, 0.044943809509277344, -0.15549731254577637, -0.12303870171308517, -0.04287439212203026, -0.10634855180978775, 0.09130552411079407, -0.04586581885814667], [0.172790065407753, -0.16631419956684113, 0.02464958280324936, 0.09458263963460922, -0.1361021101474762, 0.09552288800477982, 0.03156030550599098, 0.13821974396705627, 0.08425886183977127, 0.07114683091640472, 0.050501883029937744, 0.05387723818421364, -0.01480881217867136, -0.11322396993637085, 0.20314793288707733, -0.10541678220033646, 1.084059476852417e-05, 0.006644592620432377, 0.15096792578697205, -0.2194034457206726, -0.1205330565571785, 0.15094898641109467, 0.0062495809979736805, 0.08594611287117004, -0.12280301749706268, 0.02960485965013504, 0.1286424994468689, -0.1056409403681755, 0.04786353558301926, -0.08949868381023407, 0.16501542925834656, 0.18390882015228271], [-0.022304397076368332, -0.11927694827318192, 0.03873688727617264, 0.17212919890880585, 0.07286758720874786, -0.027435973286628723, -0.0285483468323946, -0.2035977691411972, 0.1537199467420578, 0.0669441819190979, -0.08866606652736664, -0.09148354083299637, 0.0008290288969874382, 0.021635746583342552, -0.08613885939121246, -0.15065503120422363, -0.1753946840763092, -0.10063940286636353, -0.1470852941274643, -0.14039985835552216, 0.1914401352405548, 0.07731051743030548, -0.19567428529262543, 0.019310252740979195, -0.03454659879207611, 0.1643598973751068, 0.023289959877729416, -0.21318015456199646, -0.1211991235613823, 0.15230293571949005, 0.03154471516609192, 0.11679887026548386], [-0.1375037133693695, -0.20258699357509613, -0.007707257755100727, -0.22580817341804504, 0.017102647572755814, -0.14255505800247192, 0.009531606920063496, -0.09791451692581177, -0.12351071089506149, 0.09087066352367401, -0.19060620665550232, 0.006909767631441355, -0.22428500652313232, -0.12159117311239243, 0.1917574107646942, 0.08882319182157516, -0.08815836161375046, -0.1970600187778473, 0.10527867078781128, -0.10523205995559692, -0.1743437498807907, 0.12517380714416504, -0.07363656163215637, -0.13057872653007507, -0.20877009630203247, 0.03790770471096039, -0.22650516033172607, -0.03349219635128975, -0.06878606230020523, 0.1077311784029007, -0.15816116333007812, 0.12475685030221939], [-0.002695918083190918, 0.19241613149642944, -0.04426207020878792, 0.054989658296108246, -0.19795116782188416, 0.034228671342134476, 0.22549526393413544, 0.04185612127184868, -0.04299789294600487, -0.17070521414279938, 0.041066426783800125, 0.033699095249176025, 0.056705787777900696, 0.11043496429920197, -0.03573077172040939, 0.20328389108181, 0.14893309772014618, -0.20534954965114594, -0.019625937566161156, 0.013606267049908638, 0.05762788653373718, -0.1951920986175537, 0.09097547084093094, 0.017527800053358078, -0.16647391021251678, -0.07236538082361221, -0.08001686632633209, -0.14705684781074524, 0.19490857422351837, 0.0024657221511006355, -0.2084556519985199, -0.02926652319729328], [0.14571258425712585, -0.10163454711437225, -0.025152146816253662, 0.043819405138492584, -0.16075608134269714, 0.07077765464782715, 0.16018421947956085, -0.151823490858078, -0.031639207154512405, 0.13678619265556335, 0.06413543969392776, 0.09396977722644806, -0.1392214298248291, 0.118872731924057, -0.1272313892841339, 0.1971958875656128, -0.21130746603012085, -0.09974057972431183, 0.0346941202878952, -0.14639073610305786, -0.19971472024917603, 0.22248411178588867, -0.19849789142608643, -0.12930506467819214, 0.07353922724723816, -0.1492336392402649, -0.06524571031332016, -0.01011012215167284, 0.1703406274318695, 0.04149125888943672, -0.08154378086328506, -0.04842839762568474], [0.007811322808265686, -0.1166330948472023, -0.12308236211538315, -0.06370242685079575, -0.04455384984612465, 0.010537740774452686, 0.035018496215343475, 0.05263032391667366, 0.15961521863937378, -0.07471774518489838, -0.04440760239958763, -0.09768606722354889, 0.011462857946753502, 0.04291916638612747, 0.11245327442884445, -0.11437809467315674, 0.015680117532610893, -0.22418147325515747, 0.001228022389113903, -0.16435107588768005, 0.1533394604921341, -0.18929411470890045, -0.18351170420646667, -0.19979847967624664, 0.1406629979610443, -0.11308565735816956, -0.016908954828977585, 0.1575220823287964, 0.012265975587069988, 0.20471671223640442, 0.08386197686195374, -0.07512383162975311], [0.060002103447914124, 0.1192813441157341, -0.000431952066719532, -0.08230400830507278, 0.21218734979629517, -0.07713406533002853, 0.06923504173755646, -0.22339874505996704, 0.07357486337423325, 0.06194714829325676, -0.12455520033836365, 0.14746850728988647, -0.16672170162200928, -0.20149265229701996, -0.12737897038459778, -0.031048312783241272, -0.06918887794017792, -0.16006530821323395, 0.07032355666160583, 0.19491608440876007, 0.16595099866390228, -0.09974517673254013, 0.08605748414993286, 0.16883349418640137, 0.20425280928611755, 0.16516882181167603, 0.14613685011863708, 0.18802650272846222, -0.010551187209784985, -0.1001756563782692, 0.16630233824253082, -0.09566707909107208]], "layers.0.attention.attn.in_proj_bias": [-0.009999977424740791, -0.009999963454902172, 0.00999999325722456, -0.009999989531934261, 0.009999985806643963, 0.009999995119869709, 0.009999960660934448, 0.009999995119869709, 0.009999989531934261, 0.009999989531934261, -0.00999999325722456, 0.009999995119869709, -0.009999986737966537, 0.009999987669289112, 0.009999996982514858, -0.009999977424740791, 0.00999999139457941, 0.00999996904283762, -0.009999983012676239, -0.009999988600611687, -0.009999945759773254, -0.00999999139457941, 0.009999946691095829, 0.009999973699450493, 0.009999986737966537, 0.009999984875321388, -0.009999992325901985, -0.009999987669289112, -0.00999998115003109, -0.009999915026128292, 0.009999985806643963, -0.009999988600611687, -0.0015701770316809416, 0.0015701770316809416, 0.001401410554535687, 0.0006528882659040391, -0.0008519761613570154, -0.002714179689064622, -0.0015701770316809416, -0.0015701770316809416, -0.0006528882659040391, 0.0004449420957826078, -0.0010427599772810936, -0.0015701770316809416, 0.0008519761613570154, 0.0, -0.0015701770316809416, 0.0008519761613570154, -0.0017324460204690695, -0.0036791933234781027, -0.003177141072228551, -0.0033872381318360567, -0.003437755862250924, -0.002651854418218136, -0.001401410554535687, -0.002458310918882489, 0.0007535037002526224, 0.0021838166285306215, 0.00312251434661448, 0.003177141072228551, 0.0008519761613570154, -0.0015701770316809416, -0.004030595067888498, 0.00022753298981115222, -0.009999994188547134, 0.009999998845160007, 0.009999999776482582, 0.009999998845160007, -0.009999996051192284, 0.009999996982514858, 0.009999998845160007, 0.00999999325722456, 0.009999998845160007, -0.009999990463256836, 0.009999998845160007, -0.009999994188547134, 0.009999994188547134, 0.009999998845160007, 0.009999998845160007, -0.009999996982514858, 0.009999996982514858, 0.009999877773225307, 0.009999996982514858, -0.009999998845160007, 0.009999996982514858, -0.009999997913837433, -0.009999999776482582, 0.009999998845160007, 0.009999998845160007, -0.009999996051192284, -0.009999996051192284, 0.009999998845160007, 0.010000000707805157, 0.009999996051192284, -0.009999998845160007, 0.009999997913837433], "layers.0.attention.attn.out_proj.weight": [[-0.0883803442120552, -0.05892028659582138, -0.020820770412683487, 0.1948603391647339, 0.22510114312171936, -0.020688828080892563, 0.09716405719518661, 0.18912789225578308, -0.009308668784797192, -0.036328863352537155, 0.19537444412708282, 0.3160311281681061, -0.1989305168390274, 0.1332106590270996, -0.01307144109159708, -0.22420944273471832, 0.04112536087632179, 0.06125950068235397, -0.16210819780826569, -0.10050380229949951, 0.27945515513420105, 0.14615146815776825, -0.01472108531743288, -0.14232678711414337, 0.018507730215787888, 0.28906843066215515, -0.25066420435905457, -0.04456678777933121, -0.2182481288909912, -0.14329268038272858, 0.20791158080101013, 0.07240267843008041], [0.1686292439699173, 0.15076792240142822, -0.1600865125656128, 0.12018286436796188, -0.13735470175743103, -0.3071269094944, 0.12980686128139496, 0.23005393147468567, -0.17864125967025757, -0.062280744314193726, -0.031796298921108246, -0.14279966056346893, -0.14564190804958344, 0.2620545029640198, 0.29459965229034424, 0.08428134024143219, -0.23820997774600983, -0.19719240069389343, -0.19118136167526245, -0.01453128457069397, 0.25766631960868835, 0.13036753237247467, -0.2663913369178772, 0.1535266488790512, 0.1649453043937683, 0.17053046822547913, -0.2002200484275818, 0.1116974875330925, 0.16112366318702698, -0.06783724576234818, 0.22858913242816925, 0.04783095419406891], [-0.10036422312259674, -0.03822128847241402, -0.11534694582223892, 0.0887768566608429, 0.07581920921802521, -0.08445578813552856, 0.22544807195663452, 0.1063319519162178, 0.12326247990131378, -0.18859268724918365, 0.17665007710456848, -0.08797615021467209, 0.13329416513442993, -0.027873603627085686, 0.15092316269874573, 0.26549971103668213, -0.21854794025421143, 0.1359044760465622, 0.12074222415685654, 0.24538910388946533, -0.13535566627979279, 0.15388759970664978, 0.1287822127342224, -0.22742204368114471, -0.29304105043411255, -0.009315934032201767, -0.23815202713012695, 0.08641499280929565, -0.13741382956504822, 0.19051939249038696, 0.16199451684951782, 0.017247958108782768], [0.17025306820869446, 0.047108352184295654, -0.24537278711795807, -0.256615549325943, 0.08341125398874283, 0.14964720606803894, -0.30354490876197815, -0.02078828401863575, -0.1279207020998001, -0.2891828417778015, -0.2554662823677063, -0.17767195403575897, -0.06825856864452362, -0.17547842860221863, 0.03582476079463959, -0.0002458551898598671, -0.10890410840511322, 0.10485298186540604, -0.30810031294822693, -0.07476836442947388, -0.08205708116292953, 0.15071311593055725, 0.15796521306037903, -0.2804650068283081, 0.03183480724692345, -0.020107554271817207, -0.19426175951957703, -0.23933713138103485, -0.20222200453281403, -0.05476933345198631, 0.21960964798927307, -0.2718450427055359], [0.07210051268339157, 0.059691209346055984, 0.26788660883903503, 0.016480781137943268, -0.13267996907234192, 0.2013062834739685, -0.2605897784233093, -0.04442279413342476, 0.20073944330215454, -0.11123336851596832, -0.01922525092959404, 0.060403935611248016, 0.23785752058029175, -0.01608882285654545, -0.2985697090625763, 0.020200282335281372, 0.16167990863323212, 0.06950798630714417, -0.14312110841274261, -0.15636585652828217, 0.26419153809547424, 0.22736114263534546, -0.09121339023113251, -0.13596628606319427, 0.07492756098508835, -0.13292455673217773, 0.042886607348918915, 0.10470578819513321, -0.20153307914733887, -0.14115534722805023, 0.04274507611989975, -0.060040079057216644], [0.11689496040344238, -0.0837576687335968, 0.20851735770702362, -0.26027294993400574, -0.13005422055721283, 0.15788806974887848, 0.2915966510772705, -0.07573047280311584, 0.14280648529529572, 0.06312470883131027, -0.07550840824842453, -0.2843940258026123, 0.09980868548154831, 0.27192631363868713, -0.04261883348226547, 0.053016405552625656, 0.03279394656419754, 0.016357388347387314, -0.13371172547340393, 0.2876977324485779, 0.11839127540588379, -0.038420312106609344, 0.04483406990766525, -0.08927283436059952, 0.10730386525392532, 0.1462319940328598, -0.0034581180661916733, -0.031086426228284836, -0.14212846755981445, -0.07773216813802719, 0.037634022533893585, 0.231719508767128], [0.2757956385612488, -0.03617231547832489, -0.05015900731086731, 0.09453725814819336, 0.2511863112449646, -0.23185549676418304, -0.3044508695602417, -0.07628350704908371, 0.14633220434188843, -0.053279321640729904, -0.08862832933664322, -0.2924022972583771, 0.14217300713062286, -0.22742509841918945, -0.02893955633044243, 0.15779739618301392, 0.06542722135782242, -0.056804586201906204, 0.2138180434703827, 0.25872501730918884, -0.28179651498794556, -0.20089343190193176, -0.024794969707727432, 0.06512865424156189, 0.013743609189987183, -0.055111728608608246, -0.31001925468444824, -0.08830422163009644, -0.21102601289749146, -0.14333173632621765, 0.22004076838493347, -0.2724683880805969], [0.03807054087519646, -0.2892466187477112, -0.09481877088546753, -0.037273697555065155, 0.01813962310552597, 0.12879678606987, 0.2735259532928467, -0.2178734689950943, -0.0878186896443367, 0.032147858291864395, -0.23549824953079224, -0.23500379920005798, -0.2821769416332245, 0.17805743217468262, -0.07874079048633575, -0.04346545785665512, 0.2976143956184387, -0.28526660799980164, 0.23122099041938782, -0.25438904762268066, 0.1344682276248932, 0.2959059774875641, -0.15741848945617676, -0.21244807541370392, 0.09418141841888428, -0.0341198556125164, -0.05324877053499222, -0.24185892939567566, -0.24740394949913025, -0.07965286076068878, -0.20114198327064514, 0.03610529750585556], [0.02425212599337101, 0.14570139348506927, 0.2055627852678299, -0.04731620103120804, -0.042633071541786194, 0.001978387124836445, -0.14225807785987854, -0.10257227718830109, -0.24414901435375214, 0.031967297196388245, -0.17001746594905853, -0.2905484735965729, -0.2215633988380432, -0.08693418651819229, 0.22628480195999146, 0.046321965754032135, -0.26841309666633606, 0.15707114338874817, -0.09546661376953125, -0.15933525562286377, 0.2342996448278427, 0.2599623203277588, 0.11599308997392654, -0.07926778495311737, -0.289289265871048, 0.11548615247011185, 0.16107392311096191, 0.19533583521842957, 0.11240363866090775, 0.09175196290016174, 0.20964722335338593, 0.01980796456336975], [0.05793408676981926, -0.15978170931339264, 0.20328742265701294, -0.21178407967090607, 0.041979867964982986, -0.037602946162223816, -0.23714028298854828, 0.12374596297740936, -0.22533169388771057, 0.22632378339767456, -0.20374636352062225, 0.05549357086420059, -0.07768004387617111, -0.12647154927253723, 0.0697348341345787, -0.09505176544189453, -0.0395643375813961, -0.13894209265708923, -0.15755552053451538, 0.21216271817684174, 0.11203022301197052, -0.17783987522125244, -0.2380293607711792, -0.143957257270813, -0.1943240761756897, -0.05671572685241699, 0.18761636316776276, -0.181482195854187, -0.23411548137664795, -0.17591622471809387, 0.06273116916418076, 0.06761052459478378], [0.123079314827919, 0.24525924026966095, 0.13577179610729218, 0.23385897278785706, -0.12728622555732727, -0.002963479608297348, 0.041530147194862366, -0.11849167943000793, -0.20756493508815765, -0.044736169278621674, 0.27552536129951477, -0.019834399223327637, -0.1854725331068039, 0.16814258694648743, -0.1449705958366394, -0.053306687623262405, -0.3133920133113861, -0.1980438083410263, -0.19907915592193604, 0.2202576994895935, -0.2896619737148285, 0.07423213869333267, 0.20983469486236572, 0.01451670378446579, 0.17053192853927612, -0.1953136920928955, -0.203570157289505, 0.2688305974006653, 0.2386392056941986, -0.1502780020236969, -0.2655624747276306, -0.06870479881763458], [0.07348001003265381, -0.1688489019870758, 0.11207646131515503, -0.055380597710609436, -0.04283101484179497, -0.08792512863874435, 0.1577199399471283, -0.244803786277771, 0.08840316534042358, 0.02663680538535118, -0.07683686912059784, 0.19014960527420044, -0.16578364372253418, 0.14470800757408142, 0.2434510886669159, 0.1730186492204666, -0.20791062712669373, -0.21532271802425385, -0.14631518721580505, 0.17054328322410583, 0.10332565754652023, -0.022212274372577667, 0.2218356430530548, -0.04506271332502365, -0.13965915143489838, 0.021451540291309357, 0.008281782269477844, -0.005432779900729656, -0.24034316837787628, 0.0484355166554451, -0.028284719213843346, -0.0891885906457901], [0.06964538991451263, -0.010616179555654526, -0.013621004298329353, 0.28596231341362, 0.2539273500442505, -0.16977699100971222, -0.036285411566495895, 0.21704450249671936, 0.10081827640533447, -0.2089596390724182, -0.14671644568443298, -0.1299273818731308, -0.2921152710914612, -0.25539883971214294, 0.15078914165496826, -0.2369883507490158, 0.16056376695632935, 0.19568148255348206, -0.15181812644004822, 0.27198946475982666, 0.032939255237579346, -0.28764161467552185, -0.05159624293446541, -0.17709220945835114, 0.12684166431427002, -0.2180250585079193, -0.04940389096736908, -0.11642304807901382, 0.28352007269859314, 0.2053387612104416, -0.19458958506584167, -0.14565542340278625], [0.2918684482574463, 0.2611871361732483, 0.14705149829387665, 0.25851285457611084, -0.2290186733007431, -0.22981801629066467, 0.22349673509597778, -0.1662963330745697, 0.09931685775518417, 0.13972830772399902, 0.14395034313201904, 0.22329401969909668, -0.2659348249435425, 0.07425637543201447, -0.07950419187545776, -0.1634645313024521, 0.10895412415266037, -0.009324265643954277, -0.11063383519649506, -0.011477988213300705, -0.12338525801897049, -0.2460343986749649, -0.06617219001054764, -0.22848570346832275, 0.12150068581104279, 0.07406090945005417, -0.1458210051059723, -0.0336197093129158, -0.15874195098876953, 0.11874387413263321, 0.3109983801841736, 0.26685187220573425], [-0.15747180581092834, -0.25778523087501526, -0.09673584252595901, -0.08790377527475357, -0.27682411670684814, -0.2139410525560379, -0.005415700376033783, 0.0314536951482296, 0.12138744443655014, -0.23725944757461548, -0.012494423426687717, 0.1894102543592453, 0.03823507949709892, 0.06514564156532288, 0.20142386853694916, 0.045773617923259735, -0.07697425782680511, -0.2765606641769409, 0.09825433790683746, -0.22128289937973022, -0.19425606727600098, 0.25779327750205994, -0.008623747155070305, 0.21749058365821838, 0.21021528542041779, -0.06981950998306274, 0.011126246303319931, 0.21001097559928894, -0.18411517143249512, 0.15919308364391327, -0.19389942288398743, 0.25960153341293335], [-0.051289092749357224, -0.16905085742473602, -0.2690637707710266, -0.13430866599082947, -0.2686116099357605, -0.0472334548830986, -0.2477426528930664, -0.009991366416215897, 0.09675362706184387, -0.1684631109237671, -0.22330793738365173, -0.22231486439704895, -0.2916991114616394, 0.0801481381058693, -0.041134726256132126, 0.015587842091917992, 0.08972711116075516, -0.09737621247768402, -0.10795438289642334, 0.2801593542098999, 0.1664758324623108, 0.2841007113456726, 0.28313127160072327, 0.2210545539855957, -0.0958155170083046, 0.2414107620716095, 0.23255932331085205, 0.002297954633831978, -0.12293600291013718, 0.15453100204467773, 